{"learner":{"attributes":{"scikit_learn":"{\"_estimator_type\": \"regressor\"}"},"feature_names":["valor_mes_anterior","Mes","Año"],"feature_types":["float","int","int"],"gradient_booster":{"gbtree":{"model":{"gbtree_model_param":{"num_parallel_tree":"1","num_trees":"255"},"iteration_indptr":[0,1,2,3,4,5,6,7,8,9,10,11,12,13,14,15,16,17,18,19,20,21,22,23,24,25,26,27,28,29,30,31,32,33,34,35,36,37,38,39,40,41,42,43,44,45,46,47,48,49,50,51,52,53,54,55,56,57,58,59,60,61,62,63,64,65,66,67,68,69,70,71,72,73,74,75,76,77,78,79,80,81,82,83,84,85,86,87,88,89,90,91,92,93,94,95,96,97,98,99,100,101,102,103,104,105,106,107,108,109,110,111,112,113,114,115,116,117,118,119,120,121,122,123,124,125,126,127,128,129,130,131,132,133,134,135,136,137,138,139,140,141,142,143,144,145,146,147,148,149,150,151,152,153,154,155,156,157,158,159,160,161,162,163,164,165,166,167,168,169,170,171,172,173,174,175,176,177,178,179,180,181,182,183,184,185,186,187,188,189,190,191,192,193,194,195,196,197,198,199,200,201,202,203,204,205,206,207,208,209,210,211,212,213,214,215,216,217,218,219,220,221,222,223,224,225,226,227,228,229,230,231,232,233,234,235,236,237,238,239,240,241,242,243,244,245,246,247,248,249,250,251,252,253,254,255],"tree_info":[0,0,0,0,0,0,0,0,0,0,0,0,0,0,0,0,0,0,0,0,0,0,0,0,0,0,0,0,0,0,0,0,0,0,0,0,0,0,0,0,0,0,0,0,0,0,0,0,0,0,0,0,0,0,0,0,0,0,0,0,0,0,0,0,0,0,0,0,0,0,0,0,0,0,0,0,0,0,0,0,0,0,0,0,0,0,0,0,0,0,0,0,0,0,0,0,0,0,0,0,0,0,0,0,0,0,0,0,0,0,0,0,0,0,0,0,0,0,0,0,0,0,0,0,0,0,0,0,0,0,0,0,0,0,0,0,0,0,0,0,0,0,0,0,0,0,0,0,0,0,0,0,0,0,0,0,0,0,0,0,0,0,0,0,0,0,0,0,0,0,0,0,0,0,0,0,0,0,0,0,0,0,0,0,0,0,0,0,0,0,0,0,0,0,0,0,0,0,0,0,0,0,0,0,0,0,0,0,0,0,0,0,0,0,0,0,0,0,0,0,0,0,0,0,0,0,0,0,0,0,0,0,0,0,0,0,0,0,0,0,0,0,0,0,0,0,0,0,0,0,0,0,0,0,0],"trees":[{"base_weights":[-5.248676E3,-1.2425595E5,5.4255016E4,-1.4478273E5,-8.574607E3,-1.8192146E4,6.874445E4,-1.171175E4,-1.6169019E5,-3.3613794E2,-4.64159E3,3.9893918E4,8.797804E4,-2.0860883E4,-2.3065824E4,1.2623922E4,-1.7081367E3,1.6599648E4,5.647612E3],"categories":[],"categories_nodes":[],"categories_segments":[],"categories_sizes":[],"default_left":[0,0,0,0,0,0,0,0,0,0,0,0,0,0,0,0,0,0,0],"id":0,"left_children":[1,3,5,7,-1,9,11,-1,13,-1,-1,15,17,-1,-1,-1,-1,-1,-1],"loss_changes":[2.5492967E11,1.5168504E10,2.5193292E10,9.004564E9,0E0,9.903763E8,1.1097924E10,0E0,4.4477645E8,0E0,0E0,2.1948762E10,1.8691162E10,0E0,0E0,0E0,0E0,0E0,0E0],"parents":[2147483647,0,0,1,1,2,2,3,3,5,5,6,6,8,8,11,11,12,12],"right_children":[2,4,6,8,-1,10,12,-1,14,-1,-1,16,18,-1,-1,-1,-1,-1,-1],"split_conditions":[2.05E1,1.12E1,2.3E1,5E0,-8.574607E3,2.18E1,5E0,-1.171175E4,7E0,-3.3613794E2,-4.64159E3,3E0,1E1,-2.0860883E4,-2.3065824E4,1.2623922E4,-1.7081367E3,1.6599648E4,5.647612E3],"split_indices":[0,0,0,1,0,0,1,0,1,0,0,1,1,0,0,0,0,0,0],"split_type":[0,0,0,0,0,0,0,0,0,0,0,0,0,0,0,0,0,0,0],"sum_hessian":[3.6E1,1.2E1,2.4E1,9E0,3E0,4E0,2E1,2E0,7E0,2E0,2E0,8E0,1.2E1,3E0,4E0,4E0,4E0,7E0,5E0],"tree_param":{"num_deleted":"0","num_feature":"3","num_nodes":"19","size_leaf_vector":"1"}},{"base_weights":[-1.0201003E4,-1.0365603E5,5.5767297E4,-5.5169263E3,-1.2476613E5,2.9835654E4,9.281231E4,-1.3966067E5,-9.937147E3,8.06955E4,-4.0710598E3,1.15263836E5,5.018609E3,-2.0000361E4,-1.6873574E4,5.2421694E3,1.6837703E4,-4.239027E3,3.125103E3,1.0857239E4,2.3137215E4],"categories":[],"categories_nodes":[],"categories_segments":[],"categories_sizes":[],"default_left":[0,0,0,0,0,0,0,0,0,0,0,0,0,0,0,0,0,0,0,0,0],"id":1,"left_children":[1,3,5,-1,7,9,11,13,-1,15,17,19,-1,-1,-1,-1,-1,-1,-1,-1,-1],"loss_changes":[1.7878724E11,1.6042951E10,1.6330813E10,0E0,6.98812E9,1.7244942E10,8.821273E9,7.4584064E8,0E0,7.1835525E9,4.3460844E9,9.667834E9,0E0,0E0,0E0,0E0,0E0,0E0,0E0,0E0,0E0],"parents":[2147483647,0,0,1,1,2,2,4,4,5,5,6,6,7,7,9,9,10,10,11,11],"right_children":[2,4,6,-1,8,10,12,14,-1,16,18,20,-1,-1,-1,-1,-1,-1,-1,-1,-1],"split_conditions":[2.325E1,2.02E3,2.022E3,-5.5169263E3,1.12E1,2.02E3,3.62E1,2.021E3,-9.937147E3,2.95E1,3.225E1,3.15E1,5.018609E3,-2.0000361E4,-1.6873574E4,5.2421694E3,1.6837703E4,-4.239027E3,3.125103E3,1.0857239E4,2.3137215E4],"split_indices":[0,2,2,0,0,2,0,2,0,0,0,0,0,0,0,0,0,0,0,0,0],"split_type":[0,0,0,0,0,0,0,0,0,0,0,0,0,0,0,0,0,0,0,0,0],"sum_hessian":[2.9E1,1.2E1,1.7E1,3E0,9E0,1E1,7E0,7E0,2E0,4E0,6E0,5E0,2E0,5E0,2E0,2E0,2E0,3E0,3E0,3E0,2E0],"tree_param":{"num_deleted":"0","num_feature":"3","num_nodes":"21","size_leaf_vector":"1"}},{"base_weights":[7.799454E3,-6.5154887E4,5.7955582E4,-3.1322924E4,-9.3348E4,1.7844828E4,4.760126E4,-1.4809067E3,-8.491845E3,-1.1961088E5,-5.584819E3,2.6017793E4,7.637904E4,-1.5426279E4,-1.7301605E4,-1.4714144E3,5.2364795E3,1.5675821E4,7.8362046E3],"categories":[],"categories_nodes":[],"categories_segments":[],"categories_sizes":[],"default_left":[0,0,0,0,0,0,0,0,0,0,0,0,0,0,0,0,0,0,0],"id":2,"left_children":[1,3,5,7,9,-1,11,-1,-1,13,-1,15,17,-1,-1,-1,-1,-1,-1],"loss_changes":[9.879604E10,1.0492072E10,1.2007444E10,3.151344E9,8.27691E9,0E0,8.695718E9,0E0,0E0,1.8761728E8,0E0,3.6060099E9,4.378059E9,0E0,0E0,0E0,0E0,0E0,0E0],"parents":[2147483647,0,0,1,1,2,2,3,3,4,4,6,6,9,9,11,11,12,12],"right_children":[2,4,6,8,10,-1,12,-1,-1,14,-1,16,18,-1,-1,-1,-1,-1,-1],"split_conditions":[2.6E1,2.02E3,3.1E1,2.3E1,8.8E0,1.7844828E4,2.022E3,-1.4809067E3,-8.491845E3,3.25E0,-5.584819E3,3.15E1,3.375E1,-1.5426279E4,-1.7301605E4,-1.4714144E3,5.2364795E3,1.5675821E4,7.8362046E3],"split_indices":[0,2,0,0,0,0,2,0,0,0,0,0,0,0,0,0,0,0,0],"split_type":[0,0,0,0,0,0,0,0,0,0,0,0,0,0,0,0,0,0,0],"sum_hessian":[2.7E1,1.1E1,1.6E1,5E0,6E0,2E0,1.4E1,3E0,2E0,4E0,2E0,8E0,6E0,2E0,2E0,2E0,6E0,2E0,4E0],"tree_param":{"num_deleted":"0","num_feature":"3","num_nodes":"19","size_leaf_vector":"1"}},{"base_weights":[-3.7805276E2,-3.3782473E4,4.2570477E4,2.8118512E4,-8.330322E4,1.1269592E5,1.4520133E4,4.2986553E3,1.3623224E4,-7.4914927E3,-9.043933E4,2.1368018E4,9.467797E3,-1.5001797E4,6.773772E4,9.146623E3,-3.691183E3,-1.6198262E4,-1.0077864E4,1.8590168E4,5.5379956E3],"categories":[],"categories_nodes":[],"categories_segments":[],"categories_sizes":[],"default_left":[0,0,0,0,0,0,0,0,0,0,0,0,0,0,0,0,0,0,0,0,0],"id":3,"left_children":[1,3,5,7,9,11,13,15,-1,-1,17,-1,-1,-1,19,-1,-1,-1,-1,-1,-1],"loss_changes":[4.5909516E10,5.5177003E10,2.7538606E10,1.3617138E10,2.0369162E9,7.565914E9,6.6082677E10,1.1740461E10,0E0,0E0,3.7523702E9,0E0,0E0,0E0,1.3002576E10,0E0,0E0,0E0,0E0,0E0,0E0],"parents":[2147483647,0,0,1,1,2,2,3,3,4,4,5,5,6,6,7,7,10,10,14,14],"right_children":[2,4,6,8,10,12,14,16,-1,-1,18,-1,-1,-1,20,-1,-1,-1,-1,-1,-1],"split_conditions":[7E0,4E0,2.02E3,2.022E3,2.02E3,9E0,2.021E3,2E0,1.3623224E4,-7.4914927E3,2.021E3,2.1368018E4,9.467797E3,-1.5001797E4,1E1,9.146623E3,-3.691183E3,-1.6198262E4,-1.0077864E4,1.8590168E4,5.5379956E3],"split_indices":[1,1,2,2,2,1,2,1,0,0,2,0,0,0,1,0,0,0,0,0,0],"split_type":[0,0,0,0,0,0,0,0,0,0,0,0,0,0,0,0,0,0,0,0,0],"sum_hessian":[3.2E1,1.8E1,1.4E1,8E0,1E1,4E0,1E1,6E0,2E0,2E0,8E0,2E0,2E0,3E0,7E0,2E0,4E0,3E0,5E0,2E0,5E0],"tree_param":{"num_deleted":"0","num_feature":"3","num_nodes":"21","size_leaf_vector":"1"}},{"base_weights":[-3.8808035E3,-3.2379842E4,7.092907E4,1.6497416E4,-6.2458133E4,2.051803E4,4.4580324E4,-2.0287578E4,5.328233E4,-9.489494E4,-1.0559088E4,-5.912732E2,1.2789344E4,-1.7130429E2,-5.379775E3,1.4104982E4,4.7410782E2,-1.3076713E4,-1.2825716E4,-3.447333E3,1.5595197E3],"categories":[],"categories_nodes":[],"categories_segments":[],"categories_sizes":[],"default_left":[0,0,0,0,0,0,0,0,0,0,0,0,0,0,0,0,0,0,0,0,0],"id":4,"left_children":[1,3,5,7,9,-1,11,13,15,17,19,-1,-1,-1,-1,-1,-1,-1,-1,-1,-1],"loss_changes":[6.1828362E10,3.0873082E10,1.6661811E10,1.082511E10,2.188472E10,0E0,1.4348502E10,1.4493842E9,9.926831E9,6.144E6,1.6072197E9,0E0,0E0,0E0,0E0,0E0,0E0,0E0,0E0,0E0,0E0],"parents":[2147483647,0,0,1,1,2,2,3,3,4,4,6,6,7,7,8,8,9,9,10,10],"right_children":[2,4,6,8,10,-1,12,14,16,18,20,-1,-1,-1,-1,-1,-1,-1,-1,-1,-1],"split_conditions":[2.022E3,2.02E3,3E0,7E0,2.021E3,2.051803E4,7E0,5E0,1E1,8E0,6E0,-5.912732E2,1.2789344E4,-1.7130429E2,-5.379775E3,1.4104982E4,4.7410782E2,-1.3076713E4,-1.2825716E4,-3.447333E3,1.5595197E3],"split_indices":[2,2,1,1,2,0,1,1,1,1,1,0,0,0,0,0,0,0,0,0,0],"split_type":[0,0,0,0,0,0,0,0,0,0,0,0,0,0,0,0,0,0,0,0,0],"sum_hessian":[2.9E1,2.1E1,8E0,8E0,1.3E1,2E0,6E0,4E0,4E0,8E0,5E0,3E0,3E0,2E0,2E0,2E0,2E0,5E0,3E0,3E0,2E0],"tree_param":{"num_deleted":"0","num_feature":"3","num_nodes":"21","size_leaf_vector":"1"}},{"base_weights":[-9.705652E3,-5.5372242E4,3.596095E4,-7.303255E4,-2.0051484E4,-4.751137E3,5.076533E4,-5.6138955E3,-8.103204E4,-6.5021987E3,2.8951736E3,5.006533E3,-6.306537E3,1.5144501E4,2.8290758E4,-1.1316479E4,-1.0855529E4,2.21389E3,8.840148E3],"categories":[],"categories_nodes":[],"categories_segments":[],"categories_sizes":[],"default_left":[0,0,0,0,0,0,0,0,0,0,0,0,0,0,0,0,0,0,0],"id":5,"left_children":[1,3,5,7,9,11,13,-1,15,-1,-1,-1,-1,-1,17,-1,-1,-1,-1],"loss_changes":[6.2563217E10,9.356612E9,9.040773E9,2.5596518E9,5.6618506E9,6.837958E9,1.4816279E10,0E0,2.2581248E7,0E0,0E0,0E0,0E0,0E0,3.5187712E9,0E0,0E0,0E0,0E0],"parents":[2147483647,0,0,1,1,2,2,3,3,4,4,5,5,6,6,8,8,14,14],"right_children":[2,4,6,8,10,12,14,-1,16,-1,-1,-1,-1,-1,18,-1,-1,-1,-1],"split_conditions":[2.325E1,1.1E1,7E0,5E0,6E0,3.35E1,9E0,-5.6138955E3,3.2E0,-6.5021987E3,2.8951736E3,5.006533E3,-6.306537E3,1.5144501E4,1.2E1,-1.1316479E4,-1.0855529E4,2.21389E3,8.840148E3],"split_indices":[0,0,1,1,1,0,1,0,0,0,0,0,0,0,1,0,0,0,0],"split_type":[0,0,0,0,0,0,0,0,0,0,0,0,0,0,0,0,0,0,0],"sum_hessian":[3E1,1.5E1,1.5E1,1E1,5E0,4E0,1.1E1,2E0,8E0,3E0,2E0,2E0,2E0,3E0,8E0,4E0,4E0,6E0,2E0],"tree_param":{"num_deleted":"0","num_feature":"3","num_nodes":"19","size_leaf_vector":"1"}},{"base_weights":[-1.0124726E4,-5.965453E4,3.3213875E4,-3.9632952E3,-6.802318E4,-3.0049953E4,5.4301832E4,-7.354975E4,-5.9038022E3,-2.7785105E3,-5.443746E3,9.359379E4,1.5009699E4,-9.544689E3,-1.1874171E4,1.379287E4,1.2310416E4,2.0214238E2,5.7561294E3],"categories":[],"categories_nodes":[],"categories_segments":[],"categories_sizes":[],"default_left":[0,0,0,0,0,0,0,0,0,0,0,0,0,0,0,0,0,0,0],"id":6,"left_children":[1,3,5,-1,7,9,11,13,-1,-1,-1,15,17,-1,-1,-1,-1,-1,-1],"loss_changes":[6.4396653E10,3.5950838E9,2.1345737E10,0E0,1.51185E9,3.795044E8,1.8526376E10,4.5089178E8,0E0,0E0,0E0,1.5638938E8,2.1974164E9,0E0,0E0,0E0,0E0,0E0,0E0],"parents":[2147483647,0,0,1,1,2,2,4,4,5,5,6,6,7,7,11,11,12,12],"right_children":[2,4,6,-1,8,10,12,14,-1,-1,-1,16,18,-1,-1,-1,-1,-1,-1],"split_conditions":[2.325E1,5E0,5E0,-3.9632952E3,1.95E1,3.225E1,1E1,8.8E0,-5.9038022E3,-2.7785105E3,-5.443746E3,8E0,1.2E1,-9.544689E3,-1.1874171E4,1.379287E4,1.2310416E4,2.0214238E2,5.7561294E3],"split_indices":[0,1,1,0,0,0,1,0,0,0,0,1,1,0,0,0,0,0,0],"split_type":[0,0,0,0,0,0,0,0,0,0,0,0,0,0,0,0,0,0,0],"sum_hessian":[3E1,1.4E1,1.6E1,3E0,1.1E1,4E0,1.2E1,9E0,2E0,2E0,2E0,6E0,6E0,7E0,2E0,2E0,4E0,4E0,2E0],"tree_param":{"num_deleted":"0","num_feature":"3","num_nodes":"19","size_leaf_vector":"1"}},{"base_weights":[2.1875632E3,-1.4871341E4,7.895243E4,-5.1925875E4,3.6559614E3,9.0071016E4,7.759151E3,-3.8943492E4,-6.2311586E4,9.771396E3,-4.8149785E3,1.0964625E4,1.3680573E4,-2.2327285E3,-8.422976E3,-8.0433804E3,-9.247039E3,-5.431351E3,3.0532954E3],"categories":[],"categories_nodes":[],"categories_segments":[],"categories_sizes":[],"default_left":[0,0,0,0,0,0,0,0,0,0,0,0,0,0,0,0,0,0,0],"id":7,"left_children":[1,3,5,7,9,11,-1,13,15,-1,17,-1,-1,-1,-1,-1,-1,-1,-1],"loss_changes":[4.3214356E10,1.8536071E10,1.4834278E9,1.21344E9,1.0332909E10,3.939451E8,0E0,2.0472699E9,9.280922E7,0E0,1.5144346E10,0E0,0E0,0E0,0E0,0E0,0E0,0E0,0E0],"parents":[2147483647,0,0,1,1,2,2,3,3,4,4,5,5,7,7,8,8,10,10],"right_children":[2,4,6,8,10,12,-1,14,16,-1,18,-1,-1,-1,-1,-1,-1,-1,-1],"split_conditions":[3.525E1,1.12E1,9E0,2.2E0,2E0,4.575E1,7.759151E3,6E0,5.75E0,9.771396E3,7E0,1.0964625E4,1.3680573E4,-2.2327285E3,-8.422976E3,-8.0433804E3,-9.247039E3,-5.431351E3,3.0532954E3],"split_indices":[0,0,1,0,1,0,0,1,0,0,1,0,0,0,0,0,0,0,0],"split_type":[0,0,0,0,0,0,0,0,0,0,0,0,0,0,0,0,0,0,0],"sum_hessian":[3.3E1,2.7E1,6E0,9E0,1.8E1,4E0,2E0,4E0,5E0,2E0,1.6E1,2E0,2E0,2E0,2E0,3E0,2E0,7E0,9E0],"tree_param":{"num_deleted":"0","num_feature":"3","num_nodes":"19","size_leaf_vector":"1"}},{"base_weights":[5.148835E3,1.0072358E4,-4.633207E3,-2.075709E4,3.5676438E4,1.128023E4,-4.8789707E4,-3.0064334E2,1.0062433E4,3.0867126E3,-2.315387E3,-7.6860845E3,-3.64147E3],"categories":[],"categories_nodes":[],"categories_segments":[],"categories_sizes":[],"default_left":[0,0,0,0,0,0,0,0,0,0,0,0,0],"id":8,"left_children":[1,-1,3,5,7,9,11,-1,-1,-1,-1,-1,-1],"loss_changes":[1.6075567E10,0E0,1.3648935E10,1.3471376E10,8.606597E9,2.2273654E9,1.310978E9,0E0,0E0,0E0,0E0,0E0,0E0],"parents":[2147483647,0,0,2,2,3,3,4,4,5,5,6,6],"right_children":[2,-1,4,6,8,10,12,-1,-1,-1,-1,-1,-1],"split_conditions":[3E0,1.0072358E4,2.022E3,2.02E3,7E0,1.1E1,1E1,-3.0064334E2,1.0062433E4,3.0867126E3,-2.315387E3,-7.6860845E3,-3.64147E3],"split_indices":[1,0,2,2,1,1,1,0,0,0,0,0,0],"split_type":[0,0,0,0,0,0,0,0,0,0,0,0,0],"sum_hessian":[2.4E1,3E0,2.1E1,1.5E1,6E0,7E0,8E0,3E0,3E0,5E0,2E0,6E0,2E0],"tree_param":{"num_deleted":"0","num_feature":"3","num_nodes":"13","size_leaf_vector":"1"}},{"base_weights":[-1.0849021E3,-1.3574355E4,4.1736E4,2.6139441E4,-3.7402637E4,1.3748708E4,1.823228E4,-7.102802E3,5.2733164E4,-5.6475652E4,-2.0713654E4,-4.0539875E3,6.8599346E3,1.3251088E3,-3.2685747E3,1.1276316E4,4.506482E3,-9.099622E3,-7.1771626E3,-5.069075E3,3.8718303E3],"categories":[],"categories_nodes":[],"categories_segments":[],"categories_sizes":[],"default_left":[0,0,0,0,0,0,0,0,0,0,0,0,0,0,0,0,0,0,0,0,0],"id":9,"left_children":[1,3,5,7,9,-1,11,13,15,17,19,-1,-1,-1,-1,-1,-1,-1,-1,-1,-1],"loss_changes":[1.6579121E10,2.2711515E10,9.667305E9,7.956338E9,4.774623E9,0E0,7.6367314E9,1.127424E9,2.9382892E9,2.8202394E8,6.4064655E9,0E0,0E0,0E0,0E0,0E0,0E0,0E0,0E0,0E0,0E0],"parents":[2147483647,0,0,1,1,2,2,3,3,4,4,6,6,7,7,8,8,9,9,10,10],"right_children":[2,4,6,8,10,-1,12,14,16,18,20,-1,-1,-1,-1,-1,-1,-1,-1,-1,-1],"split_conditions":[2.022E3,2.02E3,4E0,7E0,2.021E3,1.3748708E4,7E0,5E0,9E0,5E0,1E1,-4.0539875E3,6.8599346E3,1.3251088E3,-3.2685747E3,1.1276316E4,4.506482E3,-9.099622E3,-7.1771626E3,-5.069075E3,3.8718303E3],"split_indices":[2,2,1,1,2,0,1,1,1,1,1,0,0,0,0,0,0,0,0,0,0],"split_type":[0,0,0,0,0,0,0,0,0,0,0,0,0,0,0,0,0,0,0,0,0],"sum_hessian":[3.1E1,2.4E1,7E0,9E0,1.5E1,2E0,5E0,4E0,5E0,7E0,8E0,2E0,3E0,2E0,2E0,2E0,3E0,2E0,5E0,6E0,2E0],"tree_param":{"num_deleted":"0","num_feature":"3","num_nodes":"21","size_leaf_vector":"1"}},{"base_weights":[2.0911234E2,4.851597E4,-7.520016E3,1.5585812E3,1.1716339E4,-1.9847797E4,8.169895E3,-2.8779867E4,1.765279E3,-8.76629E3,1.7847713E4,-2.834837E3,-8.898789E3,-1.842148E3,-5.5648083E2,7.2412183E3,5.2194745E2],"categories":[],"categories_nodes":[],"categories_segments":[],"categories_sizes":[],"default_left":[0,0,0,0,0,0,0,0,0,0,0,0,0,0,0,0,0],"id":10,"left_children":[1,3,5,-1,-1,7,9,11,-1,13,15,-1,-1,-1,-1,-1,-1],"loss_changes":[1.0827742E10,5.512616E9,4.8355517E9,0E0,0E0,4.0954793E9,1.8029645E9,3.214801E9,0E0,8.83111E7,3.4459604E9,0E0,0E0,0E0,0E0,0E0,0E0],"parents":[2147483647,0,0,1,1,2,2,5,5,6,6,7,7,9,9,10,10],"right_children":[2,4,6,-1,-1,8,10,12,-1,14,16,-1,-1,-1,-1,-1,-1],"split_conditions":[3E0,3.15E1,3E1,1.5585812E3,1.1716339E4,9E0,5E0,2.3E1,1.765279E3,3.525E1,9E0,-2.834837E3,-8.898789E3,-1.842148E3,-5.5648083E2,7.2412183E3,5.2194745E2],"split_indices":[1,0,0,0,0,1,1,0,0,0,1,0,0,0,0,0,0],"split_type":[0,0,0,0,0,0,0,0,0,0,0,0,0,0,0,0,0],"sum_hessian":[2.9E1,4E0,2.5E1,2E0,2E0,1.4E1,1.1E1,1.1E1,3E0,4E0,7E0,9E0,2E0,2E0,2E0,2E0,5E0],"tree_param":{"num_deleted":"0","num_feature":"3","num_nodes":"17","size_leaf_vector":"1"}},{"base_weights":[7.725834E3,5.2814516E4,-7.957217E3,1.0306562E4,3.9302227E4,-1.8450096E4,2.177257E4,4.2913555E3,7.0053E3,-3.3122406E4,2.5103804E3,-3.868687E3,4.6797727E4,-1.72205E3,-5.7355303E3,-2.1570728E3,6.594704E3,5.9483164E3,6.8564595E3],"categories":[],"categories_nodes":[],"categories_segments":[],"categories_sizes":[],"default_left":[0,0,0,0,0,0,0,0,0,0,0,0,0,0,0,0,0,0,0],"id":11,"left_children":[1,3,5,-1,7,9,11,-1,-1,13,15,-1,17,-1,-1,-1,-1,-1,-1],"loss_changes":[2.1920993E10,2.4343327E9,7.1748884E9,0E0,4.7219405E8,5.2281636E9,7.515147E9,0E0,0E0,1.8072576E9,5.846006E9,0E0,4.401971E7,0E0,0E0,0E0,0E0,0E0,0E0],"parents":[2147483647,0,0,1,1,2,2,4,4,5,5,6,6,9,9,10,10,12,12],"right_children":[2,4,6,-1,8,10,12,-1,-1,14,16,-1,18,-1,-1,-1,-1,-1,-1],"split_conditions":[4E0,2E0,2.022E3,1.0306562E4,2.022E3,9E0,7E0,4.2913555E3,7.0053E3,2.02E3,2.021E3,-3.868687E3,9E0,-1.72205E3,-5.7355303E3,-2.1570728E3,6.594704E3,5.9483164E3,6.8564595E3],"split_indices":[1,1,2,0,2,1,1,0,0,2,2,0,1,0,0,0,0,0,0],"split_type":[0,0,0,0,0,0,0,0,0,0,0,0,0,0,0,0,0,0,0],"sum_hessian":[3.1E1,8E0,2.3E1,3E0,5E0,1.7E1,6E0,3E0,2E0,1E1,7E0,2E0,4E0,3E0,7E0,5E0,2E0,2E0,2E0],"tree_param":{"num_deleted":"0","num_feature":"3","num_nodes":"19","size_leaf_vector":"1"}},{"base_weights":[6.9268096E3,6.2526723E4,-1.6270634E3,5.707697E3,1.1400841E4,-2.3057816E4,1.4088831E4,-1.5615706E3,-3.5341348E4,4.4113242E4,3.170806E3,1.3559015E3,-1.7831779E3,-1.2530917E3,-6.267845E3,8.978543E3,3.091705E3,-5.016789E3,2.4777773E3],"categories":[],"categories_nodes":[],"categories_segments":[],"categories_sizes":[],"default_left":[0,0,0,0,0,0,0,0,0,0,0,0,0,0,0,0,0,0,0],"id":12,"left_children":[1,3,5,-1,-1,7,9,11,13,15,17,-1,-1,-1,-1,-1,-1,-1,-1],"loss_changes":[1.426785E10,1.7316127E9,8.756902E9,0E0,0E0,2.904551E9,4.917114E9,5.2646573E8,1.9193795E9,1.8514872E9,6.5474954E9,0E0,0E0,0E0,0E0,0E0,0E0,0E0,0E0],"parents":[2147483647,0,0,1,1,2,2,5,5,6,6,7,7,8,8,9,9,10,10],"right_children":[2,4,6,-1,-1,8,10,12,14,16,18,-1,-1,-1,-1,-1,-1,-1,-1],"split_conditions":[3E0,2.022E3,7E0,5.707697E3,1.1400841E4,2.02E3,2.02E3,5E0,4E0,9E0,2.021E3,1.3559015E3,-1.7831779E3,-1.2530917E3,-6.267845E3,8.978543E3,3.091705E3,-5.016789E3,2.4777773E3],"split_indices":[1,2,1,0,0,2,2,1,1,1,2,0,0,0,0,0,0,0,0],"split_type":[0,0,0,0,0,0,0,0,0,0,0,0,0,0,0,0,0,0,0],"sum_hessian":[3E1,4E0,2.6E1,2E0,2E0,1.1E1,1.5E1,4E0,7E0,4E0,1.1E1,2E0,2E0,2E0,5E0,2E0,2E0,3E0,8E0],"tree_param":{"num_deleted":"0","num_feature":"3","num_nodes":"19","size_leaf_vector":"1"}},{"base_weights":[-6.5425703E3,6.553538E3,-1.1987087E4,5.3382314E3,-1.8287201E4,1.4182129E4,-2.899471E3,-4.1751777E4,-7.337026E3,-1.844116E2,6.1895747E3,-7.009474E3,-5.1930977E3,-4.043422E3,1.0226492E3],"categories":[],"categories_nodes":[],"categories_segments":[],"categories_sizes":[],"default_left":[0,0,0,0,0,0,0,0,0,0,0,0,0,0,0],"id":13,"left_children":[1,-1,3,5,7,9,-1,11,13,-1,-1,-1,-1,-1,-1],"loss_changes":[9.782077E9,0E0,3.2745487E9,1.8771506E9,5.652706E9,2.8941783E9,0E0,2.5177907E8,4.936368E9,0E0,0E0,0E0,0E0,0E0,0E0],"parents":[2147483647,0,0,2,2,3,3,4,4,5,5,7,7,8,8],"right_children":[2,-1,4,6,8,10,-1,12,14,-1,-1,-1,-1,-1,-1],"split_conditions":[3E0,6.553538E3,2.02E3,1E1,2.021E3,7E0,-2.899471E3,5E0,7E0,-1.844116E2,6.1895747E3,-7.009474E3,-5.1930977E3,-4.043422E3,1.0226492E3],"split_indices":[1,0,2,1,2,1,0,1,1,0,0,0,0,0,0],"split_type":[0,0,0,0,0,0,0,0,0,0,0,0,0,0,0],"sum_hessian":[3.3E1,3E0,3E1,8E0,2.2E1,6E0,2E0,7E0,1.5E1,4E0,2E0,2E0,5E0,6E0,9E0],"tree_param":{"num_deleted":"0","num_feature":"3","num_nodes":"15","size_leaf_vector":"1"}},{"base_weights":[-1.6623978E3,1.0711537E4,-7.1767305E3,-1.2268339E4,1.7262943E4,-8.618364E3,-7.171275E3,5.670404E3,1.5596078E2,-2.8963496E3,9.797555E0],"categories":[],"categories_nodes":[],"categories_segments":[],"categories_sizes":[],"default_left":[0,0,0,0,0,0,0,0,0,0,0],"id":14,"left_children":[1,-1,3,5,7,9,-1,-1,-1,-1,-1],"loss_changes":[1.3668233E10,0E0,3.6086866E9,3.5170435E9,1.9496119E9,2.399719E9,0E0,0E0,0E0,0E0,0E0],"parents":[2147483647,0,0,2,2,3,3,4,4,5,5],"right_children":[2,-1,4,6,8,10,-1,-1,-1,-1,-1],"split_conditions":[2E0,1.0711537E4,3.375E1,3.175E1,3E0,1.12E1,-7.171275E3,5.670404E3,1.5596078E2,-2.8963496E3,9.797555E0],"split_indices":[1,0,0,0,1,0,0,0,0,0,0],"split_type":[0,0,0,0,0,0,0,0,0,0,0],"sum_hessian":[3.1E1,2E0,2.9E1,2.4E1,5E0,2.2E1,2E0,2E0,3E0,9E0,1.3E1],"tree_param":{"num_deleted":"0","num_feature":"3","num_nodes":"11","size_leaf_vector":"1"}},{"base_weights":[-8.323395E3,9.246103E3,-1.3946156E4,-8.32563E3,-3.8676344E4,-1.584306E4,7.783146E3,-6.633251E3,-3.2784004E3,-1.5312665E3,-4.712389E3,1.6850256E3,-4.857099E2],"categories":[],"categories_nodes":[],"categories_segments":[],"categories_sizes":[],"default_left":[0,0,0,0,0,0,0,0,0,0,0,0,0],"id":15,"left_children":[1,-1,3,5,7,9,11,-1,-1,-1,-1,-1,-1],"loss_changes":[1.2377379E10,0E0,3.7529068E9,2.6641295E9,7.2156416E8,1.29758E9,3.5964934E8,0E0,0E0,0E0,0E0,0E0,0E0],"parents":[2147483647,0,0,2,2,3,3,4,4,5,5,6,6],"right_children":[2,-1,4,6,8,10,12,-1,-1,-1,-1,-1,-1],"split_conditions":[2E0,9.246103E3,1.1E1,3.15E1,1.2E1,3.1E1,9E0,-6.633251E3,-3.2784004E3,-1.5312665E3,-4.712389E3,1.6850256E3,-4.857099E2],"split_indices":[1,0,1,0,1,0,1,0,0,0,0,0,0],"split_type":[0,0,0,0,0,0,0,0,0,0,0,0,0],"sum_hessian":[2.9E1,2E0,2.7E1,2.2E1,5E0,1.5E1,7E0,3E0,2E0,1.2E1,3E0,5E0,2E0],"tree_param":{"num_deleted":"0","num_feature":"3","num_nodes":"13","size_leaf_vector":"1"}},{"base_weights":[-1.4102365E4,1.4917103E3,-2.34588E4,-3.232279E3,2.4660833E3,-1.081199E3,-2.7347756E4,1.6025737E3,-9.210742E3,-3.2040258E4,-5.3153186E2,1.7163477E2,-3.407748E3,-2.6060012E3,-6.160867E3],"categories":[],"categories_nodes":[],"categories_segments":[],"categories_sizes":[],"default_left":[0,0,0,0,0,0,0,0,0,0,0,0,0,0,0],"id":16,"left_children":[1,3,5,7,-1,-1,9,-1,11,13,-1,-1,-1,-1,-1],"loss_changes":[3.501722E9,7.0295354E8,9.0744064E8,6.25487E8,0E0,0E0,1.3211781E9,0E0,8.21413E8,1.687892E9,0E0,0E0,0E0,0E0,0E0],"parents":[2147483647,0,0,1,1,2,2,3,3,6,6,8,8,9,9],"right_children":[2,4,6,8,-1,-1,10,-1,12,14,-1,-1,-1,-1,-1],"split_conditions":[5E0,2.022E3,2.02E3,2.02E3,2.4660833E3,-1.081199E3,1.2E1,1.6025737E3,3E0,2.021E3,-5.3153186E2,1.7163477E2,-3.407748E3,-2.6060012E3,-6.160867E3],"split_indices":[1,2,2,2,0,0,1,0,1,2,0,0,0,0,0],"split_type":[0,0,0,0,0,0,0,0,0,0,0,0,0,0,0],"sum_hessian":[2.4E1,9E0,1.5E1,7E0,2E0,3E0,1.2E1,2E0,5E0,1E1,2E0,3E0,2E0,5E0,5E0],"tree_param":{"num_deleted":"0","num_feature":"3","num_nodes":"15","size_leaf_vector":"1"}},{"base_weights":[-2.84105E3,-7.1095337E3,7.494887E3,1.8617154E4,-1.6113884E4,9.645344E3,5.615573E3,-2.183065E4,1.0364304E3,4.9890513E3,-1.1267438E3,-1.8880354E3,-4.634589E3,2.728528E3,-1.5827009E3],"categories":[],"categories_nodes":[],"categories_segments":[],"categories_sizes":[],"default_left":[0,0,0,0,0,0,0,0,0,0,0,0,0,0,0],"id":17,"left_children":[1,3,-1,5,7,9,-1,11,13,-1,-1,-1,-1,-1,-1],"loss_changes":[7.133064E9,6.2546166E9,0E0,1.4086108E9,1.9608893E9,2.3980142E9,0E0,1.450903E9,1.191649E9,0E0,0E0,0E0,0E0,0E0,0E0],"parents":[2147483647,0,0,1,1,3,3,4,4,5,5,7,7,8,8],"right_children":[2,4,-1,6,8,10,-1,12,14,-1,-1,-1,-1,-1,-1],"split_conditions":[3.85E1,2.02E3,7.494887E3,2.325E1,3.375E1,1.34E1,5.615573E3,2.18E1,2.022E3,4.9890513E3,-1.1267438E3,-1.8880354E3,-4.634589E3,2.728528E3,-1.5827009E3],"split_indices":[0,2,0,0,0,0,0,0,2,0,0,0,0,0,0],"split_type":[0,0,0,0,0,0,0,0,0,0,0,0,0,0,0],"sum_hessian":[2.9E1,2.7E1,2E0,7E0,2E1,5E0,2E0,1.5E1,5E0,2E0,3E0,9E0,6E0,2E0,3E0],"tree_param":{"num_deleted":"0","num_feature":"3","num_nodes":"15","size_leaf_vector":"1"}},{"base_weights":[-5.218832E3,-1.8730988E4,1.7751828E4,-1.3208494E4,-6.088391E3,2.7477516E4,-6.760453E2,-8.844858E3,-3.996006E3,1.5958459E4,7.698971E3,1.4909029E2,-1.7197532E3,-6.1679926E2,4.0499983E3],"categories":[],"categories_nodes":[],"categories_segments":[],"categories_sizes":[],"default_left":[0,0,0,0,0,0,0,0,0,0,0,0,0,0,0],"id":18,"left_children":[1,3,5,7,-1,9,-1,11,-1,13,-1,-1,-1,-1,-1],"loss_changes":[8.380358E9,2.4194724E9,2.2070863E9,9.77441E8,0E0,2.322006E9,0E0,4.0712378E8,0E0,1.3963123E9,0E0,0E0,0E0,0E0,0E0],"parents":[2147483647,0,0,1,1,2,2,3,3,5,5,7,7,9,9],"right_children":[2,4,6,8,-1,10,-1,12,-1,14,-1,-1,-1,-1,-1],"split_conditions":[3E1,2.275E1,8E0,9E0,-6.088391E3,5E0,-6.760453E2,3.25E0,-3.996006E3,3.225E1,7.698971E3,1.4909029E2,-1.7197532E3,-6.1679926E2,4.0499983E3],"split_indices":[0,0,1,1,0,1,0,0,0,0,0,0,0,0,0],"split_type":[0,0,0,0,0,0,0,0,0,0,0,0,0,0,0],"sum_hessian":[2.7E1,1.7E1,1E1,1.4E1,3E0,7E0,3E0,1.1E1,3E0,5E0,2E0,3E0,8E0,2E0,3E0],"tree_param":{"num_deleted":"0","num_feature":"3","num_nodes":"15","size_leaf_vector":"1"}},{"base_weights":[8.815081E2,2.5618365E4,-5.008238E3,1.420724E3,4.8942666E3,-9.664709E3,3.1371287E3,-4.849837E3,-6.5919756E3,2.0698652E3,-1.9059524E3],"categories":[],"categories_nodes":[],"categories_segments":[],"categories_sizes":[],"default_left":[0,0,0,0,0,0,0,0,0,0,0],"id":19,"left_children":[1,3,5,-1,-1,7,-1,9,-1,-1,-1],"loss_changes":[3.7880443E9,7.7354266E8,2.7320187E9,0E0,0E0,3.338314E9,0E0,2.903075E9,0E0,0E0,0E0],"parents":[2147483647,0,0,1,1,2,2,5,5,7,7],"right_children":[2,4,6,-1,-1,8,-1,10,-1,-1,-1],"split_conditions":[4E0,2.022E3,1.2E1,1.420724E3,4.8942666E3,1.1E1,3.1371287E3,2.02E3,-6.5919756E3,2.0698652E3,-1.9059524E3],"split_indices":[1,2,1,0,0,1,0,2,0,0,0],"split_type":[0,0,0,0,0,0,0,0,0,0,0],"sum_hessian":[2.6E1,5E0,2.1E1,2E0,3E0,1.8E1,3E0,1.6E1,2E0,5E0,1.1E1],"tree_param":{"num_deleted":"0","num_feature":"3","num_nodes":"11","size_leaf_vector":"1"}},{"base_weights":[-2.0256962E3,-8.723666E3,1.8068176E4,-4.6669097E3,-2.2922223E4,3.4476566E4,-2.017766E3,5.337527E2,-1.7668504E4,-4.5245366E3,-1.7474333E3,3.2724727E3,6.1609927E3,-6.5830664E2,8.043523E2,-7.267836E2,-4.107666E3],"categories":[],"categories_nodes":[],"categories_segments":[],"categories_sizes":[],"default_left":[0,0,0,0,0,0,0,0,0,0,0,0,0,0,0,0,0],"id":20,"left_children":[1,3,5,7,9,11,-1,13,15,-1,-1,-1,-1,-1,-1,-1,-1],"loss_changes":[3.2301215E9,1.0368008E9,3.230846E9,9.4663814E8,4.1203917E8,4.457518E8,0E0,2.857519E8,6.106907E8,0E0,0E0,0E0,0E0,0E0,0E0,0E0,0E0],"parents":[2147483647,0,0,1,1,2,2,3,3,4,4,5,5,7,7,8,8],"right_children":[2,4,6,8,10,12,-1,14,16,-1,-1,-1,-1,-1,-1,-1,-1],"split_conditions":[3.225E1,1E1,5.2E1,2.95E1,1.95E1,3.82E1,-2.017766E3,6E0,4E0,-4.5245366E3,-1.7474333E3,3.2724727E3,6.1609927E3,-6.5830664E2,8.043523E2,-7.267836E2,-4.107666E3],"split_indices":[0,1,0,0,0,0,0,1,1,0,0,0,0,0,0,0,0],"split_type":[0,0,0,0,0,0,0,0,0,0,0,0,0,0,0,0,0],"sum_hessian":[2.4E1,1.8E1,6E0,1.4E1,4E0,4E0,2E0,1E1,4E0,2E0,2E0,2E0,2E0,5E0,5E0,2E0,2E0],"tree_param":{"num_deleted":"0","num_feature":"3","num_nodes":"17","size_leaf_vector":"1"}},{"base_weights":[-2.0573606E3,-1.1736016E4,1.0040958E4,2.5963923E3,-1.9414543E4,1.6048015E4,-2.7354143E3,-1.3126648E3,-2.4324396E4,1.034191E4,5.3181113E3,-5.1742817E3,-2.712334E3,2.6869985E3,-2.401458E3],"categories":[],"categories_nodes":[],"categories_segments":[],"categories_sizes":[],"default_left":[0,0,0,0,0,0,0,0,0,0,0,0,0,0,0],"id":21,"left_children":[1,3,5,-1,7,9,-1,-1,11,13,-1,-1,-1,-1,-1],"loss_changes":[3.1615818E9,3.5375908E9,2.1650836E9,0E0,5.7856E8,1.3023611E9,0E0,0E0,4.8573952E8,2.0750463E9,0E0,0E0,0E0,0E0,0E0],"parents":[2147483647,0,0,1,1,2,2,4,4,5,5,8,8,9,9],"right_children":[2,4,6,-1,8,10,-1,-1,12,14,-1,-1,-1,-1,-1],"split_conditions":[3.15E1,2.02E3,5.2E1,2.5963923E3,3.25E0,3.85E1,-2.7354143E3,-1.3126648E3,1.95E1,3.725E1,5.3181113E3,-5.1742817E3,-2.712334E3,2.6869985E3,-2.401458E3],"split_indices":[0,2,0,0,0,0,0,0,0,0,0,0,0,0,0],"split_type":[0,0,0,0,0,0,0,0,0,0,0,0,0,0,0],"sum_hessian":[2.7E1,1.5E1,1.2E1,3E0,1.2E1,1E1,2E0,4E0,8E0,8E0,2E0,2E0,6E0,6E0,2E0],"tree_param":{"num_deleted":"0","num_feature":"3","num_nodes":"15","size_leaf_vector":"1"}},{"base_weights":[5.6868594E3,2.1195764E4,5.1721185E2,4.3301987E3,1.7710568E4,-1.0625035E4,5.1052026E3,6.2106647E2,2.4295992E4,-1.8163275E3,-4.466393E3,7.0681367E3,-1.1026569E3,4.3247144E3,2.3231455E3,-8.245847E2,1.3557162E2,-3.0531824E3,5.747306E2],"categories":[],"categories_nodes":[],"categories_segments":[],"categories_sizes":[],"default_left":[0,0,0,0,0,0,0,0,0,0,0,0,0,0,0,0,0,0,0],"id":22,"left_children":[1,3,5,-1,7,9,11,-1,13,15,-1,-1,17,-1,-1,-1,-1,-1,-1],"loss_changes":[2.5656197E9,2.915003E8,1.2268947E9,0E0,5.204174E8,1.3578716E9,4.9134945E9,0E0,2.1403443E8,5.9105736E7,0E0,0E0,1.6876745E9,0E0,0E0,0E0,0E0,0E0,0E0],"parents":[2147483647,0,0,1,1,2,2,4,4,5,5,6,6,8,8,9,9,12,12],"right_children":[2,4,6,-1,8,10,12,-1,14,16,-1,-1,18,-1,-1,-1,-1,-1,-1],"split_conditions":[2.02E3,1.34E1,1.95E1,4.3301987E3,2.3E1,8.8E0,2.5E1,6.2106647E2,3.1E1,3.25E0,-4.466393E3,7.0681367E3,3.15E1,4.3247144E3,2.3231455E3,-8.245847E2,1.3557162E2,-3.0531824E3,5.747306E2],"split_indices":[2,0,0,0,0,0,0,0,0,0,0,0,0,0,0,0,0,0,0],"split_type":[0,0,0,0,0,0,0,0,0,0,0,0,0,0,0,0,0,0,0],"sum_hessian":[3.2E1,8E0,2.4E1,2E0,6E0,7E0,1.7E1,2E0,4E0,5E0,2E0,2E0,1.5E1,2E0,2E0,2E0,3E0,3E0,1.2E1],"tree_param":{"num_deleted":"0","num_feature":"3","num_nodes":"19","size_leaf_vector":"1"}},{"base_weights":[2.0728933E3,-1.2104741E4,1.2199778E4,4.897934E3,-2.9107371E4,2.383243E4,5.670921E2,1.6018479E3,-7.275521E2,-2.0110408E3,-6.9388735E3,1.4965836E3,7.3348687E3,-1.1901751E4,2.352071E3,3.2789756E3,-2.869481E3,2.71878E2,-3.5284307E3],"categories":[],"categories_nodes":[],"categories_segments":[],"categories_sizes":[],"default_left":[0,0,0,0,0,0,0,0,0,0,0,0,0,0,0,0,0,0,0],"id":23,"left_children":[1,3,5,7,9,11,13,-1,-1,-1,-1,15,-1,17,-1,-1,-1,-1,-1],"loss_changes":[3.4458122E9,2.8909107E9,1.8944687E9,3.4788346E8,1.5568737E9,4.6562867E9,1.4510779E9,0E0,0E0,0E0,0E0,2.0197503E9,0E0,7.716169E8,0E0,0E0,0E0,0E0,0E0],"parents":[2147483647,0,0,1,1,2,2,3,3,4,4,5,5,6,6,11,11,13,13],"right_children":[2,4,6,8,10,12,14,-1,-1,-1,-1,16,-1,18,-1,-1,-1,-1,-1],"split_conditions":[7E0,5E0,1E1,2.021E3,2.022E3,2.022E3,1.2E1,1.6018479E3,-7.275521E2,-2.0110408E3,-6.9388735E3,2.02E3,7.3348687E3,1.1E1,2.352071E3,3.2789756E3,-2.869481E3,2.71878E2,-3.5284307E3],"split_indices":[1,1,1,2,2,2,1,0,0,0,0,2,0,1,0,0,0,0,0],"split_type":[0,0,0,0,0,0,0,0,0,0,0,0,0,0,0,0,0,0,0],"sum_hessian":[2.4E1,1E1,1.4E1,5E0,5E0,7E0,7E0,3E0,2E0,3E0,2E0,4E0,3E0,4E0,3E0,2E0,2E0,2E0,2E0],"tree_param":{"num_deleted":"0","num_feature":"3","num_nodes":"19","size_leaf_vector":"1"}},{"base_weights":[-1.2186106E3,-2.465751E4,7.3046396E3,-1.544705E4,-5.473524E3,1.3478959E4,-5.9260454E3,1.6481334E2,-3.6320637E3,6.583901E3,3.2440246E4,-1.5297195E4,8.986858E2,3.5833242E3,-1.3347393E3,2.4756482E3,6.4006396E3,-1.5864585E3,-2.599154E3],"categories":[],"categories_nodes":[],"categories_segments":[],"categories_sizes":[],"default_left":[0,0,0,0,0,0,0,0,0,0,0,0,0,0,0,0,0,0,0],"id":24,"left_children":[1,3,5,7,-1,9,11,-1,-1,13,15,17,-1,-1,-1,-1,-1,-1,-1],"loss_changes":[5.9932754E9,1.1310776E9,1.7971936E9,9.2426624E8,0E0,1.9610862E9,8.1964416E8,0E0,0E0,3.5243548E9,8.2306074E8,5.4788224E7,0E0,0E0,0E0,0E0,0E0,0E0,0E0],"parents":[2147483647,0,0,1,1,2,2,3,3,5,5,6,6,9,9,10,10,11,11],"right_children":[2,4,6,8,-1,10,12,-1,-1,14,16,18,-1,-1,-1,-1,-1,-1,-1],"split_conditions":[6E0,5E0,1.1E1,2.02E3,-5.473524E3,2.022E3,2.021E3,1.6481334E2,-3.6320637E3,2.02E3,8E0,1.2E1,8.986858E2,3.5833242E3,-1.3347393E3,2.4756482E3,6.4006396E3,-1.5864585E3,-2.599154E3],"split_indices":[1,1,1,2,0,2,2,0,0,2,1,1,0,0,0,0,0,0,0],"split_type":[0,0,0,0,0,0,0,0,0,0,0,0,0,0,0,0,0,0,0],"sum_hessian":[3E1,8E0,2.2E1,5E0,3E0,1.5E1,7E0,2E0,3E0,1.1E1,4E0,4E0,3E0,5E0,6E0,2E0,2E0,2E0,2E0],"tree_param":{"num_deleted":"0","num_feature":"3","num_nodes":"19","size_leaf_vector":"1"}},{"base_weights":[6.18396E2,5.3818706E3,-1.0950025E4,-2.5708228E3,2.4468271E4,-4.863023E3,-1.1116582E3,7.915149E3,-2.3542703E4,6.606782E3,1.174643E3,1.081673E3,-2.0027181E3,3.91381E2,3.1573342E3,-2.2294055E3,-4.21234E3],"categories":[],"categories_nodes":[],"categories_segments":[],"categories_sizes":[],"default_left":[0,0,0,0,0,0,0,0,0,0,0,0,0,0,0,0,0],"id":25,"left_children":[1,3,5,7,9,-1,11,13,15,-1,-1,-1,-1,-1,-1,-1,-1],"loss_changes":[1.3225435E9,2.5804052E9,1.6938725E9,2.6389345E9,1.8918438E9,0E0,6.099371E8,6.1311904E8,2.1006797E8,0E0,0E0,0E0,0E0,0E0,0E0,0E0,0E0],"parents":[2147483647,0,0,1,1,2,2,3,3,4,4,6,6,7,7,8,8],"right_children":[2,4,6,8,10,-1,12,14,16,-1,-1,-1,-1,-1,-1,-1,-1],"split_conditions":[3.35E1,2.325E1,3.525E1,1.34E1,3E1,-4.863023E3,3.82E1,9E0,5E0,6.606782E3,1.174643E3,1.081673E3,-2.0027181E3,3.91381E2,3.1573342E3,-2.2294055E3,-4.21234E3],"split_indices":[0,0,0,0,0,0,0,1,1,0,0,0,0,0,0,0,0],"split_type":[0,0,0,0,0,0,0,0,0,0,0,0,0,0,0,0,0],"sum_hessian":[2.4E1,1.7E1,7E0,1.2E1,5E0,2E0,5E0,8E0,4E0,2E0,3E0,3E0,2E0,6E0,2E0,2E0,2E0],"tree_param":{"num_deleted":"0","num_feature":"3","num_nodes":"17","size_leaf_vector":"1"}},{"base_weights":[2.884618E3,-1.2511149E3,2.0609143E4,-4.8492417E3,8.643722E3,3.3907168E4,-1.7287278E3,2.924898E2,-1.2276172E4,5.702914E3,-2.3700627E3,4.175575E3,5.333729E3,1.9294211E3,-7.997225E2,-4.6777754E3,-1.8036514E2,-8.886946E2,8.0463873E2],"categories":[],"categories_nodes":[],"categories_segments":[],"categories_sizes":[],"default_left":[0,0,0,0,0,0,0,0,0,0,0,0,0,0,0,0,0,0,0],"id":26,"left_children":[1,3,5,7,9,11,-1,13,15,-1,17,-1,-1,-1,-1,-1,-1,-1,-1],"loss_changes":[2.712246E9,1.06808774E9,3.0946742E9,8.401211E8,2.911265E9,8.59735E7,0E0,1.1019834E9,2.161315E9,0E0,2.0426234E8,0E0,0E0,0E0,0E0,0E0,0E0,0E0,0E0],"parents":[2147483647,0,0,1,1,2,2,3,3,4,4,5,5,7,7,8,8,10,10],"right_children":[2,4,6,8,10,12,-1,14,16,-1,18,-1,-1,-1,-1,-1,-1,-1,-1],"split_conditions":[3.62E1,2.022E3,5.2E1,2.3E1,3E1,2.022E3,-1.7287278E3,2.02E3,3E1,5.702914E3,3.375E1,4.175575E3,5.333729E3,1.9294211E3,-7.997225E2,-4.6777754E3,-1.8036514E2,-8.886946E2,8.0463873E2],"split_indices":[0,2,0,0,0,2,0,2,0,0,0,0,0,0,0,0,0,0,0],"split_type":[0,0,0,0,0,0,0,0,0,0,0,0,0,0,0,0,0,0,0],"sum_hessian":[3.7E1,3E1,7E0,2.2E1,8E0,5E0,2E0,1.3E1,9E0,2E0,6E0,3E0,2E0,4E0,9E0,3E0,6E0,4E0,2E0],"tree_param":{"num_deleted":"0","num_feature":"3","num_nodes":"19","size_leaf_vector":"1"}},{"base_weights":[4.0190476E3,6.395925E2,1.6571273E4,3.9937717E3,-3.43061E3,2.7562672E4,-1.4922222E3,6.274773E2,3.6166648E3,4.528048E3,3.2660452E3,-1.6114246E2,2.308717E3],"categories":[],"categories_nodes":[],"categories_segments":[],"categories_sizes":[],"default_left":[0,0,0,0,0,0,0,0,0,0,0,0,0],"id":27,"left_children":[1,3,5,7,-1,9,-1,11,-1,-1,-1,-1,-1],"loss_changes":[1.3998504E9,2.2425946E9,2.1142015E9,1.7375534E9,0E0,1.0209434E8,0E0,5.866541E8,0E0,0E0,0E0,0E0,0E0],"parents":[2147483647,0,0,1,1,2,2,3,3,5,5,7,7],"right_children":[2,4,6,8,-1,10,-1,12,-1,-1,-1,-1,-1],"split_conditions":[3.58E1,3.35E1,5.675E1,2.022E3,-3.43061E3,3.82E1,-1.4922222E3,3.175E1,3.6166648E3,4.528048E3,3.2660452E3,-1.6114246E2,2.308717E3],"split_indices":[0,0,0,2,0,0,0,0,0,0,0,0,0],"split_type":[0,0,0,0,0,0,0,0,0,0,0,0,0],"sum_hessian":[3.3E1,2.6E1,7E0,2.3E1,3E0,5E0,2E0,2E1,3E0,2E0,3E0,1.8E1,2E0],"tree_param":{"num_deleted":"0","num_feature":"3","num_nodes":"13","size_leaf_vector":"1"}},{"base_weights":[-3.5218438E3,-7.232681E3,3.2411545E3,-2.6358325E3,-2.7918389E4,-5.5324253E3,2.809641E3,-4.057787E3,-3.5812317E3,6.237169E2,-1.3844438E3],"categories":[],"categories_nodes":[],"categories_segments":[],"categories_sizes":[],"default_left":[0,0,0,0,0,0,0,0,0,0,0],"id":28,"left_children":[1,3,-1,5,7,9,-1,-1,-1,-1,-1],"loss_changes":[2.5245514E9,2.0919603E9,0E0,1.2081906E9,1.2118528E7,7.406314E8,0E0,0E0,0E0,0E0,0E0],"parents":[2147483647,0,0,1,1,3,3,4,4,5,5],"right_children":[2,4,-1,6,8,10,-1,-1,-1,-1,-1],"split_conditions":[3.85E1,2.022E3,3.2411545E3,3.12E1,3.375E1,8.8E0,2.809641E3,-4.057787E3,-3.5812317E3,6.237169E2,-1.3844438E3],"split_indices":[0,2,0,0,0,0,0,0,0,0,0],"split_type":[0,0,0,0,0,0,0,0,0,0,0],"sum_hessian":[2.5E1,2.2E1,3E0,1.8E1,4E0,1.6E1,2E0,2E0,2E0,5E0,1.1E1],"tree_param":{"num_deleted":"0","num_feature":"3","num_nodes":"11","size_leaf_vector":"1"}},{"base_weights":[4.786984E3,3.287911E3,3.3210344E3,5.450335E3,-3.1002588E3,1.1173525E2,1.1759577E4,1.5145912E3,-4.3450687E2,-2.0540076E2,2.011996E3],"categories":[],"categories_nodes":[],"categories_segments":[],"categories_sizes":[],"default_left":[0,0,0,0,0,0,0,0,0,0,0],"id":29,"left_children":[1,3,-1,5,-1,7,9,-1,-1,-1,-1],"loss_changes":[8.1797754E8,1.4589281E9,0E0,8.083812E8,0E0,4.6839146E8,4.298619E8,0E0,0E0,0E0,0E0],"parents":[2147483647,0,0,1,1,3,3,5,5,6,6],"right_children":[2,4,-1,6,-1,8,10,-1,-1,-1,-1],"split_conditions":[4.575E1,3.82E1,3.3210344E3,2.275E1,-3.1002588E3,2.02E3,2.02E3,1.5145912E3,-4.3450687E2,-2.0540076E2,2.011996E3],"split_indices":[0,0,0,0,0,2,2,0,0,0,0],"split_type":[0,0,0,0,0,0,0,0,0,0,0],"sum_hessian":[2.8E1,2.6E1,2E0,2.4E1,2E0,1.3E1,1.1E1,3E0,1E1,2E0,9E0],"tree_param":{"num_deleted":"0","num_feature":"3","num_nodes":"11","size_leaf_vector":"1"}},{"base_weights":[4.447286E2,-3.267059E3,2.0488318E4,-8.686744E3,1.7655101E3,3.6860906E3,2.2142803E3,1.4487288E3,-1.5021402E4,4.3991416E3,-6.522576E3,8.727236E2,-2.51483E2,-7.8758746E2,-4.1675625E3,5.775387E2,-1.7322963E3],"categories":[],"categories_nodes":[],"categories_segments":[],"categories_sizes":[],"default_left":[0,0,0,0,0,0,0,0,0,0,0,0,0,0,0,0,0],"id":30,"left_children":[1,3,5,7,9,-1,-1,11,13,-1,15,-1,-1,-1,-1,-1,-1],"loss_changes":[2.3807245E9,7.364242E8,1.3887488E8,8.346634E8,3.5261996E9,0E0,0E0,8.1028584E7,1.1444329E9,0E0,7.2558765E8,0E0,0E0,0E0,0E0,0E0,0E0],"parents":[2147483647,0,0,1,1,2,2,3,3,4,4,7,7,8,8,10,10],"right_children":[2,4,6,8,10,-1,-1,12,14,-1,16,-1,-1,-1,-1,-1,-1],"split_conditions":[3.62E1,7E0,3.82E1,2.05E1,8E0,3.6860906E3,2.2142803E3,3.25E0,5E0,4.3991416E3,1.34E1,8.727236E2,-2.51483E2,-7.8758746E2,-4.1675625E3,5.775387E2,-1.7322963E3],"split_indices":[0,1,0,0,1,0,0,0,1,0,0,0,0,0,0,0,0],"split_type":[0,0,0,0,0,0,0,0,0,0,0,0,0,0,0,0,0],"sum_hessian":[3.2E1,2.7E1,5E0,1.3E1,1.4E1,2E0,3E0,5E0,8E0,3E0,1.1E1,2E0,3E0,5E0,3E0,4E0,7E0],"tree_param":{"num_deleted":"0","num_feature":"3","num_nodes":"17","size_leaf_vector":"1"}},{"base_weights":[1.6103098E3,3.8801829E3,-1.2559324E3,-9.541833E3,4.1055376E3,-4.672513E3,-1.806308E4,1.2159511E4,-4.9551904E3,-2.4232097E3,1.7393661E3,-1.1669437E3,-3.7754692E3,2.77003E3,1.1103004E3,1.2712591E2,-3.0930432E3],"categories":[],"categories_nodes":[],"categories_segments":[],"categories_sizes":[],"default_left":[0,0,0,0,0,0,0,0,0,0,0,0,0,0,0,0,0],"id":31,"left_children":[1,-1,3,5,7,9,11,13,15,-1,-1,-1,-1,-1,-1,-1,-1],"loss_changes":[2.3769605E9,0E0,1.2438906E9,4.564187E8,1.2405752E9,1.5869791E9,3.635365E8,2.9434995E8,8.310233E8,0E0,0E0,0E0,0E0,0E0,0E0,0E0,0E0],"parents":[2147483647,0,0,2,2,3,3,4,4,5,5,6,6,7,7,8,8],"right_children":[2,-1,4,6,8,10,12,14,16,-1,-1,-1,-1,-1,-1,-1,-1],"split_conditions":[3E0,3.8801829E3,6E0,5E0,9E0,2.021E3,2.021E3,2.02E3,2.022E3,-2.4232097E3,1.7393661E3,-1.1669437E3,-3.7754692E3,2.77003E3,1.1103004E3,1.2712591E2,-3.0930432E3],"split_indices":[1,0,1,1,1,2,2,2,2,0,0,0,0,0,0,0,0],"split_type":[0,0,0,0,0,0,0,0,0,0,0,0,0,0,0,0,0],"sum_hessian":[3.1E1,3E0,2.8E1,1.1E1,1.7E1,7E0,4E0,9E0,8E0,4E0,3E0,2E0,2E0,3E0,6E0,6E0,2E0],"tree_param":{"num_deleted":"0","num_feature":"3","num_nodes":"17","size_leaf_vector":"1"}},{"base_weights":[-1.9804535E3,3.1168599E3,-4.3388315E3,-1.3448512E4,1.2671371E3,-7.9632947E2,-7.0326987E3,-7.1192827E3,8.455497E3,1.1235762E3,-1.3414679E3,4.298308E2,-3.781616E3,3.3105673E2,2.257783E3],"categories":[],"categories_nodes":[],"categories_segments":[],"categories_sizes":[],"default_left":[0,0,0,0,0,0,0,0,0,0,0,0,0,0,0],"id":32,"left_children":[1,-1,3,5,7,9,-1,11,13,-1,-1,-1,-1,-1,-1],"loss_changes":[1.3432026E9,0E0,1.0724415E9,3.841835E9,7.837022E8,4.8697286E8,0E0,1.2634728E9,3.4000493E8,0E0,0E0,0E0,0E0,0E0,0E0],"parents":[2147483647,0,0,2,2,3,3,4,4,5,5,7,7,8,8],"right_children":[2,-1,4,6,8,10,-1,12,14,-1,-1,-1,-1,-1,-1],"split_conditions":[3E0,3.1168599E3,6E0,3.225E1,2.6E1,2.05E1,-7.0326987E3,9E0,1.1E1,1.1235762E3,-1.3414679E3,4.298308E2,-3.781616E3,3.3105673E2,2.257783E3],"split_indices":[1,0,1,0,0,0,0,1,1,0,0,0,0,0,0],"split_type":[0,0,0,0,0,0,0,0,0,0,0,0,0,0,0],"sum_hessian":[2.3E1,2E0,2.1E1,8E0,1.3E1,6E0,2E0,6E0,7E0,3E0,3E0,4E0,2E0,4E0,3E0],"tree_param":{"num_deleted":"0","num_feature":"3","num_nodes":"15","size_leaf_vector":"1"}},{"base_weights":[5.1272383E3,-1.521146E3,2.0640105E4,1.1497078E4,-6.7284434E3,1.1061306E4,2.8303072E4,2.1150267E2,1.6472607E4,-8.884392E3,9.966873E2,2.2955847E3,7.310055E2,5.4322197E3,1.5320316E3,2.837377E3,1.6698519E3,-6.393005E2,-2.5118672E3],"categories":[],"categories_nodes":[],"categories_segments":[],"categories_sizes":[],"default_left":[0,0,0,0,0,0,0,0,0,0,0,0,0,0,0,0,0,0,0],"id":33,"left_children":[1,3,5,7,9,11,13,-1,15,17,-1,-1,-1,-1,-1,-1,-1,-1,-1],"loss_changes":[3.0940677E9,1.4235878E9,6.606139E8,2.9707334E8,4.5319104E8,1.3078342E8,9.752376E8,0E0,7.282253E7,5.1879475E8,0E0,0E0,0E0,0E0,0E0,0E0,0E0,0E0,0E0],"parents":[2147483647,0,0,1,1,2,2,3,3,4,4,5,5,6,6,8,8,9,9],"right_children":[2,4,6,8,10,12,14,-1,16,18,-1,-1,-1,-1,-1,-1,-1,-1,-1],"split_conditions":[2.022E3,2.02E3,7E0,5E0,1.1E1,3E0,1E1,2.1150267E2,8E0,8E0,9.966873E2,2.2955847E3,7.310055E2,5.4322197E3,1.5320316E3,2.837377E3,1.6698519E3,-6.393005E2,-2.5118672E3],"split_indices":[2,2,1,1,1,1,1,0,1,1,0,0,0,0,0,0,0,0,0],"split_type":[0,0,0,0,0,0,0,0,0,0,0,0,0,0,0,0,0,0,0],"sum_hessian":[3E1,2.1E1,9E0,6E0,1.5E1,4E0,5E0,2E0,4E0,1.3E1,2E0,2E0,2E0,3E0,2E0,2E0,2E0,9E0,4E0],"tree_param":{"num_deleted":"0","num_feature":"3","num_nodes":"19","size_leaf_vector":"1"}},{"base_weights":[1.6220089E3,4.430585E3,-1.0080367E4,1.58468E2,4.8922383E3,-4.7445453E2,-3.1883682E3,9.550845E3,-2.6040034E3,2.7779065E3,3.2580988E2,-6.934797E2,7.397237E2],"categories":[],"categories_nodes":[],"categories_segments":[],"categories_sizes":[],"default_left":[0,0,0,0,0,0,0,0,0,0,0,0,0],"id":34,"left_children":[1,3,5,7,-1,-1,-1,9,11,-1,-1,-1,-1],"loss_changes":[1.0188789E9,3.345994E9,5.2467936E8,5.708168E8,0E0,0E0,0E0,3.8549555E8,3.3568582E8,0E0,0E0,0E0,0E0],"parents":[2147483647,0,0,1,1,2,2,3,3,7,7,8,8],"right_children":[2,4,6,8,-1,-1,-1,10,12,-1,-1,-1,-1],"split_conditions":[1.1E1,9E0,2.022E3,3E0,4.8922383E3,-4.7445453E2,-3.1883682E3,2.021E3,2.022E3,2.7779065E3,3.2580988E2,-6.934797E2,7.397237E2],"split_indices":[1,1,2,1,0,0,0,2,2,0,0,0,0],"split_type":[0,0,0,0,0,0,0,0,0,0,0,0,0],"sum_hessian":[3.1E1,2.5E1,6E0,2.2E1,3E0,4E0,2E0,5E0,1.7E1,2E0,3E0,1.3E1,4E0],"tree_param":{"num_deleted":"0","num_feature":"3","num_nodes":"13","size_leaf_vector":"1"}},{"base_weights":[-2.70535E3,-8.7156036E2,-2.1262798E3,1.1524309E4,-4.745279E3,2.7744254E2,2.4427744E3,-7.9288926E3,4.805555E3,-1.9580187E3,-6.4812024E2,1.9369524E3,-6.2205835E2],"categories":[],"categories_nodes":[],"categories_segments":[],"categories_sizes":[],"default_left":[0,0,0,0,0,0,0,0,0,0,0,0,0],"id":35,"left_children":[1,3,-1,5,7,-1,-1,9,11,-1,-1,-1,-1],"loss_changes":[5.649442E8,1.0083822E9,0E0,3.0060166E8,4.865E8,0E0,0E0,2.4445843E8,3.4987203E8,0E0,0E0,0E0,0E0],"parents":[2147483647,0,0,1,1,3,3,4,4,7,7,8,8],"right_children":[2,4,-1,6,8,-1,-1,10,12,-1,-1,-1,-1],"split_conditions":[1.1E1,2.02E3,-2.1262798E3,5E0,2.022E3,2.7744254E2,2.4427744E3,4E0,3E0,-1.9580187E3,-6.4812024E2,1.9369524E3,-6.2205835E2],"split_indices":[1,2,0,1,2,0,0,1,1,0,0,0,0],"split_type":[0,0,0,0,0,0,0,0,0,0,0,0,0],"sum_hessian":[2.4E1,2.1E1,3E0,5E0,1.6E1,2E0,3E0,1.2E1,4E0,4E0,8E0,2E0,2E0],"tree_param":{"num_deleted":"0","num_feature":"3","num_nodes":"13","size_leaf_vector":"1"}},{"base_weights":[-1.460559E3,1.5694962E3,-8.656927E3,-3.0450547E3,3.5817383E3,-3.5326553E3,1.6418937E3,4.366742E3,-1.0456844E4,1.4403534E3,-1.5989559E3,-5.7788063E1,2.56301E3,-1.7398837E3,-5.02764E2],"categories":[],"categories_nodes":[],"categories_segments":[],"categories_sizes":[],"default_left":[0,0,0,0,0,0,0,0,0,0,0,0,0,0,0],"id":36,"left_children":[1,3,5,7,-1,-1,9,11,13,-1,-1,-1,-1,-1,-1],"loss_changes":[5.8874624E8,2.1577915E9,1.4142052E9,8.7895674E8,0E0,0E0,5.9223763E8,5.504563E8,1.2265139E8,0E0,0E0,0E0,0E0,0E0,0E0],"parents":[2147483647,0,0,1,1,2,2,3,3,6,6,7,7,8,8],"right_children":[2,4,6,8,-1,-1,10,12,14,-1,-1,-1,-1,-1,-1],"split_conditions":[3.32E1,2.022E3,3.85E1,1.34E1,3.5817383E3,-3.5326553E3,5.2E1,5.75E0,2.6E1,1.4403534E3,-1.5989559E3,-5.7788063E1,2.56301E3,-1.7398837E3,-5.02764E2],"split_indices":[0,2,0,0,0,0,0,0,0,0,0,0,0,0,0],"split_type":[0,0,0,0,0,0,0,0,0,0,0,0,0,0,0],"sum_hessian":[2.7E1,1.9E1,8E0,1.6E1,3E0,3E0,5E0,8E0,8E0,3E0,2E0,6E0,2E0,6E0,2E0],"tree_param":{"num_deleted":"0","num_feature":"3","num_nodes":"15","size_leaf_vector":"1"}},{"base_weights":[-8.934749E3,-6.257425E3,-3.5421577E3,1.3111826E3,-9.750625E3,3.3268267E3,-3.7213797E2,-5.5907275E3,-1.9110322E4,4.6863113E2,4.416539E2,-1.5279192E3,1.905791E3,-3.8721328E3,-1.356826E3],"categories":[],"categories_nodes":[],"categories_segments":[],"categories_sizes":[],"default_left":[0,0,0,0,0,0,0,0,0,0,0,0,0,0,0],"id":37,"left_children":[1,3,-1,5,7,9,-1,11,13,-1,-1,-1,-1,-1,-1],"loss_changes":[9.987393E8,5.0233542E8,0E0,4.8754096E7,5.0615872E8,3.8668E4,0E0,9.798902E8,3.3801677E8,0E0,0E0,0E0,0E0,0E0,0E0],"parents":[2147483647,0,0,1,1,3,3,4,4,5,5,7,7,8,8],"right_children":[2,4,-1,6,8,10,-1,12,14,-1,-1,-1,-1,-1,-1],"split_conditions":[3.32E1,5.75E0,-3.5421577E3,7E0,8E0,2.2E0,-3.7213797E2,7E0,3E1,4.6863113E2,4.416539E2,-1.5279192E3,1.905791E3,-3.8721328E3,-1.356826E3],"split_indices":[0,0,0,1,1,0,0,1,0,0,0,0,0,0,0],"split_type":[0,0,0,0,0,0,0,0,0,0,0,0,0,0,0],"sum_hessian":[2.2E1,1.9E1,3E0,6E0,1.3E1,4E0,2E0,9E0,4E0,2E0,2E0,7E0,2E0,2E0,2E0],"tree_param":{"num_deleted":"0","num_feature":"3","num_nodes":"15","size_leaf_vector":"1"}},{"base_weights":[3.5733018E3,4.678688E3,-1.7039323E3,3.4140718E3,2.975739E3,5.059007E3,-1.3332672E3,3.5501285E2,4.400321E3],"categories":[],"categories_nodes":[],"categories_segments":[],"categories_sizes":[],"default_left":[0,0,0,0,0,0,0,0,0],"id":38,"left_children":[1,3,-1,5,-1,7,-1,-1,-1],"loss_changes":[5.492323E8,6.261E8,0E0,5.844545E8,0E0,1.6029121E9,0E0,0E0,0E0],"parents":[2147483647,0,0,1,1,3,3,5,5],"right_children":[2,4,-1,6,-1,8,-1,-1,-1],"split_conditions":[5.675E1,5E1,-1.7039323E3,3.82E1,2.975739E3,3.58E1,-1.3332672E3,3.5501285E2,4.400321E3],"split_indices":[0,0,0,0,0,0,0,0,0],"split_type":[0,0,0,0,0,0,0,0,0],"sum_hessian":[3.1E1,2.9E1,2E0,2.7E1,2E0,2.4E1,3E0,2.2E1,2E0],"tree_param":{"num_deleted":"0","num_feature":"3","num_nodes":"9","size_leaf_vector":"1"}},{"base_weights":[-1.041557E3,-2.6107805E3,1.7181082E3,7.1531903E2,-7.1463643E3,-2.7226484E3,3.1551118E3,-3.8376848E3,-3.0146516E3,-9.803806E2,2.970906E3,-1.7498153E3,-1.750945E2],"categories":[],"categories_nodes":[],"categories_segments":[],"categories_sizes":[],"default_left":[0,0,0,0,0,0,0,0,0,0,0,0,0],"id":39,"left_children":[1,3,-1,5,7,9,-1,11,-1,-1,-1,-1,-1],"loss_changes":[6.188968E8,3.922313E8,0E0,1.1524059E9,5.4188685E8,1.4116317E9,0E0,2.0608998E8,0E0,0E0,0E0,0E0,0E0],"parents":[2147483647,0,0,1,1,3,3,4,4,5,5,7,7],"right_children":[2,4,-1,6,8,10,-1,12,-1,-1,-1,-1,-1],"split_conditions":[3.85E1,8E0,1.7181082E3,3.375E1,3.32E1,7E0,3.1551118E3,9E0,-3.0146516E3,-9.803806E2,2.970906E3,-1.7498153E3,-1.750945E2],"split_indices":[0,1,0,0,0,1,0,1,0,0,0,0,0],"split_type":[0,0,0,0,0,0,0,0,0,0,0,0,0],"sum_hessian":[2.9E1,2.6E1,3E0,1.5E1,1.1E1,1.3E1,2E0,9E0,2E0,1.1E1,2E0,2E0,7E0],"tree_param":{"num_deleted":"0","num_feature":"3","num_nodes":"13","size_leaf_vector":"1"}},{"base_weights":[2.6383577E3,2.9519182E3,5.5839706E1,-5.746805E3,1.0210458E4,9.627327E2,-1.2456327E4,3.4406084E3,1.2474358E3,-3.4501605E2,7.6734735E2,-7.73401E2,-2.402215E3,-1.3130308E3,2.396193E3],"categories":[],"categories_nodes":[],"categories_segments":[],"categories_sizes":[],"default_left":[0,0,0,0,0,0,0,0,0,0,0,0,0,0,0],"id":40,"left_children":[1,-1,3,5,7,9,11,-1,13,-1,-1,-1,-1,-1,-1],"loss_changes":[1.222716E9,0E0,1.2963224E9,6.302502E8,1.071138E9,1.1332882E8,2.429879E8,0E0,8.820887E8,0E0,0E0,0E0,0E0,0E0,0E0],"parents":[2147483647,0,0,2,2,3,3,4,4,5,5,6,6,8,8],"right_children":[2,-1,4,6,8,10,12,-1,14,-1,-1,-1,-1,-1,-1],"split_conditions":[3E0,2.9519182E3,9E0,2.275E1,2.5E1,1.1E1,4E0,3.4406084E3,3.12E1,-3.4501605E2,7.6734735E2,-7.73401E2,-2.402215E3,-1.3130308E3,2.396193E3],"split_indices":[1,0,1,0,0,0,1,0,0,0,0,0,0,0,0],"split_type":[0,0,0,0,0,0,0,0,0,0,0,0,0,0,0],"sum_hessian":[2.5E1,3E0,2.2E1,1.4E1,8E0,7E0,7E0,3E0,5E0,4E0,3E0,3E0,4E0,3E0,2E0],"tree_param":{"num_deleted":"0","num_feature":"3","num_nodes":"15","size_leaf_vector":"1"}},{"base_weights":[4.9585083E3,6.5401904E2,9.980403E3,-3.0466013E3,1.9458406E3,1.1743699E4,1.5923302E2,-6.296438E3,8.532119E2,9.996693E3,2.5626738E3,-4.4132065E2,-1.2815111E3,-6.0989746E2,1.2066624E3,1.9865825E3,-4.8914008E2],"categories":[],"categories_nodes":[],"categories_segments":[],"categories_sizes":[],"default_left":[0,0,0,0,0,0,0,0,0,0,0,0,0,0,0,0,0],"id":41,"left_children":[1,3,5,7,-1,9,-1,11,13,15,-1,-1,-1,-1,-1,-1,-1],"loss_changes":[5.620343E8,7.029874E8,1.8655347E8,1.3941168E8,0E0,1.2207501E8,0E0,5.657243E7,2.1156582E8,4.9120006E8,0E0,0E0,0E0,0E0,0E0,0E0,0E0],"parents":[2147483647,0,0,1,1,2,2,3,3,5,5,7,7,8,8,9,9],"right_children":[2,4,6,8,-1,10,-1,12,14,16,-1,-1,-1,-1,-1,-1,-1],"split_conditions":[6E0,2.022E3,1.2E1,4E0,1.9458406E3,2.021E3,1.5923302E2,2.021E3,2.021E3,1.1E1,2.5626738E3,-4.4132065E2,-1.2815111E3,-6.0989746E2,1.2066624E3,1.9865825E3,-4.8914008E2],"split_indices":[1,2,1,1,0,2,0,2,2,1,0,0,0,0,0,0,0],"split_type":[0,0,0,0,0,0,0,0,0,0,0,0,0,0,0,0,0],"sum_hessian":[2.6E1,1.4E1,1.2E1,1.1E1,3E0,1E1,2E0,6E0,5E0,8E0,2E0,3E0,3E0,3E0,2E0,6E0,2E0],"tree_param":{"num_deleted":"0","num_feature":"3","num_nodes":"17","size_leaf_vector":"1"}},{"base_weights":[-1.9073241E3,4.6416973E3,-4.218746E3,2.1255461E3,-8.057168E2,-6.66879E3,3.7438901E3,-6.6398126E2,4.4352136E2,-3.3598442E3,-3.402173E3,2.9822085E3,-1.9578068E3,-1.1696935E2,-8.708908E2],"categories":[],"categories_nodes":[],"categories_segments":[],"categories_sizes":[],"default_left":[0,0,0,0,0,0,0,0,0,0,0,0,0,0,0],"id":42,"left_children":[1,3,5,-1,7,9,11,-1,-1,13,-1,-1,-1,-1,-1],"loss_changes":[3.4816438E8,3.5609005E8,3.3165062E8,0E0,6.5532236E7,7.828528E8,1.3038333E9,0E0,0E0,8.282139E7,0E0,0E0,0E0,0E0,0E0],"parents":[2147483647,0,0,1,1,2,2,4,4,5,5,6,6,9,9],"right_children":[2,4,6,-1,8,10,12,-1,-1,14,-1,-1,-1,-1,-1],"split_conditions":[2.02E3,1.34E1,3.58E1,2.1255461E3,2.325E1,3.225E1,5.675E1,-6.6398126E2,4.4352136E2,2.05E1,-3.402173E3,2.9822085E3,-1.9578068E3,-1.1696935E2,-8.708908E2],"split_indices":[2,0,0,0,0,0,0,0,0,0,0,0,0,0,0],"split_type":[0,0,0,0,0,0,0,0,0,0,0,0,0,0,0],"sum_hessian":[2.3E1,6E0,1.7E1,2E0,4E0,1.3E1,4E0,2E0,2E0,1.1E1,2E0,2E0,2E0,6E0,5E0],"tree_param":{"num_deleted":"0","num_feature":"3","num_nodes":"15","size_leaf_vector":"1"}},{"base_weights":[4.275967E3,5.7219355E3,-1.6899607E3,2.328866E3,1.3477496E4,4.3708066E3,-8.91938E2,1.8521422E4,9.237697E2,1.228856E3,2.0366768E2,3.9764446E3,1.09138E3],"categories":[],"categories_nodes":[],"categories_segments":[],"categories_sizes":[],"default_left":[0,0,0,0,0,0,0,0,0,0,0,0,0],"id":43,"left_children":[1,3,-1,5,7,9,-1,11,-1,-1,-1,-1,-1],"loss_changes":[6.011104E8,6.052486E8,0E0,2.890868E8,2.3745216E8,1.7277694E8,0E0,4.4470298E8,0E0,0E0,0E0,0E0,0E0],"parents":[2147483647,0,0,1,1,3,3,4,4,5,5,7,7],"right_children":[2,4,-1,6,8,10,-1,12,-1,-1,-1,-1,-1],"split_conditions":[5.675E1,3.175E1,-1.6899607E3,3.1E1,3.82E1,2.02E3,-8.91938E2,2.022E3,9.237697E2,1.228856E3,2.0366768E2,3.9764446E3,1.09138E3],"split_indices":[0,0,0,0,0,2,0,2,0,0,0,0,0],"split_type":[0,0,0,0,0,0,0,0,0,0,0,0,0],"sum_hessian":[2.5E1,2.3E1,2E0,1.6E1,7E0,1.3E1,3E0,4E0,3E0,5E0,8E0,2E0,2E0],"tree_param":{"num_deleted":"0","num_feature":"3","num_nodes":"13","size_leaf_vector":"1"}},{"base_weights":[1.9419199E3,-8.517427E2,9.391673E3,-2.4942156E3,1.4564171E3,1.920717E4,-3.4151208E3,4.146923E3,-4.5695737E3,8.501123E3,4.5806543E3,-1.5722165E2,1.6541798E3,-1.06338425E2,-1.7665803E3,1.6680648E3,6.580092E2],"categories":[],"categories_nodes":[],"categories_segments":[],"categories_sizes":[],"default_left":[0,0,0,0,0,0,0,0,0,0,0,0,0,0,0,0,0],"id":44,"left_children":[1,3,5,7,-1,9,-1,11,13,15,-1,-1,-1,-1,-1,-1,-1],"loss_changes":[6.8679974E8,4.5321504E8,3.034839E9,2.8943824E8,0E0,1.0697677E9,0E0,2.103657E8,5.0623E8,5.4506016E7,0E0,0E0,0E0,0E0,0E0,0E0,0E0],"parents":[2147483647,0,0,1,1,2,2,3,3,5,5,7,7,8,8,9,9],"right_children":[2,4,6,8,-1,10,-1,12,14,16,-1,-1,-1,-1,-1,-1,-1],"split_conditions":[2.022E3,1.1E1,1E1,2.02E3,1.4564171E3,7E0,-3.4151208E3,6E0,8E0,4E0,4.5806543E3,-1.5722165E2,1.6541798E3,-1.06338425E2,-1.7665803E3,1.6680648E3,6.580092E2],"split_indices":[2,1,1,2,0,1,0,1,1,1,0,0,0,0,0,0,0],"split_type":[0,0,0,0,0,0,0,0,0,0,0,0,0,0,0,0,0],"sum_hessian":[3.3E1,2.4E1,9E0,2.1E1,3E0,7E0,2E0,5E0,1.6E1,4E0,3E0,3E0,2E0,1.1E1,5E0,2E0,2E0],"tree_param":{"num_deleted":"0","num_feature":"3","num_nodes":"17","size_leaf_vector":"1"}},{"base_weights":[-7.121036E1,2.331495E3,-1.3388512E3,-4.0968267E3,2.6727495E3,3.630079E2,-8.556651E3,9.170286E3,-2.7418767E3,6.001808E2,-1.601879E3,-2.8859087E3,-5.988756E2,4.9445114E2,2.3947854E3,-1.244259E3,1.363161E3],"categories":[],"categories_nodes":[],"categories_segments":[],"categories_sizes":[],"default_left":[0,0,0,0,0,0,0,0,0,0,0,0,0,0,0,0,0],"id":45,"left_children":[1,-1,3,5,7,9,11,13,15,-1,-1,-1,-1,-1,-1,-1,-1],"loss_changes":[6.2910176E8,0E0,2.987256E8,3.1824173E8,3.8700022E8,3.886103E8,4.1917894E8,2.315278E8,4.8431226E8,0E0,0E0,0E0,0E0,0E0,0E0,0E0,0E0],"parents":[2147483647,0,0,2,2,3,3,4,4,5,5,6,6,7,7,8,8],"right_children":[2,-1,4,6,8,10,12,14,16,-1,-1,-1,-1,-1,-1,-1,-1],"split_conditions":[3E0,2.331495E3,2.021E3,2.02E3,6E0,1.1E1,5E0,2.022E3,1.1E1,6.001808E2,-1.601879E3,-2.8859087E3,-5.988756E2,4.9445114E2,2.3947854E3,-1.244259E3,1.363161E3],"split_indices":[1,0,2,2,1,1,1,2,1,0,0,0,0,0,0,0,0],"split_type":[0,0,0,0,0,0,0,0,0,0,0,0,0,0,0,0,0],"sum_hessian":[2.9E1,2E0,2.7E1,1.6E1,1.1E1,8E0,8E0,5E0,6E0,6E0,2E0,2E0,6E0,3E0,2E0,4E0,2E0],"tree_param":{"num_deleted":"0","num_feature":"3","num_nodes":"17","size_leaf_vector":"1"}},{"base_weights":[-1.18695366E2,2.0615986E3,-9.566612E3,-2.3876658E3,1.0465752E4,-2.550494E3,-6.712309E1,1.2695674E3,-4.8878364E3,-6.302788E1,2.3626664E4,2.1888329E2,-1.1618124E3,9.3202246E2,-1.4195863E3,2.7932537E3,3.6714648E3],"categories":[],"categories_nodes":[],"categories_segments":[],"categories_sizes":[],"default_left":[0,0,0,0,0,0,0,0,0,0,0,0,0,0,0,0,0],"id":46,"left_children":[1,3,5,7,9,-1,-1,-1,11,13,15,-1,-1,-1,-1,-1,-1],"loss_changes":[6.5917645E8,9.72201E8,4.942389E8,4.9590054E8,1.2471177E9,0E0,0E0,0E0,3.273728E8,3.5454902E8,4.119552E7,0E0,0E0,0E0,0E0,0E0,0E0],"parents":[2147483647,0,0,1,1,2,2,3,3,4,4,8,8,9,9,10,10],"right_children":[2,4,6,8,10,-1,-1,-1,12,14,16,-1,-1,-1,-1,-1,-1],"split_conditions":[1.1E1,2.022E3,1.2E1,3E0,6E0,-2.550494E3,-6.712309E1,1.2695674E3,2.02E3,4E0,9E0,2.1888329E2,-1.1618124E3,9.3202246E2,-1.4195863E3,2.7932537E3,3.6714648E3],"split_indices":[1,2,1,1,1,0,0,0,2,1,1,0,0,0,0,0,0],"split_type":[0,0,0,0,0,0,0,0,0,0,0,0,0,0,0,0,0],"sum_hessian":[3.2E1,2.6E1,6E0,1.7E1,9E0,3E0,3E0,3E0,1.4E1,5E0,4E0,5E0,9E0,3E0,2E0,2E0,2E0],"tree_param":{"num_deleted":"0","num_feature":"3","num_nodes":"17","size_leaf_vector":"1"}},{"base_weights":[5.958239E2,-2.2991145E3,6.96468E3,9.742206E2,-7.027257E3,1.3431131E4,-1.1114061E3,-7.135471E2,2.4208765E3,-2.832508E3,-2.1091636E3,3.209848E3,3.702009E3,2.4980504E2,-4.4504584E2,8.221292E2,-3.6996933E1,-1.8737274E3,3.5559402E2,4.8295554E2,3.953218E2],"categories":[],"categories_nodes":[],"categories_segments":[],"categories_sizes":[],"default_left":[0,0,0,0,0,0,0,0,0,0,0,0,0,0,0,0,0,0,0,0,0],"id":47,"left_children":[1,3,5,7,9,11,-1,13,15,17,-1,19,-1,-1,-1,-1,-1,-1,-1,-1,-1],"loss_changes":[5.899989E8,3.4048992E8,9.7568614E8,3.1741136E7,3.1672355E8,9.750894E8,0E0,3.8693544E7,6.76021E7,3.5403706E8,0E0,4.10108E5,0E0,0E0,0E0,0E0,0E0,0E0,0E0,0E0,0E0],"parents":[2147483647,0,0,1,1,2,2,3,3,4,4,5,5,7,7,8,8,9,9,11,11],"right_children":[2,4,6,8,10,12,-1,14,16,18,-1,20,-1,-1,-1,-1,-1,-1,-1,-1,-1],"split_conditions":[2.022E3,2.021E3,1E1,8E0,8E0,7E0,-1.1114061E3,4E0,1E1,3E0,-2.1091636E3,3E0,3.702009E3,2.4980504E2,-4.4504584E2,8.221292E2,-3.6996933E1,-1.8737274E3,3.5559402E2,4.8295554E2,3.953218E2],"split_indices":[2,2,1,1,1,1,0,1,1,1,0,1,0,0,0,0,0,0,0,0,0],"split_type":[0,0,0,0,0,0,0,0,0,0,0,0,0,0,0,0,0,0,0,0,0],"sum_hessian":[3.2E1,2.2E1,1E1,1.3E1,9E0,7E0,3E0,6E0,7E0,6E0,3E0,4E0,3E0,3E0,3E0,3E0,4E0,2E0,4E0,2E0,2E0],"tree_param":{"num_deleted":"0","num_feature":"3","num_nodes":"21","size_leaf_vector":"1"}},{"base_weights":[-8.389085E2,1.2065647E3,-1.2702612E4,-1.2498865E3,1.0622935E4,-3.014734E3,-8.865806E2,1.9071268E3,-7.169277E3,1.9592266E3,9.474214E2,-2.6902887E2,2.3806782E3,-1.4600527E3,-1.821267E2],"categories":[],"categories_nodes":[],"categories_segments":[],"categories_sizes":[],"default_left":[0,0,0,0,0,0,0,0,0,0,0,0,0,0,0],"id":48,"left_children":[1,3,5,7,9,-1,-1,11,13,-1,-1,-1,-1,-1,-1],"loss_changes":[8.2507494E8,6.7079546E8,2.9036698E8,4.2981526E8,8.204224E7,0E0,0E0,9.002656E8,1.6359651E8,0E0,0E0,0E0,0E0,0E0,0E0],"parents":[2147483647,0,0,1,1,2,2,3,3,4,4,7,7,8,8],"right_children":[2,4,6,8,10,-1,-1,12,14,-1,-1,-1,-1,-1,-1],"split_conditions":[3.725E1,3.32E1,5E1,2.5E1,2.022E3,-3.014734E3,-8.865806E2,2.275E1,3.15E1,1.9592266E3,9.474214E2,-2.6902887E2,2.3806782E3,-1.4600527E3,-1.821267E2],"split_indices":[0,0,0,0,2,0,0,0,0,0,0,0,0,0,0],"split_type":[0,0,0,0,0,0,0,0,0,0,0,0,0,0,0],"sum_hessian":[3.4E1,2.9E1,5E0,2.3E1,6E0,2E0,3E0,1.5E1,8E0,3E0,3E0,1.2E1,3E0,5E0,3E0],"tree_param":{"num_deleted":"0","num_feature":"3","num_nodes":"15","size_leaf_vector":"1"}},{"base_weights":[7.44936E2,2.0276788E3,-1.4190133E3,-1.2318632E3,4.4180083E3,2.5856855E3,-1.5612734E3,-1.5637515E3,6.8561855E3,-3.2703754E2,2.3960916E3,1.9513555E3,6.940272E1],"categories":[],"categories_nodes":[],"categories_segments":[],"categories_sizes":[],"default_left":[0,0,0,0,0,0,0,0,0,0,0,0,0],"id":49,"left_children":[1,3,-1,5,7,9,-1,-1,11,-1,-1,-1,-1],"loss_changes":[4.1354973E8,2.0257613E8,0E0,4.274938E8,5.796081E8,5.942817E8,0E0,0E0,6.1134374E8,0E0,0E0,0E0,0E0],"parents":[2147483647,0,0,1,1,3,3,4,4,5,5,8,8],"right_children":[2,4,-1,6,8,10,-1,-1,12,-1,-1,-1,-1],"split_conditions":[3.82E1,6E0,-1.4190133E3,5E0,3.2E0,3.15E1,-1.5612734E3,-1.5637515E3,2.5E1,-3.2703754E2,2.3960916E3,1.9513555E3,6.940272E1],"split_indices":[0,1,0,1,0,0,0,0,0,0,0,0,0],"split_type":[0,0,0,0,0,0,0,0,0,0,0,0,0],"sum_hessian":[2.9E1,2.6E1,3E0,1.1E1,1.5E1,8E0,3E0,2E0,1.3E1,6E0,2E0,6E0,7E0],"tree_param":{"num_deleted":"0","num_feature":"3","num_nodes":"13","size_leaf_vector":"1"}},{"base_weights":[8.951916E2,3.8183052E3,-1.3135714E4,-2.0094916E2,9.445251E3,-7.162714E2,-2.5176484E3,-5.4276143E3,1.8897233E3,1.0975924E3,1.5010335E4,-4.7426216E1,-1.4376754E3,-6.65712E2,6.5464E2,-6.334927E2,9.338154E2,3.2276775E3,-2.9465057E2],"categories":[],"categories_nodes":[],"categories_segments":[],"categories_sizes":[],"default_left":[0,0,0,0,0,0,0,0,0,0,0,0,0,0,0,0,0,0,0],"id":50,"left_children":[1,3,5,7,9,-1,-1,11,13,15,17,-1,-1,-1,-1,-1,-1,-1,-1],"loss_changes":[1.1894057E9,5.4278746E8,2.0804077E8,1.5298184E8,4.645547E8,0E0,0E0,1.0326389E8,1.9559704E8,1.3124241E8,8.838143E8,0E0,0E0,0E0,0E0,0E0,0E0,0E0,0E0],"parents":[2147483647,0,0,1,1,2,2,3,3,4,4,7,7,8,8,9,9,10,10],"right_children":[2,4,6,8,10,-1,-1,12,14,16,18,-1,-1,-1,-1,-1,-1,-1,-1],"split_conditions":[1.1E1,2.325E1,1.95E1,5E0,4E0,-7.162714E2,-2.5176484E3,1.1E1,3.2E0,3.225E1,3.525E1,-4.7426216E1,-1.4376754E3,-6.65712E2,6.5464E2,-6.334927E2,9.338154E2,3.2276775E3,-2.9465057E2],"split_indices":[1,0,0,1,1,0,0,0,0,0,0,0,0,0,0,0,0,0,0],"split_type":[0,0,0,0,0,0,0,0,0,0,0,0,0,0,0,0,0,0,0],"sum_hessian":[2.9E1,2.4E1,5E0,1.4E1,1E1,2E0,3E0,4E0,1E1,4E0,6E0,2E0,2E0,3E0,7E0,2E0,2E0,4E0,2E0],"tree_param":{"num_deleted":"0","num_feature":"3","num_nodes":"19","size_leaf_vector":"1"}},{"base_weights":[3.7126697E3,-4.1674595E3,5.8617974E3,-2.416712E3,-1.0491854E3,1.266184E4,3.8617732E3,-1.6316168E2,-4.9809808E2,7.1455164E2,3.2588315E3,1.3382372E3,1.2063219E4,-6.8125616E2,3.4023868E2,2.383693E3,9.170403E2],"categories":[],"categories_nodes":[],"categories_segments":[],"categories_sizes":[],"default_left":[0,0,0,0,0,0,0,0,0,0,0,0,0,0,0,0,0],"id":51,"left_children":[1,3,5,7,-1,9,11,-1,-1,-1,-1,13,15,-1,-1,-1,-1],"loss_changes":[4.7419213E8,3.678055E7,2.992048E8,5.99352E6,0E0,4.1502342E8,3.518431E8,0E0,0E0,0E0,0E0,9.434448E7,1.1492365E8,0E0,0E0,0E0,0E0],"parents":[2147483647,0,0,1,1,2,2,3,3,5,5,6,6,11,11,12,12],"right_children":[2,4,6,8,-1,10,12,-1,-1,-1,-1,14,16,-1,-1,-1,-1],"split_conditions":[1.95E1,5.75E0,2.5E1,2.2E0,-1.0491854E3,2.275E1,3.58E1,-1.6316168E2,-4.9809808E2,7.1455164E2,3.2588315E3,2.95E1,3.82E1,-6.8125616E2,3.4023868E2,2.383693E3,9.170403E2],"split_indices":[0,0,0,0,0,0,0,0,0,0,0,0,0,0,0,0,0],"split_type":[0,0,0,0,0,0,0,0,0,0,0,0,0,0,0,0,0],"sum_hessian":[2.8E1,6E0,2.2E1,4E0,2E0,5E0,1.7E1,2E0,2E0,3E0,2E0,1.3E1,4E0,2E0,1.1E1,2E0,2E0],"tree_param":{"num_deleted":"0","num_feature":"3","num_nodes":"17","size_leaf_vector":"1"}},{"base_weights":[-8.1003894E2,3.666764E3,-2.7286704E3,1.4047062E3,1.7808065E3,-4.0850662E3,7.4010065E2,-2.2670168E2,4.359194E3,1.4660461E3,-7.6175884E3,6.03074E2,5.8968695E2,-5.3704E2,7.537782E2,-2.004608E3,-6.8124603E2],"categories":[],"categories_nodes":[],"categories_segments":[],"categories_sizes":[],"default_left":[0,0,0,0,0,0,0,0,0,0,0,0,0,0,0,0,0],"id":52,"left_children":[1,3,5,-1,7,9,-1,-1,11,13,15,-1,-1,-1,-1,-1,-1],"loss_changes":[2.5768042E8,1.1203881E8,2.318159E8,0E0,6.204918E7,3.529703E8,0E0,0E0,9.2E3,1.5260792E8,2.0414426E8,0E0,0E0,0E0,0E0,0E0,0E0],"parents":[2147483647,0,0,1,1,2,2,4,4,5,5,8,8,9,9,10,10],"right_children":[2,4,6,-1,8,10,-1,-1,12,14,16,-1,-1,-1,-1,-1,-1],"split_conditions":[2.02E3,1.34E1,3.85E1,1.4047062E3,2.325E1,8.8E0,7.4010065E2,-2.2670168E2,3.1E1,3.2E0,2.15E1,6.03074E2,5.8968695E2,-5.3704E2,7.537782E2,-2.004608E3,-6.8124603E2],"split_indices":[2,0,0,0,0,0,0,0,0,0,0,0,0,0,0,0,0],"split_type":[0,0,0,0,0,0,0,0,0,0,0,0,0,0,0,0,0],"sum_hessian":[3E1,9E0,2.1E1,2E0,7E0,1.8E1,3E0,3E0,4E0,7E0,1.1E1,2E0,2E0,3E0,4E0,3E0,8E0],"tree_param":{"num_deleted":"0","num_feature":"3","num_nodes":"17","size_leaf_vector":"1"}},{"base_weights":[7.832833E2,3.2325198E3,-1.2687468E4,7.1010547E2,9.958935E3,-1.2783335E3,-2.1932068E3,2.211037E3,-1.3402412E3,3.357054E3,2.669323E3,6.8901906E0,2.0760928E3,-1.420405E3,2.1507842E3],"categories":[],"categories_nodes":[],"categories_segments":[],"categories_sizes":[],"default_left":[0,0,0,0,0,0,0,0,0,0,0,0,0,0,0],"id":53,"left_children":[1,3,5,7,9,-1,-1,11,-1,-1,13,-1,-1,-1,-1],"loss_changes":[8.5782086E8,3.7326995E8,4.471539E7,2.5231189E8,6.376545E8,0E0,0E0,3.9215174E8,0E0,0E0,6.813827E8,0E0,0E0,0E0,0E0],"parents":[2147483647,0,0,1,1,2,2,3,3,4,4,7,7,10,10],"right_children":[2,4,6,8,10,-1,-1,12,-1,-1,14,-1,-1,-1,-1],"split_conditions":[3.82E1,3.225E1,9E0,2.5E1,3.525E1,-1.2783335E3,-2.1932068E3,2.18E1,-1.3402412E3,3.357054E3,3.62E1,6.8901906E0,2.0760928E3,-1.420405E3,2.1507842E3],"split_indices":[0,0,1,0,0,0,0,0,0,0,0,0,0,0,0],"split_type":[0,0,0,0,0,0,0,0,0,0,0,0,0,0,0],"sum_hessian":[2.6E1,2.2E1,4E0,1.6E1,6E0,2E0,2E0,1.4E1,2E0,2E0,4E0,1.2E1,2E0,2E0,2E0],"tree_param":{"num_deleted":"0","num_feature":"3","num_nodes":"15","size_leaf_vector":"1"}},{"base_weights":[2.7570718E3,1.6714128E3,1.9367386E3,-1.881948E3,7.4456147E3,1.6502595E3,-7.533465E3,2.8977783E3,2.8671106E3,6.148491E2,-9.4145105E2,-1.526513E3,-2.8686526E2,-4.530018E2,8.1487714E2],"categories":[],"categories_nodes":[],"categories_segments":[],"categories_sizes":[],"default_left":[0,0,0,0,0,0,0,0,0,0,0,0,0,0,0],"id":54,"left_children":[1,3,-1,5,7,9,11,-1,13,-1,-1,-1,-1,-1,-1],"loss_changes":[2.8464186E8,4.3087494E8,0E0,2.5951094E8,5.0309904E8,1.9410771E8,9.852304E7,0E0,1.14514E8,0E0,0E0,0E0,0E0,0E0,0E0],"parents":[2147483647,0,0,1,1,3,3,4,4,5,5,6,6,8,8],"right_children":[2,4,-1,6,8,10,12,-1,14,-1,-1,-1,-1,-1,-1],"split_conditions":[1.2E1,3.225E1,1.9367386E3,2.3E1,3.525E1,7E0,7E0,2.8977783E3,3.82E1,6.148491E2,-9.4145105E2,-1.526513E3,-2.8686526E2,-4.530018E2,8.1487714E2],"split_indices":[1,0,0,0,0,1,1,0,0,0,0,0,0,0,0],"split_type":[0,0,0,0,0,0,0,0,0,0,0,0,0,0,0],"sum_hessian":[2.3E1,2.1E1,2E0,1.3E1,8E0,8E0,5E0,2E0,6E0,6E0,2E0,3E0,2E0,2E0,4E0],"tree_param":{"num_deleted":"0","num_feature":"3","num_nodes":"15","size_leaf_vector":"1"}},{"base_weights":[-1.9209716E3,-2.3585004E2,-2.568209E3,-2.4582944E3,1.6906951E3,-4.8411954E2,-1.5967216E3,2.697973E2,-1.2983362E3],"categories":[],"categories_nodes":[],"categories_segments":[],"categories_sizes":[],"default_left":[0,0,0,0,0,0,0,0,0],"id":55,"left_children":[1,3,-1,5,-1,7,-1,-1,-1],"loss_changes":[6.24714E8,5.597809E8,0E0,3.091892E8,0E0,3.096818E8,0E0,0E0,0E0],"parents":[2147483647,0,0,1,1,3,3,5,5],"right_children":[2,4,-1,6,-1,8,-1,-1,-1],"split_conditions":[3.58E1,3.32E1,-2.568209E3,1E1,1.6906951E3,3.1E1,-1.5967216E3,2.697973E2,-1.2983362E3],"split_indices":[0,0,0,1,0,0,0,0,0],"split_type":[0,0,0,0,0,0,0,0,0],"sum_hessian":[2.2E1,2E1,2E0,1.7E1,3E0,1.4E1,3E0,1.1E1,3E0],"tree_param":{"num_deleted":"0","num_feature":"3","num_nodes":"9","size_leaf_vector":"1"}},{"base_weights":[-2.841659E3,2.7747317E3,-4.8635605E3,-1.0926483E2,7.241452E3,-2.3611147E3,-3.7857441E3,1.3779934E3,6.0340985E2,-5.530024E3,2.0118584E2,-3.3338156E2,-2.0261084E3,2.2698657E3,-8.6941754E2],"categories":[],"categories_nodes":[],"categories_segments":[],"categories_sizes":[],"default_left":[0,0,0,0,0,0,0,0,0,0,0,0,0,0,0],"id":56,"left_children":[1,3,5,-1,7,-1,9,-1,-1,11,13,-1,-1,-1,-1],"loss_changes":[3.8609728E8,1.4365245E8,3.3397997E8,0E0,3.2054448E7,0E0,1.5994957E8,0E0,0E0,4.5925894E8,7.521904E8,0E0,0E0,0E0,0E0],"parents":[2147483647,0,0,1,1,2,2,4,4,6,6,9,9,10,10],"right_children":[2,4,6,-1,8,-1,10,-1,-1,12,14,-1,-1,-1,-1],"split_conditions":[1.34E1,3.25E0,2.15E1,-1.0926483E2,8.8E0,-2.3611147E3,3.62E1,1.3779934E3,6.0340985E2,3.35E1,3.82E1,-3.3338156E2,-2.0261084E3,2.2698657E3,-8.6941754E2],"split_indices":[0,0,0,0,0,0,0,0,0,0,0,0,0,0,0],"split_type":[0,0,0,0,0,0,0,0,0,0,0,0,0,0,0],"sum_hessian":[3.4E1,9E0,2.5E1,5E0,4E0,2E0,2.3E1,2E0,2E0,1.6E1,7E0,1.2E1,4E0,2E0,5E0],"tree_param":{"num_deleted":"0","num_feature":"3","num_nodes":"15","size_leaf_vector":"1"}},{"base_weights":[1.1011235E2,3.1833386E3,-1.9926226E3,5.7061115E2,7.3636846E3,-2.233682E3,-3.0622806E2,2.919325E3,-4.5748126E2,1.0344167E2,2.3633962E3,3.6700762E3,-3.840721E3,1.2908948E3,-1.9494395E2,9.42265E2,-8.18372E2,-9.360235E2,9.115487E2],"categories":[],"categories_nodes":[],"categories_segments":[],"categories_sizes":[],"default_left":[0,0,0,0,0,0,0,0,0,0,0,0,0,0,0,0,0,0,0],"id":57,"left_children":[1,3,5,7,9,-1,11,13,-1,-1,-1,15,17,-1,-1,-1,-1,-1,-1],"loss_changes":[2.0679003E8,1.4198747E8,4.5928992E8,7.355301E7,3.2744944E8,0E0,2.3892226E8,1.4154322E8,0E0,0E0,0E0,2.48425E8,2.8369574E8,0E0,0E0,0E0,0E0,0E0,0E0],"parents":[2147483647,0,0,1,1,2,2,3,3,4,4,6,6,7,7,11,11,12,12],"right_children":[2,4,6,8,10,-1,12,14,-1,-1,-1,16,18,-1,-1,-1,-1,-1,-1],"split_conditions":[2.5E1,2.021E3,3.12E1,1.34E1,2.15E1,-2.233682E3,2.022E3,2.02E3,-4.5748126E2,1.0344167E2,2.3633962E3,4.575E1,3.85E1,1.2908948E3,-1.9494395E2,9.42265E2,-8.18372E2,-9.360235E2,9.115487E2],"split_indices":[0,2,0,0,0,0,2,2,0,0,0,0,0,0,0,0,0,0,0],"split_type":[0,0,0,0,0,0,0,0,0,0,0,0,0,0,0,0,0,0,0],"sum_hessian":[3.2E1,1.3E1,1.9E1,8E0,5E0,2E0,1.7E1,5E0,3E0,3E0,2E0,8E0,9E0,2E0,3E0,6E0,2E0,7E0,2E0],"tree_param":{"num_deleted":"0","num_feature":"3","num_nodes":"19","size_leaf_vector":"1"}},{"base_weights":[8.8136755E2,-5.149436E2,1.7761632E3,1.1282478E3,-5.9922344E3,3.665839E3,2.8238052E2,-3.657563E1,-2.4493777E3,1.4405116E3,-1.2447107E2,-8.705896E2,2.6593918E2,-1.0698832E3,1.0598755E3],"categories":[],"categories_nodes":[],"categories_segments":[],"categories_sizes":[],"default_left":[0,0,0,0,0,0,0,0,0,0,0,0,0,0,0],"id":58,"left_children":[1,3,-1,5,7,9,11,13,-1,-1,-1,-1,-1,-1,-1],"loss_changes":[4.900182E8,2.3400648E8,0E0,4.2929336E7,4.256357E8,1.5702347E8,1.656288E8,2.4234067E8,0E0,0E0,0E0,0E0,0E0,0E0,0E0],"parents":[2147483647,0,0,1,1,3,3,4,4,5,5,6,6,7,7],"right_children":[2,4,-1,6,8,10,12,14,-1,-1,-1,-1,-1,-1,-1],"split_conditions":[1.2E1,9E0,1.7761632E3,3E0,2.022E3,2.021E3,4E0,1E1,-2.4493777E3,1.4405116E3,-1.2447107E2,-8.705896E2,2.6593918E2,-1.0698832E3,1.0598755E3],"split_indices":[1,1,0,1,2,2,1,1,0,0,0,0,0,0,0],"split_type":[0,0,0,0,0,0,0,0,0,0,0,0,0,0,0],"sum_hessian":[2.9E1,2.6E1,3E0,2E1,6E0,5E0,1.5E1,4E0,2E0,2E0,3E0,3E0,1.2E1,2E0,2E0],"tree_param":{"num_deleted":"0","num_feature":"3","num_nodes":"15","size_leaf_vector":"1"}},{"base_weights":[7.935834E2,-3.077519E3,4.180798E3,1.3045762E3,-4.0181028E3,1.7053417E3,2.2690444E3,-1.6154099E3,7.1445283E3,-4.122122E2,1.5331681E3,-5.0915338E2,2.592425E2,8.0386707E2,1.151016E3,4.9108487E2,-8.776131E2],"categories":[],"categories_nodes":[],"categories_segments":[],"categories_sizes":[],"default_left":[0,0,0,0,0,0,0,0,0,0,0,0,0,0,0,0,0],"id":59,"left_children":[1,3,5,7,-1,-1,9,11,13,15,-1,-1,-1,-1,-1,-1,-1],"loss_changes":[3.933681E8,1.6130198E9,2.5339722E8,2.046315E8,0E0,0E0,3.1152794E8,5.9147268E7,6.437712E6,2.402092E8,0E0,0E0,0E0,0E0,0E0,0E0,0E0],"parents":[2147483647,0,0,1,1,2,2,3,3,6,6,7,7,8,8,9,9],"right_children":[2,4,6,8,-1,-1,10,12,14,16,-1,-1,-1,-1,-1,-1,-1],"split_conditions":[6E0,5E0,8E0,2.022E3,-4.0181028E3,1.7053417E3,1.2E1,4E0,3E0,1E1,1.5331681E3,-5.0915338E2,2.592425E2,8.0386707E2,1.151016E3,4.9108487E2,-8.776131E2],"split_indices":[1,1,1,2,0,0,1,1,1,1,0,0,0,0,0,0,0],"split_type":[0,0,0,0,0,0,0,0,0,0,0,0,0,0,0,0,0],"sum_hessian":[3E1,1.4E1,1.6E1,1.2E1,2E0,3E0,1.3E1,8E0,4E0,1E1,3E0,5E0,3E0,2E0,2E0,6E0,4E0],"tree_param":{"num_deleted":"0","num_feature":"3","num_nodes":"17","size_leaf_vector":"1"}},{"base_weights":[3.11221E2,3.4855596E3,-4.185757E3,1.6829252E3,1.627742E3,-1.5180271E3,-1.6675671E3,3.2519507E3,-1.0577047E3,2.3627594E2,-6.876932E2,9.417022E0,1.0545759E3,-4.37694E2,9.723582E2],"categories":[],"categories_nodes":[],"categories_segments":[],"categories_sizes":[],"default_left":[0,0,0,0,0,0,0,0,0,0,0,0,0,0,0],"id":60,"left_children":[1,3,5,7,-1,9,-1,11,-1,13,-1,-1,-1,-1,-1],"loss_changes":[4.1397354E8,2.5779085E8,2.5620227E8,2.0679411E8,0E0,5.539623E7,0E0,1.7022125E8,0E0,1.416361E8,0E0,0E0,0E0,0E0,0E0],"parents":[2147483647,0,0,1,1,2,2,3,3,5,5,7,7,9,9],"right_children":[2,4,6,8,-1,10,-1,12,-1,14,-1,-1,-1,-1,-1],"split_conditions":[8E0,7E0,2.022E3,6E0,1.627742E3,1.2E1,-1.6675671E3,2.021E3,-1.0577047E3,1.1E1,-6.876932E2,9.417022E0,1.0545759E3,-4.37694E2,9.723582E2],"split_indices":[1,1,2,1,0,1,0,2,0,1,0,0,0,0,0],"split_type":[0,0,0,0,0,0,0,0,0,0,0,0,0,0,0],"sum_hessian":[2.9E1,1.7E1,1.2E1,1.4E1,3E0,9E0,3E0,1.2E1,2E0,6E0,3E0,7E0,5E0,4E0,2E0],"tree_param":{"num_deleted":"0","num_feature":"3","num_nodes":"15","size_leaf_vector":"1"}},{"base_weights":[-1.7447881E3,-3.4401292E3,1.4621831E3,3.5135447E3,-7.4136562E3,1.0160387E3,6.0110337E3,-3.5411711E3,-4.335267E3,1.0267505E3,-7.4874243E2,9.1043176E2,7.3430493E2,-2.511233E2,-2.303024E3],"categories":[],"categories_nodes":[],"categories_segments":[],"categories_sizes":[],"default_left":[0,0,0,0,0,0,0,0,0,0,0,0,0,0,0],"id":61,"left_children":[1,3,-1,5,7,9,11,-1,13,-1,-1,-1,-1,-1,-1],"loss_changes":[5.269319E8,6.078745E8,0E0,4.989995E7,7.9601395E8,1.6842376E8,1.656656E6,0E0,3.74909E8,0E0,0E0,0E0,0E0,0E0,0E0],"parents":[2147483647,0,0,1,1,3,3,4,4,5,5,6,6,8,8],"right_children":[2,4,-1,6,8,10,12,-1,14,-1,-1,-1,-1,-1,-1],"split_conditions":[1.2E1,5E0,1.4621831E3,2.021E3,6E0,4E0,2.022E3,-3.5411711E3,1.1E1,1.0267505E3,-7.4874243E2,9.1043176E2,7.3430493E2,-2.511233E2,-2.303024E3],"split_indices":[1,1,0,2,1,1,2,0,1,0,0,0,0,0,0],"split_type":[0,0,0,0,0,0,0,0,0,0,0,0,0,0,0],"sum_hessian":[2.5E1,2.2E1,3E0,8E0,1.4E1,4E0,4E0,2E0,1.2E1,2E0,2E0,2E0,2E0,1E1,2E0],"tree_param":{"num_deleted":"0","num_feature":"3","num_nodes":"15","size_leaf_vector":"1"}},{"base_weights":[-1.2286671E2,1.6998293E3,-4.7808613E3,-2.135057E3,7.6651997E3,-1.3684875E4,6.3491685E3,1.7136198E3,-9.062655E3,1.499883E4,1.7982603E3,-2.3354048E3,-1.5634408E3,9.340067E2,8.032503E2,-1.502973E2,1.00391394E3,-2.3843005E3,-4.7689935E2,2.6959739E3,1.4080001E3,5.3731146E2,-1.909161E2],"categories":[],"categories_nodes":[],"categories_segments":[],"categories_sizes":[],"default_left":[0,0,0,0,0,0,0,0,0,0,0,0,0,0,0,0,0,0,0,0,0,0,0],"id":62,"left_children":[1,3,5,7,9,11,13,15,17,19,21,-1,-1,-1,-1,-1,-1,-1,-1,-1,-1,-1,-1],"loss_changes":[2.716838E8,5.261607E8,8.919211E8,3.7326998E8,3.8723402E8,3.82032E7,9.12672E5,1.4235216E8,2.33253E8,8.862534E7,3.4000056E7,0E0,0E0,0E0,0E0,0E0,0E0,0E0,0E0,0E0,0E0,0E0,0E0],"parents":[2147483647,0,0,1,1,2,2,3,3,4,4,5,5,6,6,7,7,8,8,9,9,10,10],"right_children":[2,4,6,8,10,12,14,16,18,20,22,-1,-1,-1,-1,-1,-1,-1,-1,-1,-1,-1,-1],"split_conditions":[3.35E1,2.325E1,3.85E1,1.34E1,3E1,3.525E1,5.2E1,1E1,2.15E1,1E1,8E0,-2.3354048E3,-1.5634408E3,9.340067E2,8.032503E2,-1.502973E2,1.00391394E3,-2.3843005E3,-4.7689935E2,2.6959739E3,1.4080001E3,5.3731146E2,-1.909161E2],"split_indices":[0,0,0,0,0,0,0,1,0,1,1,0,0,0,0,0,0,0,0,0,0,0,0],"split_type":[0,0,0,0,0,0,0,0,0,0,0,0,0,0,0,0,0,0,0,0,0,0,0],"sum_hessian":[3.2E1,2.3E1,9E0,1.4E1,9E0,5E0,4E0,9E0,5E0,4E0,5E0,2E0,3E0,2E0,2E0,6E0,3E0,2E0,3E0,2E0,2E0,3E0,2E0],"tree_param":{"num_deleted":"0","num_feature":"3","num_nodes":"23","size_leaf_vector":"1"}},{"base_weights":[1.9754851E3,6.720204E2,6.9720815E3,1.6932335E3,-1.3750314E3,1.7768153E3,1.3088615E2,1.01076776E3,1.1186425E3,3.612025E2,-4.8588828E2],"categories":[],"categories_nodes":[],"categories_segments":[],"categories_sizes":[],"default_left":[0,0,0,0,0,0,0,0,0,0,0],"id":63,"left_children":[1,3,5,7,-1,-1,-1,9,-1,-1,-1],"loss_changes":[1.8887376E8,2.5185307E8,2.1710794E8,9.29179E7,0E0,0E0,0E0,1.4124304E8,0E0,0E0,0E0],"parents":[2147483647,0,0,1,1,2,2,3,3,7,7],"right_children":[2,4,6,8,-1,-1,-1,10,-1,-1,-1],"split_conditions":[2.022E3,1.2E1,1E1,9E0,-1.3750314E3,1.7768153E3,1.3088615E2,7E0,1.1186425E3,3.612025E2,-4.8588828E2],"split_indices":[2,1,1,1,0,0,0,1,0,0,0],"split_type":[0,0,0,0,0,0,0,0,0,0,0],"sum_hessian":[2.9E1,2.3E1,6E0,2.1E1,2E0,3E0,3E0,1.9E1,2E0,1.4E1,5E0],"tree_param":{"num_deleted":"0","num_feature":"3","num_nodes":"11","size_leaf_vector":"1"}},{"base_weights":[2.7857544E2,-1.6444915E3,1.817029E3,1.715325E3,-1.17239E4,-9.9901074E2,1.026512E4,-9.9972955E2,7.1454126E3,3.9523416E2,-3.6031233E3,-3.2325625E3,3.4680881E3,2.257438E3,1.2477315E2,2.587297E2,-7.959429E2,1.5698118E3,3.8531332E2,8.704781E2,-1.0048463E3,-4.9703027E2,1.9317131E3],"categories":[],"categories_nodes":[],"categories_segments":[],"categories_sizes":[],"default_left":[0,0,0,0,0,0,0,0,0,0,0,0,0,0,0,0,0,0,0,0,0,0,0],"id":64,"left_children":[1,3,5,7,9,11,13,15,17,-1,-1,19,21,-1,-1,-1,-1,-1,-1,-1,-1,-1,-1],"loss_changes":[1.06507896E8,5.418405E8,4.7580387E8,1.7691626E8,8.5413664E8,1.4966288E8,2.9160054E8,1.1142952E8,7.495986E7,0E0,0E0,3.9458045E8,3.7818928E8,0E0,0E0,0E0,0E0,0E0,0E0,0E0,0E0,0E0,0E0],"parents":[2147483647,0,0,1,1,2,2,3,3,4,4,5,5,6,6,7,7,8,8,11,11,12,12],"right_children":[2,4,6,8,10,12,14,16,18,-1,-1,20,22,-1,-1,-1,-1,-1,-1,-1,-1,-1,-1],"split_conditions":[7E0,2.022E3,2.022E3,5E0,4E0,1.1E1,1E1,2.021E3,6E0,3.9523416E2,-3.6031233E3,2.02E3,2.021E3,2.257438E3,1.2477315E2,2.587297E2,-7.959429E2,1.5698118E3,3.8531332E2,8.704781E2,-1.0048463E3,-4.9703027E2,1.9317131E3],"split_indices":[1,2,2,1,1,1,1,2,1,0,0,2,2,0,0,0,0,0,0,0,0,0,0],"split_type":[0,0,0,0,0,0,0,0,0,0,0,0,0,0,0,0,0,0,0,0,0,0,0],"sum_hessian":[3.6E1,1.6E1,2E1,1.2E1,4E0,1.5E1,5E0,8E0,4E0,2E0,2E0,1E1,5E0,3E0,2E0,5E0,3E0,2E0,2E0,3E0,7E0,3E0,2E0],"tree_param":{"num_deleted":"0","num_feature":"3","num_nodes":"23","size_leaf_vector":"1"}},{"base_weights":[1.9987722E3,-5.2689375E3,3.5128813E3,-3.6669983E2,-9.569393E2,2.5637522E3,1.9089408E3,3.512349E3,-9.4702386E2,1.5490656E2,1.7829973E3],"categories":[],"categories_nodes":[],"categories_segments":[],"categories_sizes":[],"default_left":[0,0,0,0,0,0,0,0,0,0,0],"id":65,"left_children":[1,3,5,-1,-1,7,-1,9,-1,-1,-1],"loss_changes":[3.1911965E8,2.2335312E7,2.378201E8,0E0,0E0,1.979634E8,0E0,4.531794E8,0E0,0E0,0E0],"parents":[2147483647,0,0,1,1,2,2,5,5,7,7],"right_children":[2,4,6,-1,-1,8,-1,10,-1,-1,-1],"split_conditions":[4E0,3E0,1.2E1,-3.6669983E2,-9.569393E2,3.725E1,1.9089408E3,3.1E1,-9.4702386E2,1.5490656E2,1.7829973E3],"split_indices":[1,1,1,0,0,0,0,0,0,0,0],"split_type":[0,0,0,0,0,0,0,0,0,0,0],"sum_hessian":[2.9E1,5E0,2.4E1,2E0,3E0,2.2E1,2E0,2E1,2E0,1.6E1,4E0],"tree_param":{"num_deleted":"0","num_feature":"3","num_nodes":"11","size_leaf_vector":"1"}},{"base_weights":[2.4255722E2,1.8195422E3,-1.040205E4,9.733263E2,1.6960573E3,-1.4167539E3,-1.4294509E3,4.19631E3,-2.5182407E3,1.9984189E2,1.8216141E3,-1.0883415E2,-1.0515791E3],"categories":[],"categories_nodes":[],"categories_segments":[],"categories_sizes":[],"default_left":[0,0,0,0,0,0,0,0,0,0,0,0,0],"id":66,"left_children":[1,3,5,7,-1,-1,-1,9,11,-1,-1,-1,-1],"loss_changes":[5.2037872E8,2.4167488E8,6.464E3,2.8133203E8,0E0,0E0,0E0,3.2428054E8,1.0684005E8,0E0,0E0,0E0,0E0],"parents":[2147483647,0,0,1,1,2,2,3,3,7,7,8,8],"right_children":[2,4,6,8,-1,-1,-1,10,12,-1,-1,-1,-1],"split_conditions":[3.82E1,3.62E1,5.2E1,2.5E1,1.6960573E3,-1.4167539E3,-1.4294509E3,2.021E3,3.35E1,1.9984189E2,1.8216141E3,-1.0883415E2,-1.0515791E3],"split_indices":[0,0,0,0,0,0,0,2,0,0,0,0,0],"split_type":[0,0,0,0,0,0,0,0,0,0,0,0,0],"sum_hessian":[3.1E1,2.7E1,4E0,2.5E1,2E0,2E0,2E0,1.3E1,1.2E1,1E1,3E0,9E0,3E0],"tree_param":{"num_deleted":"0","num_feature":"3","num_nodes":"13","size_leaf_vector":"1"}},{"base_weights":[1.8519236E3,7.0306537E2,8.285503E3,2.6279314E3,-4.1090947E3,1.9278696E3,6.039837E2,4.4416556E2,9.179202E3,3.6306592E2,-8.1668184E3,3.4911475E2,-3.7175565E2,8.5251965E2,1.8607338E3,-3.2747366E3,3.2099237E2],"categories":[],"categories_nodes":[],"categories_segments":[],"categories_sizes":[],"default_left":[0,0,0,0,0,0,0,0,0,0,0,0,0,0,0,0,0],"id":67,"left_children":[1,3,5,7,9,-1,-1,11,13,-1,15,-1,-1,-1,-1,-1,-1],"loss_changes":[2.4391197E8,2.5935778E8,1.1236787E8,2.8612906E8,2.1953622E8,0E0,0E0,9.994923E7,6.516893E7,0E0,8.2893286E8,0E0,0E0,0E0,0E0,0E0,0E0],"parents":[2147483647,0,0,1,1,2,2,3,3,4,4,7,7,8,8,10,10],"right_children":[2,4,6,8,10,-1,-1,12,14,-1,16,-1,-1,-1,-1,-1,-1],"split_conditions":[3.62E1,3.1E1,4.575E1,2.325E1,5E0,1.9278696E3,6.039837E2,7E0,2.95E1,3.6306592E2,7E0,3.4911475E2,-3.7175565E2,8.5251965E2,1.8607338E3,-3.2747366E3,3.2099237E2],"split_indices":[0,0,0,0,1,0,0,1,0,0,1,0,0,0,0,0,0],"split_type":[0,0,0,0,0,0,0,0,0,0,0,0,0,0,0,0,0],"sum_hessian":[3.3E1,2.8E1,5E0,2E1,8E0,2E0,3E0,1.5E1,5E0,3E0,5E0,9E0,6E0,3E0,2E0,2E0,3E0],"tree_param":{"num_deleted":"0","num_feature":"3","num_nodes":"17","size_leaf_vector":"1"}},{"base_weights":[-2.7995914E2,-1.5743506E3,6.407714E3,4.3104352E2,-4.0094695E3,1.6641187E3,3.529686E3,-6.965617E2,1.2159725E3,1.326401E2,-6.3106367E3,7.703958E2,1.9539552E2,5.5399426E1,-1.0748143E3,-4.2297968E2,3.1223154E2,-2.1901284E3,-4.842798E2],"categories":[],"categories_nodes":[],"categories_segments":[],"categories_sizes":[],"default_left":[0,0,0,0,0,0,0,0,0,0,0,0,0,0,0,0,0,0,0],"id":68,"left_children":[1,3,5,7,9,-1,11,13,-1,15,17,-1,-1,-1,-1,-1,-1,-1,-1],"loss_changes":[3.2028963E8,1.5138467E8,9.939445E7,1.621143E8,1.3344382E8,0E0,1.7664268E7,1.1829552E8,0E0,3.4655364E7,2.4184102E8,0E0,0E0,0E0,0E0,0E0,0E0,0E0,0E0],"parents":[2147483647,0,0,1,1,2,2,3,3,4,4,6,6,7,7,9,9,10,10],"right_children":[2,4,6,8,10,-1,12,14,-1,16,18,-1,-1,-1,-1,-1,-1,-1,-1],"split_conditions":[3.62E1,2.5E1,4.575E1,2.18E1,2.021E3,1.6641187E3,2.022E3,2.05E1,1.2159725E3,2.95E1,3.12E1,7.703958E2,1.9539552E2,5.5399426E1,-1.0748143E3,-4.2297968E2,3.1223154E2,-2.1901284E3,-4.842798E2],"split_indices":[0,0,0,0,2,0,2,0,0,0,0,0,0,0,0,0,0,0,0],"split_type":[0,0,0,0,0,0,0,0,0,0,0,0,0,0,0,0,0,0,0],"sum_hessian":[3.7E1,3.1E1,6E0,1.7E1,1.4E1,2E0,4E0,1.5E1,2E0,5E0,9E0,2E0,2E0,1.3E1,2E0,2E0,3E0,2E0,7E0],"tree_param":{"num_deleted":"0","num_feature":"3","num_nodes":"19","size_leaf_vector":"1"}},{"base_weights":[-4.055552E2,-2.4246108E3,4.894459E3,-1.4435428E3,-6.5941226E3,-7.669689E2,2.9932195E3,1.5787788E3,-3.0920818E3,-7.8420605E2,-1.0200752E3,3.0060403E3,-1.1372976E3,-4.7130902E2,9.0329456E2,-1.11106606E2,-9.6889044E2,1.6866217E2,6.538494E2],"categories":[],"categories_nodes":[],"categories_segments":[],"categories_sizes":[],"default_left":[0,0,0,0,0,0,0,0,0,0,0,0,0,0,0,0,0,0,0],"id":69,"left_children":[1,3,5,7,9,11,-1,13,15,-1,-1,17,-1,-1,-1,-1,-1,-1,-1],"loss_changes":[3.103301E8,8.590196E7,7.692375E8,8.470125E7,2.971552E6,1.7082722E8,0E0,1.514294E8,1.00065304E8,0E0,0E0,1.2577032E7,0E0,0E0,0E0,0E0,0E0,0E0,0E0],"parents":[2147483647,0,0,1,1,2,2,3,3,4,4,5,5,7,7,8,8,11,11],"right_children":[2,4,6,8,10,12,-1,14,16,-1,-1,18,-1,-1,-1,-1,-1,-1,-1],"split_conditions":[2.022E3,1.1E1,9E0,2.02E3,2.02E3,5E0,2.9932195E3,6E0,7E0,-7.8420605E2,-1.0200752E3,3E0,-1.1372976E3,-4.7130902E2,9.0329456E2,-1.11106606E2,-9.6889044E2,1.6866217E2,6.538494E2],"split_indices":[2,1,1,2,2,1,0,1,1,0,0,1,0,0,0,0,0,0,0],"split_type":[0,0,0,0,0,0,0,0,0,0,0,0,0,0,0,0,0,0,0],"sum_hessian":[2.9E1,2.1E1,8E0,1.7E1,4E0,6E0,2E0,6E0,1.1E1,2E0,2E0,4E0,2E0,3E0,3E0,7E0,4E0,2E0,2E0],"tree_param":{"num_deleted":"0","num_feature":"3","num_nodes":"19","size_leaf_vector":"1"}},{"base_weights":[-7.72065E2,-3.6954028E3,1.9685654E3,-4.8872122E2,-1.2513732E4,3.7506404E3,-7.87171E2,3.4562512E3,-3.7761987E3,1.4558846E2,-3.569591E3,7.364282E2,2.781171E3,8.4516864E2,2.24636E2,-1.275834E3,-1.3701395E2,-7.2982733E2,4.1221902E2],"categories":[],"categories_nodes":[],"categories_segments":[],"categories_sizes":[],"default_left":[0,0,0,0,0,0,0,0,0,0,0,0,0,0,0,0,0,0,0],"id":70,"left_children":[1,3,5,7,9,11,-1,13,15,-1,-1,17,-1,-1,-1,-1,-1,-1,-1],"loss_changes":[2.4836576E8,4.2416403E8,2.2018813E8,1.426596E8,7.3743443E8,6.4960557E8,0E0,2.4687172E7,9.2387336E7,0E0,0E0,1.5203714E8,0E0,0E0,0E0,0E0,0E0,0E0,0E0],"parents":[2147483647,0,0,1,1,2,2,3,3,4,4,5,5,7,7,8,8,11,11],"right_children":[2,4,6,8,10,12,-1,14,16,-1,-1,18,-1,-1,-1,-1,-1,-1,-1],"split_conditions":[7E0,3.35E1,3.725E1,2.05E1,3E0,3.32E1,-7.87171E2,2.2E0,2.275E1,1.4558846E2,-3.569591E3,3.2E0,2.781171E3,8.4516864E2,2.24636E2,-1.275834E3,-1.3701395E2,-7.2982733E2,4.1221902E2],"split_indices":[1,0,0,0,1,0,0,0,0,0,0,0,0,0,0,0,0,0,0],"split_type":[0,0,0,0,0,0,0,0,0,0,0,0,0,0,0,0,0,0,0],"sum_hessian":[3.1E1,1.5E1,1.6E1,1.1E1,4E0,1.3E1,3E0,5E0,6E0,2E0,2E0,1.1E1,2E0,2E0,3E0,2E0,4E0,3E0,8E0],"tree_param":{"num_deleted":"0","num_feature":"3","num_nodes":"19","size_leaf_vector":"1"}},{"base_weights":[-2.0538884E3,1.321052E3,-3.178869E3,-2.5997734E3,1.5217491E3,-8.380887E3,-5.7785187E2,-2.8405405E2,-4.6310568E2,-4.9960654E2,-1.1927656E4,1.3561046E2,-6.647054E2,-1.9363494E3,-1.3272914E3,-3.3360635E2,2.700955E2],"categories":[],"categories_nodes":[],"categories_segments":[],"categories_sizes":[],"default_left":[0,0,0,0,0,0,0,0,0,0,0,0,0,0,0,0,0],"id":71,"left_children":[1,3,5,7,-1,9,11,-1,-1,-1,13,15,-1,-1,-1,-1,-1],"loss_changes":[1.0630894E8,2.6902464E8,2.8414147E8,2.055296E6,0E0,1.1740995E8,4.2758068E7,0E0,0E0,0E0,1.9816256E7,5.6792972E7,0E0,0E0,0E0,0E0,0E0],"parents":[2147483647,0,0,1,1,2,2,3,3,5,5,6,6,10,10,11,11],"right_children":[2,4,6,8,-1,10,12,-1,-1,-1,14,16,-1,-1,-1,-1,-1],"split_conditions":[1.12E1,5.75E0,3E1,2.2E0,1.5217491E3,2.02E3,5.2E1,-2.8405405E2,-4.6310568E2,-4.9960654E2,2.15E1,3.32E1,-6.647054E2,-1.9363494E3,-1.3272914E3,-3.3360635E2,2.700955E2],"split_indices":[0,0,0,0,0,2,0,0,0,0,0,0,0,0,0,0,0],"split_type":[0,0,0,0,0,0,0,0,0,0,0,0,0,0,0,0,0],"sum_hessian":[2.8E1,7E0,2.1E1,5E0,2E0,7E0,1.4E1,3E0,2E0,3E0,4E0,1.2E1,2E0,2E0,2E0,5E0,7E0],"tree_param":{"num_deleted":"0","num_feature":"3","num_nodes":"17","size_leaf_vector":"1"}},{"base_weights":[-7.766555E2,3.0441023E3,-1.5953909E3,2.9372282E1,4.458799E3,-2.7137764E3,4.177046E2,8.0316907E2,4.1684573E2,1.4974474E3,-4.3334775E3,1.0645277E3,-1.4231434E3,1.0516188E3,-3.596382E2,-3.9613727E2,-1.6748539E3,-6.7598615E2,9.407169E1],"categories":[],"categories_nodes":[],"categories_segments":[],"categories_sizes":[],"default_left":[0,0,0,0,0,0,0,0,0,0,0,0,0,0,0,0,0,0,0],"id":72,"left_children":[1,3,5,-1,7,9,11,-1,-1,13,15,-1,17,-1,-1,-1,-1,-1,-1],"loss_changes":[1.0635859E8,2.4016592E7,6.3039744E7,0E0,7.973456E6,1.22776904E8,1.3554829E8,0E0,0E0,1.2769041E8,1.4784E8,0E0,5.940341E7,0E0,0E0,0E0,0E0,0E0,0E0],"parents":[2147483647,0,0,1,1,2,2,4,4,5,5,6,6,9,9,10,10,12,12],"right_children":[2,4,6,-1,8,10,12,-1,-1,14,16,-1,18,-1,-1,-1,-1,-1,-1],"split_conditions":[2.02E3,5E0,9E0,2.9372282E1,9E0,3E0,1E1,8.0316907E2,4.1684573E2,2.021E3,2.022E3,1.0645277E3,1.1E1,1.0516188E3,-3.596382E2,-3.9613727E2,-1.6748539E3,-6.7598615E2,9.407169E1],"split_indices":[2,1,1,0,1,1,1,0,0,2,2,0,1,0,0,0,0,0,0],"split_type":[0,0,0,0,0,0,0,0,0,0,0,0,0,0,0,0,0,0,0],"sum_hessian":[3.4E1,6E0,2.8E1,2E0,4E0,1.8E1,1E1,2E0,2E0,5E0,1.3E1,2E0,8E0,2E0,3E0,1.1E1,2E0,3E0,5E0],"tree_param":{"num_deleted":"0","num_feature":"3","num_nodes":"19","size_leaf_vector":"1"}},{"base_weights":[-2.0570024E3,3.636533E3,-3.6385422E3,3.839506E2,5.732229E2,-1.732764E3,-1.83315E3,3.0130627E3,-3.5954114E3,-5.80712E2,1.405145E3,-8.3815955E2,4.314953E2],"categories":[],"categories_nodes":[],"categories_segments":[],"categories_sizes":[],"default_left":[0,0,0,0,0,0,0,0,0,0,0,0,0],"id":73,"left_children":[1,3,5,-1,-1,-1,7,9,11,-1,-1,-1,-1],"loss_changes":[2.0710515E8,2.296524E6,2.9334736E8,0E0,0E0,0E0,1.28104776E8,2.1069835E8,1.8791136E8,0E0,0E0,0E0,0E0],"parents":[2147483647,0,0,1,1,2,2,6,6,7,7,8,8],"right_children":[2,4,6,-1,-1,-1,8,10,12,-1,-1,-1,-1],"split_conditions":[4E0,3.15E1,6E0,3.839506E2,5.732229E2,-1.732764E3,1.34E1,3.2E0,1.2E1,-5.80712E2,1.405145E3,-8.3815955E2,4.314953E2],"split_indices":[1,0,1,0,0,0,0,0,1,0,0,0,0],"split_type":[0,0,0,0,0,0,0,0,0,0,0,0,0],"sum_hessian":[2.3E1,5E0,1.8E1,2E0,3E0,3E0,1.5E1,4E0,1.1E1,2E0,2E0,8E0,3E0],"tree_param":{"num_deleted":"0","num_feature":"3","num_nodes":"13","size_leaf_vector":"1"}},{"base_weights":[6.4202203E2,1.1021177E3,-5.416206E2,-4.2588803E2,3.1002766E3,1.1757134E3,-4.269721E3,7.113145E2,8.475412E3,-4.5023615E2,5.9733997E2,-9.8349335E2,1.4887346E1,7.3898694E2,-2.2352191E2,1.2067957E3,1.1122434E3],"categories":[],"categories_nodes":[],"categories_segments":[],"categories_sizes":[],"default_left":[0,0,0,0,0,0,0,0,0,0,0,0,0,0,0,0,0],"id":74,"left_children":[1,3,-1,5,7,9,11,13,15,-1,-1,-1,-1,-1,-1,-1,-1],"loss_changes":[6.985683E7,9.159603E7,0E0,1.0465713E8,1.6693309E8,1.710097E8,6.390519E7,9.899269E7,4.76256E5,0E0,0E0,0E0,0E0,0E0,0E0,0E0,0E0],"parents":[2147483647,0,0,1,1,3,3,4,4,5,5,6,6,7,7,8,8],"right_children":[2,4,-1,6,8,10,12,14,16,-1,-1,-1,-1,-1,-1,-1,-1],"split_conditions":[1.1E1,7E0,-5.416206E2,5E0,2.022E3,2.021E3,6E0,2.02E3,9E0,-4.5023615E2,5.9733997E2,-9.8349335E2,1.4887346E1,7.3898694E2,-2.2352191E2,1.2067957E3,1.1122434E3],"split_indices":[1,1,0,1,2,2,1,2,1,0,0,0,0,0,0,0,0],"split_type":[0,0,0,0,0,0,0,0,0,0,0,0,0,0,0,0,0],"sum_hessian":[3.3E1,3E1,3E0,1.7E1,1.3E1,1.2E1,5E0,9E0,4E0,5E0,7E0,3E0,2E0,3E0,6E0,2E0,2E0],"tree_param":{"num_deleted":"0","num_feature":"3","num_nodes":"17","size_leaf_vector":"1"}},{"base_weights":[4.6799866E2,1.3805706E3,-5.0074136E3,-2.5766284E2,3.6740935E3,-6.3143085E2,-7.386956E2,1.442598E3,-8.8816284E2,1.2462053E3,7.3159023E3,6.2671045E2,3.63559E1,3.6072385E2,-2.099657E2,1.0416969E3,9.6007745E2],"categories":[],"categories_nodes":[],"categories_segments":[],"categories_sizes":[],"default_left":[0,0,0,0,0,0,0,0,0,0,0,0,0,0,0,0,0],"id":75,"left_children":[1,3,5,7,9,-1,-1,11,-1,13,15,-1,-1,-1,-1,-1,-1],"loss_changes":[1.3990803E8,9.017592E7,6.14232E5,1.4839851E8,8.841902E7,0E0,0E0,4.0626332E7,0E0,2.3200796E7,3.5488E5,0E0,0E0,0E0,0E0,0E0,0E0],"parents":[2147483647,0,0,1,1,2,2,3,3,4,4,7,7,9,9,10,10],"right_children":[2,4,6,8,10,-1,-1,12,-1,14,16,-1,-1,-1,-1,-1,-1],"split_conditions":[1.1E1,7E0,2.02E3,2.022E3,2.022E3,-6.3143085E2,-7.386956E2,3E0,-8.8816284E2,2.021E3,9E0,6.2671045E2,3.63559E1,3.6072385E2,-2.099657E2,1.0416969E3,9.6007745E2],"split_indices":[1,1,2,2,2,0,0,1,0,2,1,0,0,0,0,0,0],"split_type":[0,0,0,0,0,0,0,0,0,0,0,0,0,0,0,0,0],"sum_hessian":[2.8E1,2.4E1,4E0,1.4E1,1E1,2E0,2E0,1.1E1,3E0,6E0,4E0,3E0,8E0,4E0,2E0,2E0,2E0],"tree_param":{"num_deleted":"0","num_feature":"3","num_nodes":"17","size_leaf_vector":"1"}},{"base_weights":[1.3562482E3,5.4270347E3,-3.88378E2,5.874406E2,1.1476495E4,-1.3648546E3,3.7616343E3,4.773331E2,-5.150784E2,1.2252634E3,1.9149308E3,1.4454607E2,-6.270384E3,8.660286E2,1.6322829E2,-5.115006E2,2.5589868E2,6.3829376E2,-2.3539937E3],"categories":[],"categories_nodes":[],"categories_segments":[],"categories_sizes":[],"default_left":[0,0,0,0,0,0,0,0,0,0,0,0,0,0,0,0,0,0,0],"id":76,"left_children":[1,3,5,7,9,11,13,-1,-1,-1,-1,15,17,-1,-1,-1,-1,-1,-1],"loss_changes":[2.1306021E8,2.6349282E8,8.510037E7,6.3143664E7,2.5409792E7,1.2587512E8,2.6389116E7,0E0,0E0,0E0,0E0,8.712946E7,4.7837837E8,0E0,0E0,0E0,0E0,0E0,0E0],"parents":[2147483647,0,0,1,1,2,2,3,3,4,4,5,5,6,6,11,11,12,12],"right_children":[2,4,6,8,10,12,14,-1,-1,-1,-1,16,18,-1,-1,-1,-1,-1,-1],"split_conditions":[2.05E1,5.75E0,3.85E1,2.2E0,2.021E3,3.375E1,2.021E3,4.773331E2,-5.150784E2,1.2252634E3,1.9149308E3,2.325E1,2.022E3,8.660286E2,1.6322829E2,-5.115006E2,2.5589868E2,6.3829376E2,-2.3539937E3],"split_indices":[0,0,0,0,2,0,2,0,0,0,0,0,2,0,0,0,0,0,0],"split_type":[0,0,0,0,0,0,0,0,0,0,0,0,0,0,0,0,0,0,0],"sum_hessian":[3E1,9E0,2.1E1,5E0,4E0,1.7E1,4E0,3E0,2E0,2E0,2E0,1.3E1,4E0,2E0,2E0,4E0,9E0,2E0,2E0],"tree_param":{"num_deleted":"0","num_feature":"3","num_nodes":"19","size_leaf_vector":"1"}},{"base_weights":[1.500652E3,3.6136432E2,6.7413535E3,3.6242107E3,-2.148519E3,-2.9340164E2,1.732744E3,-2.3570511E2,5.9158105E3,6.0550726E2,-1.5498645E3,3.5979675E1,1.8404915E3,3.366192E2,-2.9782928E2],"categories":[],"categories_nodes":[],"categories_segments":[],"categories_sizes":[],"default_left":[0,0,0,0,0,0,0,0,0,0,0,0,0,0,0],"id":77,"left_children":[1,3,5,7,9,-1,-1,-1,11,13,-1,-1,-1,-1,-1],"loss_changes":[1.6717875E8,1.883557E8,2.6320014E8,1.22533864E8,3.2866733E8,0E0,0E0,0E0,2.9823968E8,5.161395E7,0E0,0E0,0E0,0E0,0E0],"parents":[2147483647,0,0,1,1,2,2,3,3,4,4,8,8,9,9],"right_children":[2,4,6,8,10,-1,-1,-1,12,14,-1,-1,-1,-1,-1],"split_conditions":[1E1,5E0,2.021E3,2E0,2.022E3,-2.9340164E2,1.732744E3,-2.3570511E2,2.021E3,2.021E3,-1.5498645E3,3.5979675E1,1.8404915E3,3.366192E2,-2.9782928E2],"split_indices":[1,1,2,1,2,0,0,0,2,2,0,0,0,0,0],"split_type":[0,0,0,0,0,0,0,0,0,0,0,0,0,0,0],"sum_hessian":[2.8E1,2.3E1,5E0,1E1,1.3E1,2E0,3E0,3E0,7E0,1E1,3E0,4E0,3E0,6E0,4E0],"tree_param":{"num_deleted":"0","num_feature":"3","num_nodes":"15","size_leaf_vector":"1"}},{"base_weights":[3.5064432E2,1.6994059E3,-1.6127413E3,5.7381433E2,1.4644298E3,-2.9076727E2,4.896703E3,3.8703146E2,-3.2432117E2,1.1093438E3,2.3049028E2],"categories":[],"categories_nodes":[],"categories_segments":[],"categories_sizes":[],"default_left":[0,0,0,0,0,0,0,0,0,0,0],"id":78,"left_children":[1,3,-1,5,-1,7,9,-1,-1,-1,-1],"loss_changes":[4.911706E8,2.736608E8,0E0,8.9699864E7,0E0,1.2976973E8,4.1266104E7,0E0,0E0,0E0,0E0],"parents":[2147483647,0,0,1,1,3,3,5,5,6,6],"right_children":[2,4,-1,6,-1,8,10,-1,-1,-1,-1],"split_conditions":[3.82E1,3.375E1,-1.6127413E3,2.022E3,1.4644298E3,1.34E1,3.15E1,3.8703146E2,-3.2432117E2,1.1093438E3,2.3049028E2],"split_indices":[0,0,0,2,0,0,0,0,0,0,0],"split_type":[0,0,0,0,0,0,0,0,0,0,0],"sum_hessian":[3E1,2.7E1,3E0,2.4E1,3E0,2E1,4E0,8E0,1.2E1,2E0,2E0],"tree_param":{"num_deleted":"0","num_feature":"3","num_nodes":"11","size_leaf_vector":"1"}},{"base_weights":[9.7408856E2,2.9314485E3,-4.5932817E0,-1.003306E2,4.502076E3,-5.0497207E3,1.6771201E3,5.177548E2,1.3427218E3,-3.8855217E1,-1.668844E3,1.3235055E3,4.4681717E2,7.105878E2,-5.689199E2,2.8642142E2,-7.9678696E1],"categories":[],"categories_nodes":[],"categories_segments":[],"categories_sizes":[],"default_left":[0,0,0,0,0,0,0,0,0,0,0,0,0,0,0,0,0],"id":79,"left_children":[1,3,5,-1,7,9,11,13,-1,-1,-1,-1,15,-1,-1,-1,-1],"loss_changes":[5.7469024E7,5.7560584E7,1.696895E8,0E0,1.4816422E8,1.70339E8,1.4757904E8,8.746843E7,0E0,0E0,0E0,0E0,2.203328E7,0E0,0E0,0E0,0E0],"parents":[2147483647,0,0,1,1,2,2,4,4,5,5,6,6,7,7,12,12],"right_children":[2,4,6,-1,8,10,12,14,-1,-1,-1,-1,16,-1,-1,-1,-1],"split_conditions":[5E0,2E0,7E0,-1.003306E2,2.021E3,2.022E3,8E0,4E0,1.3427218E3,-3.8855217E1,-1.668844E3,1.3235055E3,1E1,7.105878E2,-5.689199E2,2.8642142E2,-7.9678696E1],"split_indices":[1,1,1,0,2,2,1,1,0,0,0,0,1,0,0,0,0],"split_type":[0,0,0,0,0,0,0,0,0,0,0,0,0,0,0,0,0],"sum_hessian":[3E1,1E1,2E1,3E0,7E0,5E0,1.5E1,4E0,3E0,3E0,2E0,2E0,1.3E1,2E0,2E0,5E0,8E0],"tree_param":{"num_deleted":"0","num_feature":"3","num_nodes":"17","size_leaf_vector":"1"}},{"base_weights":[-6.702717E1,5.3302515E2,-1.1584678E3,3.060541E3,-8.7115204E2,6.954858E2,1.1736919E3,1.2440195E3,-6.3705815E3,-5.716094E2,5.9521936E2,-3.7521368E2,6.376877E2,-1.7680317E3,-2.7390848E2],"categories":[],"categories_nodes":[],"categories_segments":[],"categories_sizes":[],"default_left":[0,0,0,0,0,0,0,0,0,0,0,0,0,0,0],"id":80,"left_children":[1,3,-1,5,7,9,-1,11,13,-1,-1,-1,-1,-1,-1],"loss_changes":[1.5122518E8,9.937437E7,0E0,1.3051386E8,2.0938066E8,1.2469851E8,0E0,1.770936E8,1.4312536E8,0E0,0E0,0E0,0E0,0E0,0E0],"parents":[2147483647,0,0,1,1,3,3,4,4,5,5,7,7,8,8],"right_children":[2,4,-1,6,8,10,-1,12,14,-1,-1,-1,-1,-1,-1],"split_conditions":[5.675E1,5E0,-1.1584678E3,4E0,3E1,3.225E1,1.1736919E3,9E0,3.375E1,-5.716094E2,5.9521936E2,-3.7521368E2,6.376877E2,-1.7680317E3,-2.7390848E2],"split_indices":[0,1,0,1,0,0,0,1,0,0,0,0,0,0,0],"split_type":[0,0,0,0,0,0,0,0,0,0,0,0,0,0,0],"sum_hessian":[3E1,2.8E1,2E0,1E1,1.8E1,7E0,3E0,1.3E1,5E0,3E0,4E0,6E0,7E0,2E0,3E0],"tree_param":{"num_deleted":"0","num_feature":"3","num_nodes":"15","size_leaf_vector":"1"}},{"base_weights":[-4.2857365E1,2.0055942E3,-2.603421E3,-2.7522446E2,2.3026262E3,-6.0989688E3,4.3876704E3,-1.6199924E3,8.7743506E2,-1.4912252E3,-1.0706683E4,8.5251874E2,3.4803394E2,6.310818E1,-7.9110724E2,2.7408224E2,-2.650565E2,-5.6996564E2,1.6193715E2,-1.5753679E3,-1.3541903E3],"categories":[],"categories_nodes":[],"categories_segments":[],"categories_sizes":[],"default_left":[0,0,0,0,0,0,0,0,0,0,0,0,0,0,0,0,0,0,0,0,0],"id":81,"left_children":[1,3,5,7,-1,9,11,13,15,17,19,-1,-1,-1,-1,-1,-1,-1,-1,-1,-1],"loss_changes":[1.4162034E8,5.0720397E8,2.9325334E8,2.0150832E7,0E0,1.698494E8,1.3597208E7,5.19802E7,2.2185416E7,2.8620132E7,2.611392E6,0E0,0E0,0E0,0E0,0E0,0E0,0E0,0E0,0E0,0E0],"parents":[2147483647,0,0,1,1,2,2,3,3,5,5,6,6,7,7,8,8,9,9,10,10],"right_children":[2,4,6,8,-1,10,12,14,16,18,20,-1,-1,-1,-1,-1,-1,-1,-1,-1,-1],"split_conditions":[3.1E1,2.022E3,3.85E1,1.1E1,2.3026262E3,2.022E3,2.021E3,2.2E0,2.3E1,3.225E1,3.375E1,8.5251874E2,3.4803394E2,6.310818E1,-7.9110724E2,2.7408224E2,-2.650565E2,-5.6996564E2,1.6193715E2,-1.5753679E3,-1.3541903E3],"split_indices":[0,2,0,0,0,2,2,0,0,0,0,0,0,0,0,0,0,0,0,0,0],"split_type":[0,0,0,0,0,0,0,0,0,0,0,0,0,0,0,0,0,0,0,0,0],"sum_hessian":[2.7E1,1.5E1,1.2E1,1.3E1,2E0,8E0,4E0,6E0,7E0,4E0,4E0,2E0,2E0,4E0,2E0,5E0,2E0,2E0,2E0,2E0,2E0],"tree_param":{"num_deleted":"0","num_feature":"3","num_nodes":"21","size_leaf_vector":"1"}},{"base_weights":[-8.0013715E2,2.6720258E2,-5.923349E3,1.9977747E3,-1.7780188E3,3.4496854E2,-1.5806033E3,6.6266864E2,3.555391E3,1.8586865E2,-2.9542456E3,-4.7370728E1,2.7470013E2,1.2327621E3,1.1323687E2,-6.1474255E2,-5.321875E1],"categories":[],"categories_nodes":[],"categories_segments":[],"categories_sizes":[],"default_left":[0,0,0,0,0,0,0,0,0,0,0,0,0,0,0,0,0],"id":82,"left_children":[1,3,5,7,9,-1,-1,11,13,-1,15,-1,-1,-1,-1,-1,-1],"loss_changes":[1.5857814E8,8.494581E7,2.3771928E8,2.7034576E7,4.058309E7,0E0,0E0,9.500566E6,8.928329E7,0E0,3.1586312E7,0E0,0E0,0E0,0E0,0E0,0E0],"parents":[2147483647,0,0,1,1,2,2,3,3,4,4,7,7,8,8,10,10],"right_children":[2,4,6,8,10,-1,-1,12,14,-1,16,-1,-1,-1,-1,-1,-1],"split_conditions":[2.022E3,8E0,4E0,5E0,2.02E3,3.4496854E2,-1.5806033E3,2.021E3,6E0,1.8586865E2,1.1E1,-4.7370728E1,2.7470013E2,1.2327621E3,1.1323687E2,-6.1474255E2,-5.321875E1],"split_indices":[2,1,1,1,2,0,0,2,1,0,1,0,0,0,0,0,0],"split_type":[0,0,0,0,0,0,0,0,0,0,0,0,0,0,0,0,0],"sum_hessian":[2.9E1,2.4E1,5E0,1.3E1,1.1E1,2E0,3E0,7E0,6E0,3E0,8E0,4E0,3E0,2E0,4E0,5E0,3E0],"tree_param":{"num_deleted":"0","num_feature":"3","num_nodes":"17","size_leaf_vector":"1"}},{"base_weights":[2.6370513E3,4.563454E3,-3.7842861E3,1.4888079E3,1.0273492E4,-1.6472538E3,-1.1024589E3,4.180305E2,1.0093907E3,2.203847E3,7.939332E3,7.264117E2,-1.1771326E3,7.642118E2,-9.9926094E1,1.2667245E2,1.7258529E3],"categories":[],"categories_nodes":[],"categories_segments":[],"categories_sizes":[],"default_left":[0,0,0,0,0,0,0,0,0,0,0,0,0,0,0,0,0],"id":83,"left_children":[1,3,5,7,9,11,-1,13,-1,-1,15,-1,-1,-1,-1,-1,-1],"loss_changes":[3.2162275E8,3.51127E8,5.4802056E7,8.197856E7,9.534086E7,1.9359378E8,0E0,6.528461E7,0E0,0E0,1.6396E8,0E0,0E0,0E0,0E0,0E0,0E0],"parents":[2147483647,0,0,1,1,2,2,3,3,4,4,5,5,7,7,10,10],"right_children":[2,4,6,8,10,12,-1,14,-1,-1,16,-1,-1,-1,-1,-1,-1],"split_conditions":[3.725E1,2.022E3,5.675E1,3.175E1,3E1,2.021E3,-1.1024589E3,2.2E0,1.0093907E3,2.203847E3,3.32E1,7.264117E2,-1.1771326E3,7.642118E2,-9.9926094E1,1.2667245E2,1.7258529E3],"split_indices":[0,2,0,0,0,2,0,0,0,0,0,0,0,0,0,0,0],"split_type":[0,0,0,0,0,0,0,0,0,0,0,0,0,0,0,0,0],"sum_hessian":[2.6E1,2E1,6E0,1.3E1,7E0,4E0,2E0,1.1E1,2E0,2E0,5E0,2E0,2E0,2E0,9E0,2E0,3E0],"tree_param":{"num_deleted":"0","num_feature":"3","num_nodes":"17","size_leaf_vector":"1"}},{"base_weights":[9.597322E2,-6.1430454E1,3.4559023E3,-1.3198451E3,5.6014146E3,8.9935625E3,-1.0424143E3,1.9876984E3,-3.4246453E3,5.697781E2,9.628788E2,1.9023408E3,8.9444226E2,6.997496E1,7.768399E2,-1.5509544E2,-7.2971924E2],"categories":[],"categories_nodes":[],"categories_segments":[],"categories_sizes":[],"default_left":[0,0,0,0,0,0,0,0,0,0,0,0,0,0,0,0,0],"id":84,"left_children":[1,3,5,7,9,11,-1,13,15,-1,-1,-1,-1,-1,-1,-1,-1],"loss_changes":[7.901892E7,1.5677683E8,5.51984E8,1.2531118E8,8.255448E6,7.23649E7,0E0,3.8136316E7,4.811237E7,0E0,0E0,0E0,0E0,0E0,0E0,0E0,0E0],"parents":[2147483647,0,0,1,1,2,2,3,3,4,4,5,5,7,7,8,8],"right_children":[2,4,6,8,10,12,-1,14,16,-1,-1,-1,-1,-1,-1,-1,-1],"split_conditions":[2.022E3,3.225E1,3.525E1,1.34E1,2.021E3,3E1,-1.0424143E3,1.1E1,2.02E3,5.697781E2,9.628788E2,1.9023408E3,8.9444226E2,6.997496E1,7.768399E2,-1.5509544E2,-7.2971924E2],"split_indices":[2,0,0,0,2,0,0,0,2,0,0,0,0,0,0,0,0],"split_type":[0,0,0,0,0,0,0,0,0,0,0,0,0,0,0,0,0],"sum_hessian":[3.1E1,2.2E1,9E0,1.8E1,4E0,6E0,3E0,7E0,1.1E1,2E0,2E0,2E0,4E0,5E0,2E0,5E0,6E0],"tree_param":{"num_deleted":"0","num_feature":"3","num_nodes":"17","size_leaf_vector":"1"}},{"base_weights":[-8.3662305E2,6.565423E2,-3.3750005E3,-1.4056998E3,5.6059097E3,-7.820584E3,1.0705958E3,2.146763E2,-1.3007261E3,1.642084E3,1.8351581E2,-4.7208508E2,-1.4685006E3,7.805286E2,-8.046195E2,-2.9988022E2,1.7047763E2],"categories":[],"categories_nodes":[],"categories_segments":[],"categories_sizes":[],"default_left":[0,0,0,0,0,0,0,0,0,0,0,0,0,0,0,0,0],"id":85,"left_children":[1,3,5,7,9,11,13,15,-1,-1,-1,-1,-1,-1,-1,-1,-1],"loss_changes":[1.0233599E8,1.7351584E8,1.9763326E8,1.5753595E8,1.3639474E8,6.3653024E7,1.6109642E8,2.482217E7,0E0,0E0,0E0,0E0,0E0,0E0,0E0,0E0,0E0],"parents":[2147483647,0,0,1,1,2,2,3,3,4,4,5,5,6,6,7,7],"right_children":[2,4,6,8,10,12,14,16,-1,-1,-1,-1,-1,-1,-1,-1,-1],"split_conditions":[3.175E1,2.325E1,3.62E1,9E0,3E1,3.32E1,4.575E1,5E0,-1.3007261E3,1.642084E3,1.8351581E2,-4.7208508E2,-1.4685006E3,7.805286E2,-8.046195E2,-2.9988022E2,1.7047763E2],"split_indices":[0,0,0,1,0,0,0,1,0,0,0,0,0,0,0,0,0],"split_type":[0,0,0,0,0,0,0,0,0,0,0,0,0,0,0,0,0],"sum_hessian":[2.7E1,1.7E1,1E1,1.2E1,5E0,5E0,5E0,1E1,2E0,2E0,3E0,2E0,3E0,3E0,2E0,3E0,7E0],"tree_param":{"num_deleted":"0","num_feature":"3","num_nodes":"17","size_leaf_vector":"1"}},{"base_weights":[-2.5085745E2,-9.060471E2,4.171656E3,8.68721E2,-1.9500281E3,6.7143364E0,1.1347324E3,-3.8499875E2,4.5515415E3,-1.4953282E3,-7.526959E2,1.2984554E3,1.7218849E2,-1.1966047E1,-6.9454E2],"categories":[],"categories_nodes":[],"categories_segments":[],"categories_sizes":[],"default_left":[0,0,0,0,0,0,0,0,0,0,0,0,0,0,0],"id":86,"left_children":[1,3,5,7,9,-1,-1,-1,11,-1,13,-1,-1,-1,-1],"loss_changes":[8.982526E7,5.0026324E7,6.798224E7,1.3563232E8,1.827827E8,0E0,0E0,0E0,8.132549E7,0E0,4.3146584E7,0E0,0E0,0E0,0E0],"parents":[2147483647,0,0,1,1,2,2,3,3,4,4,8,8,10,10],"right_children":[2,4,6,8,10,-1,-1,-1,12,-1,14,-1,-1,-1,-1],"split_conditions":[2.022E3,1.34E1,3.32E1,3.25E0,2.15E1,6.7143364E0,1.1347324E3,-3.8499875E2,8.8E0,-1.4953282E3,5E1,1.2984554E3,1.7218849E2,-1.1966047E1,-6.9454E2],"split_indices":[2,0,0,0,0,0,0,0,0,0,0,0,0,0,0],"split_type":[0,0,0,0,0,0,0,0,0,0,0,0,0,0,0],"sum_hessian":[3.1E1,2.7E1,4E0,1E1,1.7E1,2E0,2E0,5E0,5E0,2E0,1.5E1,2E0,3E0,1.3E1,2E0],"tree_param":{"num_deleted":"0","num_feature":"3","num_nodes":"15","size_leaf_vector":"1"}},{"base_weights":[1.1063945E3,