{"learner":{"attributes":{"scikit_learn":"{\"_estimator_type\": \"regressor\"}"},"feature_names":["valor_mes_anterior","Mes","Año"],"feature_types":["float","int","int"],"gradient_booster":{"gbtree":{"model":{"gbtree_model_param":{"num_parallel_tree":"1","num_trees":"273"},"iteration_indptr":[0,1,2,3,4,5,6,7,8,9,10,11,12,13,14,15,16,17,18,19,20,21,22,23,24,25,26,27,28,29,30,31,32,33,34,35,36,37,38,39,40,41,42,43,44,45,46,47,48,49,50,51,52,53,54,55,56,57,58,59,60,61,62,63,64,65,66,67,68,69,70,71,72,73,74,75,76,77,78,79,80,81,82,83,84,85,86,87,88,89,90,91,92,93,94,95,96,97,98,99,100,101,102,103,104,105,106,107,108,109,110,111,112,113,114,115,116,117,118,119,120,121,122,123,124,125,126,127,128,129,130,131,132,133,134,135,136,137,138,139,140,141,142,143,144,145,146,147,148,149,150,151,152,153,154,155,156,157,158,159,160,161,162,163,164,165,166,167,168,169,170,171,172,173,174,175,176,177,178,179,180,181,182,183,184,185,186,187,188,189,190,191,192,193,194,195,196,197,198,199,200,201,202,203,204,205,206,207,208,209,210,211,212,213,214,215,216,217,218,219,220,221,222,223,224,225,226,227,228,229,230,231,232,233,234,235,236,237,238,239,240,241,242,243,244,245,246,247,248,249,250,251,252,253,254,255,256,257,258,259,260,261,262,263,264,265,266,267,268,269,270,271,272,273],"tree_info":[0,0,0,0,0,0,0,0,0,0,0,0,0,0,0,0,0,0,0,0,0,0,0,0,0,0,0,0,0,0,0,0,0,0,0,0,0,0,0,0,0,0,0,0,0,0,0,0,0,0,0,0,0,0,0,0,0,0,0,0,0,0,0,0,0,0,0,0,0,0,0,0,0,0,0,0,0,0,0,0,0,0,0,0,0,0,0,0,0,0,0,0,0,0,0,0,0,0,0,0,0,0,0,0,0,0,0,0,0,0,0,0,0,0,0,0,0,0,0,0,0,0,0,0,0,0,0,0,0,0,0,0,0,0,0,0,0,0,0,0,0,0,0,0,0,0,0,0,0,0,0,0,0,0,0,0,0,0,0,0,0,0,0,0,0,0,0,0,0,0,0,0,0,0,0,0,0,0,0,0,0,0,0,0,0,0,0,0,0,0,0,0,0,0,0,0,0,0,0,0,0,0,0,0,0,0,0,0,0,0,0,0,0,0,0,0,0,0,0,0,0,0,0,0,0,0,0,0,0,0,0,0,0,0,0,0,0,0,0,0,0,0,0,0,0,0,0,0,0,0,0,0,0,0,0,0,0,0,0,0,0,0,0,0,0,0,0,0,0,0,0,0,0],"trees":[{"base_weights":[-8.810968E3,-1.3604034E5,5.177446E4,-1.0768955E4,-1.5685284E5,2.8066257E3,8.850033E4,-1.6240139E5,-1.7601725E4,8.546008E3,-1.6225906E4,1.0376573E5,5.7969477E4,-1.8862936E4,-2.0745426E4,-2.6633717E4,-2.8915115E2,7.697098E4,2.2669775E4,1.2496753E4,1.7759136E3,-4.1766406E3,-2.3808474E3,7.0108926E3,1.194014E4],"categories":[],"categories_nodes":[],"categories_segments":[],"categories_sizes":[],"default_left":[0,0,0,0,0,0,0,0,0,0,0,0,0,0,0,0,0,0,0,0,0,0,0,0,0],"id":0,"left_children":[1,3,5,-1,7,9,11,13,-1,-1,15,17,19,-1,-1,21,-1,23,-1,-1,-1,-1,-1,-1,-1],"loss_changes":[2.389557E11,1.0107044E10,3.7766115E10,0E0,5.387223E8,1.141047E10,5.5927685E9,2.8053504E8,0E0,0E0,1.0110111E9,1.7230922E10,7.584125E9,0E0,0E0,2.1279283E8,0E0,2.404905E9,0E0,0E0,0E0,0E0,0E0,0E0,0E0],"parents":[2147483647,0,0,1,1,2,2,4,4,5,5,6,6,7,7,10,10,11,11,12,12,15,15,17,17],"right_children":[2,4,6,-1,8,10,12,14,-1,-1,16,18,20,-1,-1,22,-1,24,-1,-1,-1,-1,-1,-1,-1],"split_conditions":[2.05E1,5E0,7E0,-1.0768955E4,8.8E0,2E0,1E1,7E0,-1.7601725E4,8.546008E3,3.225E1,3.12E1,3.32E1,-1.8862936E4,-2.0745426E4,2.3E1,-2.8915115E2,9E0,2.2669775E4,1.2496753E4,1.7759136E3,-4.1766406E3,-2.3808474E3,7.0108926E3,1.194014E4],"split_indices":[0,1,1,0,0,1,1,1,0,0,0,0,0,0,0,0,0,1,0,0,0,0,0,0,0],"split_type":[0,0,0,0,0,0,0,0,0,0,0,0,0,0,0,0,0,0,0,0,0,0,0,0,0],"sum_hessian":[3.1E1,1E1,2.1E1,3E0,7E0,9E0,1.2E1,5E0,2E0,2E0,7E0,8E0,4E0,2E0,3E0,4E0,3E0,6E0,2E0,2E0,2E0,2E0,2E0,3E0,3E0],"tree_param":{"num_deleted":"0","num_feature":"3","num_nodes":"25","size_leaf_vector":"1"}},{"base_weights":[-1.1159122E4,-1.0483028E5,5.5748855E4,-1.7905842E3,-1.2740155E5,1.7670404E4,9.382728E4,-1.4593703E5,-8.838327E3,5.199007E3,-7.510072E2,1.1619433E5,4.666864E3,-1.8227121E4,-1.744251E4,-2.309387E3,2.1244814E3,1.045865E4,2.007229E4],"categories":[],"categories_nodes":[],"categories_segments":[],"categories_sizes":[],"default_left":[0,0,0,0,0,0,0,0,0,0,0,0,0,0,0,0,0,0,0],"id":1,"left_children":[1,3,5,-1,7,9,11,13,-1,-1,15,17,-1,-1,-1,-1,-1,-1,-1],"loss_changes":[1.5041638E11,2.0378493E10,2.0299543E10,0E0,8.2455183E9,3.16725E9,8.754987E9,5.409997E7,0E0,0E0,1.2972214E9,7.3181716E9,0E0,0E0,0E0,0E0,0E0,0E0,0E0],"parents":[2147483647,0,0,1,1,2,2,4,4,5,5,6,6,7,7,10,10,11,11],"right_children":[2,4,6,-1,8,10,12,14,-1,-1,16,18,-1,-1,-1,-1,-1,-1,-1],"split_conditions":[2.275E1,2.02E3,2.022E3,-1.7905842E3,1.12E1,2.02E3,3.62E1,4E0,-8.838327E3,5.199007E3,3.12E1,3.15E1,4.666864E3,-1.8227121E4,-1.744251E4,-2.309387E3,2.1244814E3,1.045865E4,2.007229E4],"split_indices":[0,2,2,0,0,2,0,0,0,0,0,0,0,0,0,0,0,0,0],"split_type":[0,0,0,0,0,0,0,0,0,0,0,0,0,0,0,0,0,0,0],"sum_hessian":[2.4E1,1E1,1.4E1,2E0,8E0,7E0,7E0,6E0,2E0,3E0,4E0,5E0,2E0,4E0,2E0,2E0,2E0,3E0,2E0],"tree_param":{"num_deleted":"0","num_feature":"3","num_nodes":"19","size_leaf_vector":"1"}},{"base_weights":[1.1258091E4,-6.410921E4,6.3435457E4,-2.3921307E4,-9.62595E4,8.2584875E4,-4.874443E1,-1.5701553E3,-4.3195107E3,-1.6098173E4,-5.4778154E3,1.8792807E4,6.5066895E4,2.1769457E4,1.0836429E5,-6.2410254E2,5.9839614E3,9.079086E3,1.760129E4],"categories":[],"categories_nodes":[],"categories_segments":[],"categories_sizes":[],"default_left":[0,0,0,0,0,0,0,0,0,0,0,0,0,0,0,0,0,0,0],"id":2,"left_children":[1,3,5,7,9,11,-1,-1,-1,-1,-1,-1,13,15,17,-1,-1,-1,-1],"loss_changes":[8.65143E10,1.162847E10,1.589035E10,4.987794E8,8.931135E9,1.2275122E10,0E0,0E0,0E0,0E0,0E0,0E0,1.499733E10,2.881355E9,4.792353E9,0E0,0E0,0E0,0E0],"parents":[2147483647,0,0,1,1,2,2,3,3,4,4,5,5,12,12,13,13,14,14],"right_children":[2,4,6,8,10,12,-1,-1,-1,-1,-1,-1,14,16,18,-1,-1,-1,-1],"split_conditions":[2.6E1,2.02E3,3.725E1,2.275E1,8.8E0,2.021E3,-4.874443E1,-1.5701553E3,-4.3195107E3,-1.6098173E4,-5.4778154E3,1.8792807E4,2.022E3,3.15E1,3.32E1,-6.2410254E2,5.9839614E3,9.079086E3,1.760129E4],"split_indices":[0,2,0,0,0,2,0,0,0,0,0,0,2,0,0,0,0,0,0],"split_type":[0,0,0,0,0,0,0,0,0,0,0,0,0,0,0,0,0,0,0],"sum_hessian":[2.2E1,9E0,1.3E1,4E0,5E0,1E1,3E0,2E0,2E0,3E0,2E0,2E0,8E0,4E0,4E0,2E0,2E0,2E0,2E0],"tree_param":{"num_deleted":"0","num_feature":"3","num_nodes":"19","size_leaf_vector":"1"}},{"base_weights":[-3.9288997E3,-3.0146797E4,5.141999E4,3.7106035E4,-6.1186566E4,1.389758E4,9.832295E4,-4.0034575E3,1.3139337E4,4.934205E3,-9.1566914E4,1.398005E4,-6.4686006E3,1.6246691E4,7.9614053E3,-1.1812838E5,-5.1724656E4,-1.5463177E4,-1.1438771E5,-7.063668E3,-5.6714614E3,-1.4157783E4,-1.4005619E4],"categories":[],"categories_nodes":[],"categories_segments":[],"categories_sizes":[],"default_left":[0,0,0,0,0,0,0,0,0,0,0,0,0,0,0,0,0,0,0,0,0,0,0],"id":3,"left_children":[1,3,5,7,9,11,13,-1,-1,-1,15,-1,-1,-1,-1,17,19,-1,21,-1,-1,-1,-1],"loss_changes":[4.0631693E10,3.9662748E10,1.5839209E10,2.9087255E10,3.9995183E10,3.3109981E10,4.529615E9,0E0,0E0,0E0,1.058268E10,0E0,0E0,0E0,0E0,1.6786227E8,1.2788736E8,0E0,1.490944E6,0E0,0E0,0E0,0E0],"parents":[2147483647,0,0,1,1,2,2,3,3,4,4,5,5,6,6,10,10,15,15,16,16,18,18],"right_children":[2,4,6,8,10,12,14,-1,-1,-1,16,-1,-1,-1,-1,18,20,-1,22,-1,-1,-1,-1],"split_conditions":[2.022E3,2.02E3,7E0,6E0,3E0,4E0,1E1,-4.0034575E3,1.3139337E4,4.934205E3,2.021E3,1.398005E4,-6.4686006E3,1.6246691E4,7.9614053E3,6E0,5E0,-1.5463177E4,9E0,-7.063668E3,-5.6714614E3,-1.4157783E4,-1.4005619E4],"split_indices":[2,2,1,1,1,1,1,0,0,0,2,0,0,0,0,1,1,0,1,0,0,0,0],"split_type":[0,0,0,0,0,0,0,0,0,0,0,0,0,0,0,0,0,0,0,0,0,0,0],"sum_hessian":[2.8E1,1.9E1,9E0,6E0,1.3E1,5E0,4E0,3E0,3E0,3E0,1E1,2E0,3E0,2E0,2E0,6E0,4E0,2E0,4E0,2E0,2E0,2E0,2E0],"tree_param":{"num_deleted":"0","num_feature":"3","num_nodes":"23","size_leaf_vector":"1"}},{"base_weights":[-1.1167511E3,-3.0124129E4,8.590535E4,8.774751E3,-5.4877957E4,1.5403681E4,6.629483E4,-3.0344314E4,7.5012227E3,-9.640494E4,-5.045555E3,4.9548926E3,1.136756E4,-8.840165E2,-6.587058E3,-1.1027119E4,-1.2288342E4,-3.6728274E3,3.9564058E3],"categories":[],"categories_nodes":[],"categories_segments":[],"categories_sizes":[],"default_left":[0,0,0,0,0,0,0,0,0,0,0,0,0,0,0,0,0,0,0],"id":4,"left_children":[1,3,5,7,9,-1,11,13,-1,15,17,-1,-1,-1,-1,-1,-1,-1,-1],"loss_changes":[6.058281E10,1.7332134E10,4.614832E9,1.4282817E10,2.2763287E10,0E0,2.7134607E9,2.1461548E9,0E0,1.3992346E8,4.6088376E9,0E0,0E0,0E0,0E0,0E0,0E0,0E0,0E0],"parents":[2147483647,0,0,1,1,2,2,3,3,4,4,6,6,7,7,9,9,10,10],"right_children":[2,4,6,8,10,-1,12,14,-1,16,18,-1,-1,-1,-1,-1,-1,-1,-1],"split_conditions":[2.022E3,2.02E3,4E0,7E0,2.021E3,1.5403681E4,9E0,5E0,7.5012227E3,5E0,6E0,4.9548926E3,1.136756E4,-8.840165E2,-6.587058E3,-1.1027119E4,-1.2288342E4,-3.6728274E3,3.9564058E3],"split_indices":[2,2,1,1,2,0,1,1,0,1,1,0,0,0,0,0,0,0,0],"split_type":[0,0,0,0,0,0,0,0,0,0,0,0,0,0,0,0,0,0,0],"sum_hessian":[2.4E1,1.8E1,6E0,7E0,1.1E1,2E0,4E0,4E0,3E0,6E0,5E0,2E0,2E0,2E0,2E0,2E0,4E0,3E0,2E0],"tree_param":{"num_deleted":"0","num_feature":"3","num_nodes":"19","size_leaf_vector":"1"}},{"base_weights":[-8.088068E3,-5.80901E4,5.1005246E4,-7.687162E4,-2.8039652E4,2.5836273E2,6.934519E4,-5.663826E3,-8.7159445E4,-6.1326035E3,5.6934784E2,1.8602951E4,4.208873E4,-8.761368E4,-1.0617919E4,2.254557E4,9.993053E3,-1.0802665E4,-1.0768703E4,7.0656826E3,-1.5147368E3],"categories":[],"categories_nodes":[],"categories_segments":[],"categories_sizes":[],"default_left":[0,0,0,0,0,0,0,0,0,0,0,0,0,0,0,0,0,0,0,0,0],"id":5,"left_children":[1,3,5,7,9,-1,11,-1,13,-1,-1,-1,15,17,-1,19,-1,-1,-1,-1,-1],"loss_changes":[7.0914875E10,7.3371034E9,9.866371E9,2.5401385E9,3.5565747E9,0E0,1.7829892E10,0E0,2.453504E6,0E0,0E0,0E0,4.583209E9,5.5296E4,0E0,4.858088E9,0E0,0E0,0E0,0E0,0E0],"parents":[2147483647,0,0,1,1,2,2,3,3,4,4,6,6,8,8,12,12,13,13,15,15],"right_children":[2,4,6,8,10,-1,12,-1,14,-1,-1,-1,16,18,-1,20,-1,-1,-1,-1,-1],"split_conditions":[2.325E1,1.1E1,5E0,5E0,6E0,2.5836273E2,9E0,-5.663826E3,3.2E0,-6.1326035E3,5.6934784E2,1.8602951E4,3.32E1,8E0,-1.0617919E4,1E1,9.993053E3,-1.0802665E4,-1.0768703E4,7.0656826E3,-1.5147368E3],"split_indices":[0,0,1,1,1,0,1,0,0,0,0,0,0,1,0,1,0,0,0,0,0],"split_type":[0,0,0,0,0,0,0,0,0,0,0,0,0,0,0,0,0,0,0,0,0],"sum_hessian":[2.4E1,1.3E1,1.1E1,8E0,5E0,3E0,8E0,2E0,6E0,3E0,2E0,2E0,6E0,4E0,2E0,4E0,2E0,2E0,2E0,2E0,2E0],"tree_param":{"num_deleted":"0","num_feature":"3","num_nodes":"21","size_leaf_vector":"1"}},{"base_weights":[-1.4984427E4,-5.725209E4,2.728324E4,-6.7063375E4,-3.7629496E4,-3.2491324E4,5.7170523E4,-5.3664985E3,-8.114567E4,-2.0971877E3,-7.167572E3,-2.127789E3,-5.8719014E3,1.44696875E4,3.7047555E4,-9.240814E3,-1.111238E4,6.516176E3,2.9105398E4,1.4505858E3,5.7154556E3],"categories":[],"categories_nodes":[],"categories_segments":[],"categories_sizes":[],"default_left":[0,0,0,0,0,0,0,0,0,0,0,0,0,0,0,0,0,0,0,0,0],"id":6,"left_children":[1,3,5,7,9,11,13,-1,15,-1,-1,-1,-1,-1,17,-1,-1,-1,19,-1,-1],"loss_changes":[4.2877346E10,2.310267E9,2.1438005E10,2.644144E9,1.6964035E9,9.2500634E8,9.718381E9,0E0,2.773381E8,0E0,0E0,0E0,0E0,0E0,7.569275E8,0E0,0E0,0E0,1.2002148E9,0E0,0E0],"parents":[2147483647,0,0,1,1,2,2,3,3,4,4,5,5,6,6,8,8,14,14,18,18],"right_children":[2,4,6,8,10,12,14,-1,16,-1,-1,-1,-1,-1,18,-1,-1,-1,20,-1,-1],"split_conditions":[2.6E1,1.95E1,5E0,2.2E0,2.275E1,3.225E1,8E0,-5.3664985E3,8.8E0,-2.0971877E3,-7.167572E3,-2.127789E3,-5.8719014E3,1.44696875E4,1.1E1,-9.240814E3,-1.111238E4,6.516176E3,1.2E1,1.4505858E3,5.7154556E3],"split_indices":[0,0,1,0,0,0,1,0,0,0,0,0,0,0,1,0,0,0,1,0,0],"split_type":[0,0,0,0,0,0,0,0,0,0,0,0,0,0,0,0,0,0,0,0,0],"sum_hessian":[2.4E1,1.2E1,1.2E1,8E0,4E0,4E0,8E0,3E0,5E0,2E0,2E0,2E0,2E0,2E0,6E0,3E0,2E0,2E0,4E0,2E0,2E0],"tree_param":{"num_deleted":"0","num_feature":"3","num_nodes":"21","size_leaf_vector":"1"}},{"base_weights":[-3.8076501E3,-2.8514297E4,9.090113E4,8.237119E3,-3.7602453E4,7.3951E3,1.0631593E5,-5.834676E4,-2.4836717E4,1.2501997E4,1.3674051E4,-4.730598E3,-7.029841E4,-4.925764E4,3.6543682E3,-8.208819E3,-9.321988E3,-3.6346E4,-1.0037576E4,-1.7175086E4,5.5782915E3,-2.6995198E3,-5.6576133E3,-1.0941141E2,-4.119267E3],"categories":[],"categories_nodes":[],"categories_segments":[],"categories_sizes":[],"default_left":[0,0,0,0,0,0,0,0,0,0,0,0,0,0,0,0,0,0,0,0,0,0,0,0,0],"id":7,"left_children":[1,3,5,-1,7,-1,9,11,13,-1,-1,-1,15,17,19,-1,-1,21,-1,23,-1,-1,-1,-1,-1],"loss_changes":[6.7858174E10,1.994659E10,2.8513812E9,0E0,5.561135E9,0E0,9.061581E7,1.904556E9,9.045124E9,0E0,0E0,0E0,9.81033E7,2.917415E9,5.206394E9,0E0,0E0,6.928686E8,0E0,1.0609759E9,0E0,0E0,0E0,0E0,0E0],"parents":[2147483647,0,0,1,1,2,2,4,4,6,6,7,7,8,8,12,12,13,13,14,14,17,17,19,19],"right_children":[2,4,6,-1,8,-1,10,12,14,-1,-1,-1,16,18,20,-1,-1,22,-1,24,-1,-1,-1,-1,-1],"split_conditions":[3.525E1,2E0,3.725E1,8.237119E3,1.12E1,7.3951E3,5E1,2.2E0,7E0,1.2501997E4,1.3674051E4,-4.730598E3,5.75E0,3.225E1,3.12E1,-8.208819E3,-9.321988E3,2.3E1,-1.0037576E4,2.6E1,5.5782915E3,-2.6995198E3,-5.6576133E3,-1.0941141E2,-4.119267E3],"split_indices":[0,1,0,0,0,0,0,0,1,0,0,0,0,0,0,0,0,0,0,0,0,0,0,0,0],"split_type":[0,0,0,0,0,0,0,0,0,0,0,0,0,0,0,0,0,0,0,0,0,0,0,0,0],"sum_hessian":[2.9E1,2.3E1,6E0,2E0,2.1E1,2E0,4E0,8E0,1.3E1,2E0,2E0,3E0,5E0,7E0,6E0,3E0,2E0,5E0,2E0,4E0,2E0,2E0,3E0,2E0,2E0],"tree_param":{"num_deleted":"0","num_feature":"3","num_nodes":"25","size_leaf_vector":"1"}},{"base_weights":[4.5385044E3,9.630536E3,-7.097036E3,-2.1708248E4,3.3814348E4,4.6993413E3,-4.1513934E4,-1.6345226E3,1.285857E4,2.0263799E4,-3.2536133E3,-5.2829832E4,-3.019801E4,8.676599E2,4.1214907E3,-4.6059175E3,-8.401317E3,-3.612165E3,-3.8228877E3],"categories":[],"categories_nodes":[],"categories_segments":[],"categories_sizes":[],"default_left":[0,0,0,0,0,0,0,0,0,0,0,0,0,0,0,0,0,0,0],"id":8,"left_children":[1,-1,3,5,7,9,11,-1,-1,13,-1,15,17,-1,-1,-1,-1,-1,-1],"loss_changes":[1.8863743E10,0E0,1.1357537E10,7.3222876E9,1.6632279E10,2.907029E9,1.02439424E9,0E0,0E0,6.9861466E8,0E0,9.5051776E8,2.927104E6,0E0,0E0,0E0,0E0,0E0,0E0],"parents":[2147483647,0,0,2,2,3,3,4,4,5,5,6,6,9,9,11,11,12,12],"right_children":[2,-1,4,6,8,10,12,-1,-1,14,-1,16,18,-1,-1,-1,-1,-1,-1],"split_conditions":[3E0,9.630536E3,2.022E3,2.02E3,7E0,9E0,7E0,-1.6345226E3,1.285857E4,5E0,-3.2536133E3,5E0,1E1,8.676599E2,4.1214907E3,-4.6059175E3,-8.401317E3,-3.612165E3,-3.8228877E3],"split_indices":[1,0,2,2,1,1,1,0,0,1,0,1,1,0,0,0,0,0,0],"split_type":[0,0,0,0,0,0,0,0,0,0,0,0,0,0,0,0,0,0,0],"sum_hessian":[2.2E1,3E0,1.9E1,1.4E1,5E0,6E0,8E0,3E0,2E0,4E0,2E0,4E0,4E0,2E0,2E0,2E0,2E0,2E0,2E0],"tree_param":{"num_deleted":"0","num_feature":"3","num_nodes":"19","size_leaf_vector":"1"}},{"base_weights":[7.2434863E3,1.0338724E4,8.485264E2,3.845695E4,-1.4637299E4,-4.8016647E2,7.0224984E4,-5.9254316E4,9.699266E3,1.3997751E4,3.2923452E3,-7.9923496E3,-5.641994E4,-1.0053138E4,4.4265953E4,-6.7074204E3,-7.1837354E3,-3.206471E3,1.941979E3,3.151723E3,7.746999E3,5.128753E2,-3.4740574E1],"categories":[],"categories_nodes":[],"categories_segments":[],"categories_sizes":[],"default_left":[0,0,0,0,0,0,0,0,0,0,0,0,0,0,0,0,0,0,0,0,0,0,0],"id":9,"left_children":[1,-1,3,5,7,-1,9,11,13,-1,-1,-1,15,17,19,-1,-1,-1,21,-1,-1,-1,-1],"loss_changes":[1.2759383E10,0E0,1.3977542E10,9.419287E9,1.8459027E10,0E0,7.5623035E9,9.639117E7,7.5105295E9,0E0,0E0,0E0,1.496064E7,1.3429061E9,1.3933814E9,0E0,0E0,0E0,1.9787932E7,0E0,0E0,0E0,0E0],"parents":[2147483647,0,0,2,2,3,3,4,4,6,6,7,7,8,8,12,12,13,13,14,14,18,18],"right_children":[2,-1,4,6,8,-1,10,12,14,-1,-1,-1,16,18,20,-1,-1,-1,22,-1,-1,-1,-1],"split_conditions":[2E0,1.0338724E4,2.02E3,7E0,2.021E3,-4.8016647E2,9E0,5E0,9E0,1.3997751E4,3.2923452E3,-7.9923496E3,9E0,2.022E3,2.022E3,-6.7074204E3,-7.1837354E3,-3.206471E3,5E0,3.151723E3,7.746999E3,5.128753E2,-3.4740574E1],"split_indices":[1,0,2,1,2,0,1,1,1,0,0,0,1,2,2,0,0,0,1,0,0,0,0],"split_type":[0,0,0,0,0,0,0,0,0,0,0,0,0,0,0,0,0,0,0,0,0,0,0],"sum_hessian":[2.6E1,2E0,2.4E1,7E0,1.7E1,3E0,4E0,6E0,1.1E1,2E0,2E0,2E0,4E0,7E0,4E0,2E0,2E0,3E0,4E0,2E0,2E0,2E0,2E0],"tree_param":{"num_deleted":"0","num_feature":"3","num_nodes":"23","size_leaf_vector":"1"}},{"base_weights":[-3.3327427E3,-2.1187893E4,1.4522408E4,1.9113762E3,-2.8530748E4,5.4610713E3,4.576184E3,-5.106174E4,-1.3510073E4,-9.102504E3,2.167454E4,-6.6646245E3,-5.907287E3,-3.2107555E4,2.9157297E3,-2.6973125E3,-6.939786E1,5.736702E3,-4.0021317E2,-3.4199785E3,-4.485223E3],"categories":[],"categories_nodes":[],"categories_segments":[],"categories_sizes":[],"default_left":[0,0,0,0,0,0,0,0,0,0,0,0,0,0,0,0,0,0,0,0,0],"id":10,"left_children":[1,3,5,-1,7,-1,9,11,13,15,17,-1,-1,19,-1,-1,-1,-1,-1,-1,-1],"loss_changes":[7.651355E9,3.2350525E9,3.5613814E9,0E0,3.3843067E9,0E0,2.1049489E9,3.783885E7,4.1503982E9,5.4682963E8,2.4851267E9,0E0,0E0,7.487411E7,0E0,0E0,0E0,0E0,0E0,0E0,0E0],"parents":[2147483647,0,0,1,1,2,2,4,4,6,6,7,7,8,8,9,9,10,10,13,13],"right_children":[2,4,6,-1,8,-1,10,12,14,16,18,-1,-1,20,-1,-1,-1,-1,-1,-1,-1],"split_conditions":[2.325E1,4E0,3.1E1,1.9113762E3,8.8E0,5.4610713E3,3.58E1,2.2E0,7E0,1E1,3.725E1,-6.6646245E3,-5.907287E3,2.275E1,2.9157297E3,-2.6973125E3,-6.939786E1,5.736702E3,-4.0021317E2,-3.4199785E3,-4.485223E3],"split_indices":[0,1,0,0,0,0,0,0,1,1,0,0,0,0,0,0,0,0,0,0,0],"split_type":[0,0,0,0,0,0,0,0,0,0,0,0,0,0,0,0,0,0,0,0,0],"sum_hessian":[2.4E1,1.2E1,1.2E1,2E0,1E1,3E0,9E0,4E0,6E0,5E0,4E0,2E0,2E0,4E0,2E0,2E0,3E0,2E0,2E0,2E0,2E0],"tree_param":{"num_deleted":"0","num_feature":"3","num_nodes":"21","size_leaf_vector":"1"}},{"base_weights":[1.641846E4,6.0802285E4,-1.3350754E3,3.8473965E4,1.2066279E4,-2.5118945E4,4.283496E4,7.707182E3,2.800762E2,-4.0814664E4,1.0196427E4,9.480896E3,2.916305E4,-2.9989622E3,-4.5515703E4,-4.167857E3,6.6783193E3,2.9875015E2,5.7843647E3,-4.803872E4,-4.826718E3,-6.1456436E3,-5.566055E3],"categories":[],"categories_nodes":[],"categories_segments":[],"categories_sizes":[],"default_left":[0,0,0,0,0,0,0,0,0,0,0,0,0,0,0,0,0,0,0,0,0,0,0],"id":11,"left_children":[1,3,5,7,-1,9,11,-1,-1,13,15,-1,17,-1,19,-1,-1,-1,-1,21,-1,-1,-1],"loss_changes":[2.2063157E10,6.6473615E9,2.1010692E10,4.3678577E9,0E0,7.2059054E9,3.2711055E9,0E0,0E0,6.961408E8,7.7625027E9,0E0,2.3827569E9,0E0,1.1139379E8,0E0,0E0,0E0,0E0,2.6592256E7,0E0,0E0,0E0],"parents":[2147483647,0,0,1,1,2,2,3,3,5,5,6,6,9,9,10,10,12,12,14,14,19,19],"right_children":[2,4,6,8,-1,10,12,-1,-1,14,16,-1,18,-1,20,-1,-1,-1,-1,22,-1,-1,-1],"split_conditions":[4E0,2.022E3,9E0,2.021E3,1.2066279E4,2.022E3,1E1,7.707182E3,2.800762E2,5E0,7E0,9.480896E3,2.021E3,-2.9989622E3,8E0,-4.167857E3,6.6783193E3,2.9875015E2,5.7843647E3,6E0,-4.826718E3,-6.1456436E3,-5.566055E3],"split_indices":[1,2,1,2,0,2,1,0,0,1,1,0,2,0,1,0,0,0,0,1,0,0,0],"split_type":[0,0,0,0,0,0,0,0,0,0,0,0,0,0,0,0,0,0,0,0,0,0,0],"sum_hessian":[2.8E1,8E0,2E1,5E0,3E0,1.3E1,7E0,3E0,2E0,9E0,4E0,2E0,5E0,2E0,7E0,2E0,2E0,2E0,3E0,5E0,2E0,3E0,2E0],"tree_param":{"num_deleted":"0","num_feature":"3","num_nodes":"23","size_leaf_vector":"1"}},{"base_weights":[3.7819E3,1.0408908E4,-4.295223E3,3.315185E4,-2.0343973E4,-1.3989662E2,8.302217E3,-3.078972E4,5.211097E3,-4.921962E4,-1.2359807E4,-7.063113E3,-4.5142066E4,-2.9036172E2,-1.736038E4,-4.8808467E3,-6.2335835E3,4.6749722E2,-4.741797E3],"categories":[],"categories_nodes":[],"categories_segments":[],"categories_sizes":[],"default_left":[0,0,0,0,0,0,0,0,0,0,0,0,0,0,0,0,0,0,0],"id":12,"left_children":[1,-1,3,5,7,-1,-1,9,-1,11,13,-1,15,-1,17,-1,-1,-1,-1],"loss_changes":[1.4352765E10,0E0,1.2019578E10,7.054102E9,9.165546E9,0E0,0E0,4.0759368E9,0E0,1.99509E8,3.0006912E8,0E0,1.2074086E8,0E0,1.7906308E9,0E0,0E0,0E0,0E0],"parents":[2147483647,0,0,2,2,3,3,4,4,7,7,9,9,10,10,12,12,14,14],"right_children":[2,-1,4,6,8,-1,-1,10,-1,12,14,-1,16,-1,18,-1,-1,-1,-1],"split_conditions":[3E0,1.0408908E4,2.02E3,7E0,1.2E1,-1.3989662E2,8.302217E3,2.021E3,5.211097E3,5E0,5E0,-7.063113E3,8E0,-2.9036172E2,2.022E3,-4.8808467E3,-6.2335835E3,4.6749722E2,-4.741797E3],"split_indices":[1,0,2,1,1,0,0,2,0,1,1,0,1,0,2,0,0,0,0],"split_type":[0,0,0,0,0,0,0,0,0,0,0,0,0,0,0,0,0,0,0],"sum_hessian":[2.2E1,2E0,2E1,6E0,1.4E1,3E0,3E0,1.2E1,2E0,6E0,6E0,2E0,4E0,2E0,4E0,2E0,2E0,2E0,2E0],"tree_param":{"num_deleted":"0","num_feature":"3","num_nodes":"19","size_leaf_vector":"1"}},{"base_weights":[-8.982933E3,1.1356137E4,-1.7785588E4,-2.3628871E4,2.606089E3,-1.7770715E4,-6.995453E3,-2.804519E4,6.8880244E3,-1.2267539E2,-3.7061414E4,-4.4877124E3,4.4050605E3,-4.569848E4,-2.6265053E4,-6.193609E3,-5.247115E3,-4.535852E3,-1.9308674E3],"categories":[],"categories_nodes":[],"categories_segments":[],"categories_sizes":[],"default_left":[0,0,0,0,0,0,0,0,0,0,0,0,0,0,0,0,0,0,0],"id":13,"left_children":[1,-1,3,5,-1,7,-1,9,11,-1,13,-1,-1,15,17,-1,-1,-1,-1],"loss_changes":[2.227742E10,0E0,5.2354094E9,3.889365E9,0E0,4.307046E9,0E0,2.9265234E9,6.26187E9,0E0,8.392376E8,0E0,0E0,7.092941E7,4.4777216E8,0E0,0E0,0E0,0E0],"parents":[2147483647,0,0,2,2,3,3,5,5,7,7,8,8,10,10,13,13,14,14],"right_children":[2,-1,4,6,-1,8,-1,10,12,-1,14,-1,-1,16,18,-1,-1,-1,-1],"split_conditions":[3E0,1.1356137E4,1.2E1,1.1E1,2.606089E3,2.022E3,-6.995453E3,2.02E3,6E0,-1.2267539E2,2.021E3,-4.4877124E3,4.4050605E3,5E0,6E0,-6.193609E3,-5.247115E3,-4.535852E3,-1.9308674E3],"split_indices":[1,0,1,1,0,2,0,2,1,0,2,0,0,1,1,0,0,0,0],"split_type":[0,0,0,0,0,0,0,0,0,0,0,0,0,0,0,0,0,0,0],"sum_hessian":[2.5E1,2E0,2.3E1,2E1,3E0,1.7E1,3E0,1.2E1,5E0,3E0,9E0,2E0,3E0,5E0,4E0,2E0,3E0,2E0,2E0],"tree_param":{"num_deleted":"0","num_feature":"3","num_nodes":"19","size_leaf_vector":"1"}},{"base_weights":[-1.1025819E4,-2.410401E4,5.619152E3,-1.6828684E4,-6.251298E3,2.9692389E4,-8.13699E3,-2.6795664E4,6.135385E2,4.1581816E3,3.1523826E3,3.453107E3,-3.527729E4,-1.6458533E3,-3.6865273E4,-2.3165483E3,2.4676077E3,-1.7628463E3,-6.922776E3,-4.947951E3,-4.128649E3],"categories":[],"categories_nodes":[],"categories_segments":[],"categories_sizes":[],"default_left":[0,0,0,0,0,0,0,0,0,0,0,0,0,0,0,0,0,0,0,0,0],"id":14,"left_children":[1,3,5,7,-1,9,11,13,15,-1,-1,-1,17,-1,19,-1,-1,-1,-1,-1,-1],"loss_changes":[5.4421535E9,2.7170867E9,3.6427052E9,1.9123098E9,0E0,6.675021E7,6.8748995E9,9.463726E8,1.5102857E9,0E0,0E0,0E0,1.7568517E9,0E0,4.4289024E7,0E0,0E0,0E0,0E0,0E0,0E0],"parents":[2147483647,0,0,1,1,2,2,3,3,5,5,6,6,7,7,8,8,12,12,14,14],"right_children":[2,4,6,8,-1,10,12,14,16,-1,-1,-1,18,-1,20,-1,-1,-1,-1,-1,-1],"split_conditions":[2.6E1,1.1E1,3.1E1,1.1E1,-6.251298E3,9E0,3E0,2.2E0,5E0,4.1581816E3,3.1523826E3,3.453107E3,3.225E1,-1.6458533E3,7E0,-2.3165483E3,2.4676077E3,-1.7628463E3,-6.922776E3,-4.947951E3,-4.128649E3],"split_indices":[0,1,0,0,0,1,1,0,1,0,0,0,0,0,1,0,0,0,0,0,0],"split_type":[0,0,0,0,0,0,0,0,0,0,0,0,0,0,0,0,0,0,0,0,0],"sum_hessian":[2.5E1,1.4E1,1.1E1,1.1E1,3E0,4E0,7E0,7E0,4E0,2E0,2E0,3E0,4E0,3E0,4E0,2E0,2E0,2E0,2E0,2E0,2E0],"tree_param":{"num_deleted":"0","num_feature":"3","num_nodes":"21","size_leaf_vector":"1"}},{"base_weights":[-4.3166284E3,8.339625E3,-1.4611004E4,-8.111663E3,-3.540888E4,-2.4996932E4,8.773607E3,-5.4817314E3,-2.674931E3,-1.461409E4,-5.2075474E3,5.7005415E3,-3.7373042E3,-3.8781177E2,-2.739906E3,-1.4870272E4,2.280968E3,-7.320846E1,-3.5880017E3],"categories":[],"categories_nodes":[],"categories_segments":[],"categories_sizes":[],"default_left":[0,0,0,0,0,0,0,0,0,0,0,0,0,0,0,0,0,0,0],"id":15,"left_children":[1,-1,3,5,7,9,11,-1,-1,13,-1,-1,15,-1,-1,17,-1,-1,-1],"loss_changes":[1.7803651E10,0E0,2.8386212E9,4.561798E9,6.238075E8,1.4373745E9,3.7565468E9,0E0,0E0,4.3806496E8,0E0,0E0,1.4873166E9,0E0,0E0,8.151693E8,0E0,0E0,0E0],"parents":[2147483647,0,0,2,2,3,3,4,4,5,5,6,6,9,9,12,12,15,15],"right_children":[2,-1,4,6,8,10,12,-1,-1,14,-1,-1,16,-1,-1,18,-1,-1,-1],"split_conditions":[3E0,8.339625E3,1.1E1,7E0,2.6E1,5E0,8E0,-5.4817314E3,-2.674931E3,4E0,-5.2075474E3,5.7005415E3,3.12E1,-3.8781177E2,-2.739906E3,1.34E1,2.280968E3,-7.320846E1,-3.5880017E3],"split_indices":[1,0,1,1,0,1,1,0,0,1,0,0,0,0,0,0,0,0,0],"split_type":[0,0,0,0,0,0,0,0,0,0,0,0,0,0,0,0,0,0,0],"sum_hessian":[2.4E1,3E0,2.1E1,1.6E1,5E0,8E0,8E0,3E0,2E0,5E0,3E0,2E0,6E0,2E0,3E0,4E0,2E0,2E0,2E0],"tree_param":{"num_deleted":"0","num_feature":"3","num_nodes":"19","size_leaf_vector":"1"}},{"base_weights":[-1.0387588E4,6.4372183E3,-1.5995856E4,-7.3517523E2,3.0838967E3,-2.9151375E4,-7.225505E3,-2.7823735E3,-4.3949893E3,-1.0559529E4,5.4702734E2,-2.5463445E4,3.2869363E3,-3.5303945E3,-2.8708672E3],"categories":[],"categories_nodes":[],"categories_segments":[],"categories_sizes":[],"default_left":[0,0,0,0,0,0,0,0,0,0,0,0,0,0,0],"id":16,"left_children":[1,3,5,-1,-1,7,9,-1,-1,11,-1,13,-1,-1,-1],"loss_changes":[1.8871611E9,1.1549025E9,1.730678E9,0E0,0E0,2.5739315E8,3.5014534E8,0E0,0E0,3.887219E9,0E0,3.4440704E7,0E0,0E0,0E0],"parents":[2147483647,0,0,1,1,2,2,5,5,6,6,9,9,11,11],"right_children":[2,4,6,-1,-1,8,10,-1,-1,12,-1,14,-1,-1,-1],"split_conditions":[2.02E3,6E0,2.021E3,-7.3517523E2,3.0838967E3,7E0,9E0,-2.7823735E3,-4.3949893E3,2.022E3,5.4702734E2,3E0,3.2869363E3,-3.5303945E3,-2.8708672E3],"split_indices":[2,1,2,0,0,1,1,0,0,2,0,1,0,0,0],"split_type":[0,0,0,0,0,0,0,0,0,0,0,0,0,0,0],"sum_hessian":[2E1,5E0,1.5E1,3E0,2E0,6E0,9E0,3E0,3E0,7E0,2E0,5E0,2E0,2E0,3E0],"tree_param":{"num_deleted":"0","num_feature":"3","num_nodes":"15","size_leaf_vector":"1"}},{"base_weights":[-1.2202479E3,-7.313006E3,8.475341E3,1.7047787E4,-1.7970854E4,5.8144025E2,7.1663906E3,-2.6374201E4,7.2391904E3,3.5619631E3,-2.2553462E3,-2.1924006E4,-5.9860005E3,3.1502253E3,-1.367864E3,-3.0030016E4,-1.6519988E4,-2.2398323E3,-5.153859E3,-1.2557073E3,-1.967983E4,-3.0032642E3,-1.8421075E3],"categories":[],"categories_nodes":[],"categories_segments":[],"categories_sizes":[],"default_left":[0,0,0,0,0,0,0,0,0,0,0,0,0,0,0,0,0,0,0,0,0,0,0],"id":17,"left_children":[1,3,-1,5,7,9,-1,11,13,-1,-1,15,-1,-1,-1,17,19,-1,-1,-1,21,-1,-1],"loss_changes":[1.0672477E10,5.9715753E9,0E0,4.744955E9,3.3895813E9,2.6796247E9,0E0,1.188248E9,1.3469705E9,0E0,0E0,4.3804877E8,0E0,0E0,0E0,5.603167E8,1.1981504E8,0E0,0E0,0E0,8.896614E7,0E0,0E0],"parents":[2147483647,0,0,1,1,3,3,4,4,5,5,7,7,8,8,11,11,15,15,16,16,20,20],"right_children":[2,4,-1,6,8,10,-1,12,14,-1,-1,16,-1,-1,-1,18,20,-1,-1,-1,22,-1,-1],"split_conditions":[3.85E1,2.02E3,8.475341E3,2.325E1,3.525E1,1.34E1,7.1663906E3,3.32E1,2.022E3,3.5619631E3,-2.2553462E3,1.12E1,-5.9860005E3,3.1502253E3,-1.367864E3,3.25E0,2.18E1,-2.2398323E3,-5.153859E3,-1.2557073E3,3.12E1,-3.0032642E3,-1.8421075E3],"split_indices":[0,2,0,0,0,0,0,0,2,0,0,0,0,0,0,0,0,0,0,0,0,0,0],"split_type":[0,0,0,0,0,0,0,0,0,0,0,0,0,0,0,0,0,0,0,0,0,0,0],"sum_hessian":[2.5E1,2.3E1,2E0,7E0,1.6E1,5E0,2E0,1.2E1,4E0,2E0,3E0,1E1,2E0,2E0,2E0,4E0,6E0,2E0,2E0,2E0,4E0,2E0,2E0],"tree_param":{"num_deleted":"0","num_feature":"3","num_nodes":"23","size_leaf_vector":"1"}},{"base_weights":[-8.0319624E3,-2.057865E4,1.5667335E4,-9.464195E3,-2.8358764E4,2.6578148E4,-7.576253E2,2.948732E2,-1.420799E4,-2.23145E4,-6.4674194E3,3.4095054E3,8.976254E3,-2.7096543E3,-1.1086885E3,-4.5193936E3,-1.751543E4,-1.8016743E3,2.641129E3,-1.2108069E4,-3.487582E3,-2.6218772E3,-3.5925095E2],"categories":[],"categories_nodes":[],"categories_segments":[],"categories_sizes":[],"default_left":[0,0,0,0,0,0,0,0,0,0,0,0,0,0,0,0,0,0,0,0,0,0,0],"id":18,"left_children":[1,3,5,7,9,11,-1,-1,13,15,-1,17,-1,-1,-1,-1,19,-1,-1,21,-1,-1,-1],"loss_changes":[7.7310423E9,1.470018E9,2.1428273E9,3.938132E8,1.4613187E9,6.441424E9,0E0,0E0,2.0295155E8,5.5274266E8,0E0,1.3024545E9,0E0,0E0,0E0,0E0,3.5087258E8,0E0,0E0,3.3781088E8,0E0,0E0,0E0],"parents":[2147483647,0,0,1,1,2,2,3,3,4,4,5,5,8,8,9,9,11,11,16,16,19,19],"right_children":[2,4,6,8,10,12,-1,-1,14,16,-1,18,-1,-1,-1,-1,20,-1,-1,22,-1,-1,-1],"split_conditions":[3E1,8.8E0,8E0,6E0,9E0,5E0,-7.576253E2,2.948732E2,3.25E0,1.12E1,-6.4674194E3,3.225E1,8.976254E3,-2.7096543E3,-1.1086885E3,-4.5193936E3,2.275E1,-1.8016743E3,2.641129E3,2.15E1,-3.487582E3,-2.6218772E3,-3.5925095E2],"split_indices":[0,0,1,1,1,1,0,0,0,0,0,0,0,0,0,0,0,0,0,0,0,0,0],"split_type":[0,0,0,0,0,0,0,0,0,0,0,0,0,0,0,0,0,0,0,0,0,0,0],"sum_hessian":[2.6E1,1.7E1,9E0,7E0,1E1,6E0,3E0,2E0,5E0,8E0,2E0,4E0,2E0,2E0,3E0,2E0,6E0,2E0,2E0,4E0,2E0,2E0,2E0],"tree_param":{"num_deleted":"0","num_feature":"3","num_nodes":"23","size_leaf_vector":"1"}},{"base_weights":[1.3398607E3,8.396146E3,-5.346469E3,-1.0318625E4,4.850696E3,-5.235948E3,-6.275895E3,-1.8760875E4,1.7305596E4,-7.3196855E3,-5.595983E3,7.871233E3,-6.0112E3,9.321322E2,-1.3276297E4,-1.9800134E3,4.9999557E2,-1.0725035E3,-2.0089628E3],"categories":[],"categories_nodes":[],"categories_segments":[],"categories_sizes":[],"default_left":[0,0,0,0,0,0,0,0,0,0,0,0,0,0,0,0,0,0,0],"id":19,"left_children":[1,-1,3,5,-1,7,-1,9,11,13,-1,-1,15,-1,17,-1,-1,-1,-1],"loss_changes":[9.835532E9,0E0,4.450017E9,3.7200328E9,0E0,4.8779653E9,0E0,3.0543485E9,6.5240714E9,6.209217E8,0E0,0E0,4.0584003E8,0E0,6.94391E7,0E0,0E0,0E0,0E0],"parents":[2147483647,0,0,2,2,3,3,5,5,7,7,8,8,9,9,12,12,14,14],"right_children":[2,-1,4,6,-1,8,-1,10,12,14,-1,-1,16,-1,18,-1,-1,-1,-1],"split_conditions":[3E0,8.396146E3,1.2E1,1.1E1,4.850696E3,7E0,-6.275895E3,2.022E3,8E0,4E0,-5.595983E3,7.871233E3,9E0,9.321322E2,5E0,-1.9800134E3,4.9999557E2,-1.0725035E3,-2.0089628E3],"split_indices":[1,0,1,1,0,1,0,2,1,1,0,0,1,0,1,0,0,0,0],"split_type":[0,0,0,0,0,0,0,0,0,0,0,0,0,0,0,0,0,0,0],"sum_hessian":[2.2E1,2E0,2E1,1.8E1,2E0,1.6E1,2E0,1E1,6E0,7E0,3E0,2E0,4E0,2E0,5E0,2E0,2E0,2E0,3E0],"tree_param":{"num_deleted":"0","num_feature":"3","num_nodes":"19","size_leaf_vector":"1"}},{"base_weights":[-3.6644414E3,-2.0449975E4,4.6692137E4,-1.5468809E4,-5.583524E3,5.4228306E3,6.073241E3,-3.824269E2,-2.0766934E4,-2.8253814E4,-1.3276158E3,-2.6306287E3,-4.325744E3],"categories":[],"categories_nodes":[],"categories_segments":[],"categories_sizes":[],"default_left":[0,0,0,0,0,0,0,0,0,0,0,0,0],"id":20,"left_children":[1,3,5,7,-1,-1,-1,-1,9,11,-1,-1,-1],"loss_changes":[1.3524195E10,1.4887158E9,2.7908096E7,6.549701E8,0E0,0E0,0E0,0E0,5.231652E8,1.8960154E8,0E0,0E0,0E0],"parents":[2147483647,0,0,1,1,2,2,3,3,8,8,9,9],"right_children":[2,4,6,8,-1,-1,-1,-1,10,12,-1,-1,-1],"split_conditions":[3.32E1,1.1E1,5E1,5E0,-5.583524E3,5.4228306E3,6.073241E3,-3.824269E2,8E0,6E0,-1.3276158E3,-2.6306287E3,-4.325744E3],"split_indices":[0,1,0,1,0,0,0,0,1,1,0,0,0],"split_type":[0,0,0,0,0,0,0,0,0,0,0,0,0],"sum_hessian":[1.6E1,1.2E1,4E0,1E1,2E0,2E0,2E0,3E0,7E0,4E0,3E0,2E0,2E0],"tree_param":{"num_deleted":"0","num_feature":"3","num_nodes":"13","size_leaf_vector":"1"}},{"base_weights":[-5.0682153E2,-6.8456104E3,2.6433018E4,3.4098687E3,-1.4247997E4,7.287689E3,-7.7961487E2,-2.474605E4,-2.5058575E2,-3.5631655E3,-2.222721E4,4.131552E3,-1.1097745E3,-2.238053E3,-3.4836243E3,-1.5402925E2,1.1712587E3],"categories":[],"categories_nodes":[],"categories_segments":[],"categories_sizes":[],"default_left":[0,0,0,0,0,0,0,0,0,0,0,0,0,0,0,0,0],"id":21,"left_children":[1,3,5,-1,7,-1,-1,9,11,-1,13,15,-1,-1,-1,-1,-1],"loss_changes":[3.586086E9,4.347095E9,4.2944253E9,0E0,2.0572388E9,0E0,0E0,8.459162E7,2.3043758E8,0E0,1.2284621E8,1.158961E8,0E0,0E0,0E0,0E0,0E0],"parents":[2147483647,0,0,1,1,2,2,4,4,7,7,8,8,10,10,11,11],"right_children":[2,4,6,-1,8,-1,-1,10,12,-1,14,16,-1,-1,-1,-1,-1],"split_conditions":[3.85E1,2.02E3,5.2E1,3.4098687E3,3.15E1,7.287689E3,-7.7961487E2,2.021E3,3.62E1,-3.5631655E3,3E1,3.525E1,-1.1097745E3,-2.238053E3,-3.4836243E3,-1.5402925E2,1.1712587E3],"split_indices":[0,2,0,0,0,0,0,2,0,0,0,0,0,0,0,0,0],"split_type":[0,0,0,0,0,0,0,0,0,0,0,0,0,0,0,0,0],"sum_hessian":[2.1E1,1.7E1,4E0,3E0,1.4E1,2E0,2E0,8E0,6E0,3E0,5E0,4E0,2E0,3E0,2E0,2E0,2E0],"tree_param":{"num_deleted":"0","num_feature":"3","num_nodes":"17","size_leaf_vector":"1"}},{"base_weights":[5.921425E3,2.6498926E4,4.213593E1,1.8303038E3,4.693999E3,4.6155728E3,-3.3728909E3,-2.3245374E3,4.8400117E3,5.789615E3,-9.424421E3,-1.240755E4,6.3131353E3,-2.650598E3,-2.1603582E3,5.266886E1,-3.897582E3,2.368107E3,-2.0219905E3],"categories":[],"categories_nodes":[],"categories_segments":[],"categories_sizes":[],"default_left":[0,0,0,0,0,0,0,0,0,0,0,0,0,0,0,0,0,0,0],"id":22,"left_children":[1,3,5,-1,-1,7,-1,9,-1,11,13,15,-1,-1,17,-1,-1,-1,-1],"loss_changes":[3.2664888E9,8.116936E8,2.6354555E9,0E0,0E0,4.334858E9,0E0,8.6414336E8,0E0,5.7948923E9,7.0355405E8,1.2356027E9,0E0,0E0,1.5260823E9,0E0,0E0,0E0,0E0],"parents":[2147483647,0,0,1,1,2,2,5,5,7,7,9,9,10,10,11,11,14,14],"right_children":[2,4,6,-1,-1,8,-1,10,-1,12,14,16,-1,-1,18,-1,-1,-1,-1],"split_conditions":[2.02E3,2.275E1,3.82E1,1.8303038E3,4.693999E3,3.525E1,-3.3728909E3,2.5E1,4.8400117E3,1.95E1,3.15E1,8.8E0,6.3131353E3,-2.650598E3,3.35E1,5.266886E1,-3.897582E3,2.368107E3,-2.0219905E3],"split_indices":[2,0,0,0,0,0,0,0,0,0,0,0,0,0,0,0,0,0,0],"split_type":[0,0,0,0,0,0,0,0,0,0,0,0,0,0,0,0,0,0,0],"sum_hessian":[2.7E1,6E0,2.1E1,3E0,3E0,1.8E1,3E0,1.5E1,3E0,7E0,8E0,5E0,2E0,3E0,5E0,3E0,2E0,2E0,3E0],"tree_param":{"num_deleted":"0","num_feature":"3","num_nodes":"19","size_leaf_vector":"1"}},{"base_weights":[5.414973E3,-1.4883991E4,1.7014383E4,2.4527405E3,-3.2220713E4,3.5694305E4,-1.6655471E3,8.746892E1,5.1642035E2,-1.1961888E3,-6.736874E3,1.933293E4,7.079704E3,-1.4033965E4,1.8251161E3,5.815802E3,-1.0558405E3,-7.9976215E2,-2.6555408E3],"categories":[],"categories_nodes":[],"categories_segments":[],"categories_sizes":[],"default_left":[0,0,0,0,0,0,0,0,0,0,0,0,0,0,0,0,0,0,0],"id":23,"left_children":[1,3,5,7,9,11,13,-1,-1,-1,-1,15,-1,17,-1,-1,-1,-1,-1],"loss_changes":[5.1800335E9,2.4044977E9,4.885156E9,1.2141266E7,2.025698E9,2.498475E9,1.4277932E9,0E0,0E0,0E0,0E0,3.1157996E9,0E0,2.272478E8,0E0,0E0,0E0,0E0,0E0],"parents":[2147483647,0,0,1,1,2,2,3,3,4,4,5,5,6,6,11,11,13,13],"right_children":[2,4,6,8,10,12,14,-1,-1,-1,-1,16,-1,18,-1,-1,-1,-1,-1],"split_conditions":[7E0,5E0,1E1,3E0,2.022E3,2.022E3,1.2E1,8.746892E1,5.1642035E2,-1.1961888E3,-6.736874E3,2.02E3,7.079704E3,2.021E3,1.8251161E3,5.815802E3,-1.0558405E3,-7.9976215E2,-2.6555408E3],"split_indices":[1,1,1,1,2,2,1,0,0,0,0,2,0,2,0,0,0,0,0],"split_type":[0,0,0,0,0,0,0,0,0,0,0,0,0,0,0,0,0,0,0],"sum_hessian":[2.2E1,8E0,1.4E1,4E0,4E0,7E0,7E0,2E0,2E0,2E0,2E0,4E0,3E0,4E0,3E0,2E0,2E0,2E0,2E0],"tree_param":{"num_deleted":"0","num_feature":"3","num_nodes":"19","size_leaf_vector":"1"}},{"base_weights":[-3.6330952E3,2.1582725E3,-1.9076736E4,-3.6037163E3,3.3394563E3,-4.486342E3,-1.0393494E4,8.216845E3,-1.3735625E4,-2.0900974E3,-4.6888504E2,-8.131994E3,5.036782E3,-6.421148E2,-1.7143475E4,4.5284625E2,-2.455025E3,-1.7459501E3,-2.6571948E3],"categories":[],"categories_nodes":[],"categories_segments":[],"categories_sizes":[],"default_left":[0,0,0,0,0,0,0,0,0,0,0,0,0,0,0,0,0,0,0],"id":24,"left_children":[1,3,5,7,-1,-1,9,11,13,-1,-1,15,-1,-1,17,-1,-1,-1,-1],"loss_changes":[1.9676762E9,2.301901E9,9.047816E8,1.5569437E9,0E0,0E0,1.734313E8,3.2074132E9,2.0323533E8,0E0,0E0,5.579543E8,0E0,0E0,6.574976E7,0E0,0E0,0E0,0E0],"parents":[2147483647,0,0,1,1,2,2,3,3,6,6,7,7,8,8,11,11,14,14],"right_children":[2,4,6,8,-1,-1,10,12,14,-1,-1,16,-1,-1,18,-1,-1,-1,-1],"split_conditions":[1.1E1,2.022E3,2.02E3,2.02E3,3.3394563E3,-4.486342E3,1.2E1,7E0,7E0,-2.0900974E3,-4.6888504E2,5E0,5.036782E3,-6.421148E2,9E0,4.5284625E2,-2.455025E3,-1.7459501E3,-2.6571948E3],"split_indices":[1,2,2,2,0,0,1,1,1,0,0,1,0,0,1,0,0,0,0],"split_type":[0,0,0,0,0,0,0,0,0,0,0,0,0,0,0,0,0,0,0],"sum_hessian":[2.2E1,1.6E1,6E0,1.3E1,3E0,2E0,4E0,6E0,7E0,2E0,2E0,4E0,2E0,2E0,5E0,2E0,2E0,3E0,2E0],"tree_param":{"num_deleted":"0","num_feature":"3","num_nodes":"19","size_leaf_vector":"1"}},{"base_weights":[-1.2671545E3,-5.4003955E3,3.660175E3,-2.6977629E4,8.984432E3,-1.2561374E4,-6.870506E3,-4.8933984E3,2.0086691E4,-3.9361932E2,-2.699117E3,2.2302344E2,-1.4278273E3,7.214321E3,-6.8826074E2],"categories":[],"categories_nodes":[],"categories_segments":[],"categories_sizes":[],"default_left":[0,0,0,0,0,0,0,0,0,0,0,0,0,0,0],"id":25,"left_children":[1,3,-1,5,7,9,-1,11,13,-1,-1,-1,-1,-1,-1],"loss_changes":[2.1781673E9,4.655773E9,0E0,2.4939356E9,1.3866781E9,3.5073357E8,0E0,1.7983072E8,4.9450143E9,0E0,0E0,0E0,0E0,0E0,0E0],"parents":[2147483647,0,0,1,1,3,3,4,4,5,5,7,7,8,8],"right_children":[2,4,-1,6,8,10,-1,12,14,-1,-1,-1,-1,-1,-1],"split_conditions":[3.58E1,6E0,3.660175E3,2.275E1,1.95E1,1.12E1,-6.870506E3,5.75E0,3E1,-3.9361932E2,-2.699117E3,2.2302344E2,-1.4278273E3,7.214321E3,-6.8826074E2],"split_indices":[0,1,0,0,0,0,0,0,0,0,0,0,0,0,0],"split_type":[0,0,0,0,0,0,0,0,0,0,0,0,0,0,0],"sum_hessian":[1.7E1,1.5E1,2E0,6E0,9E0,4E0,2E0,4E0,5E0,2E0,2E0,2E0,2E0,2E0,3E0],"tree_param":{"num_deleted":"0","num_feature":"3","num_nodes":"15","size_leaf_vector":"1"}},{"base_weights":[-2.5908234E2,-4.4427617E3,1.7172908E4,-9.309888E2,-3.7172495E3,2.9504965E4,-9.2220593E2,-5.975379E3,2.1768754E4,5.2592573E3,2.005161E3,8.0161445E3,-1.2971141E4,6.3262017E3,-9.66516E2,2.6670732E3,1.1917021E3,-1.4788662E4,-9.255741E2,-1.1740575E3,1.4674666E3,-9.907778E3,-2.0889756E4,-1.8671124E3,-2.4857504E2,-3.2929512E3,-1.8503162E3],"categories":[],"categories_nodes":[],"categories_segments":[],"categories_sizes":[],"default_left":[0,0,0,0,0,0,0,0,0,0,0,0,0,0,0,0,0,0,0,0,0,0,0,0,0,0,0],"id":26,"left_children":[1,3,5,7,-1,9,-1,11,13,-1,-1,15,17,-1,-1,-1,19,21,-1,-1,-1,23,25,-1,-1,-1,-1],"loss_changes":[2.260826E9,2.260965E9,1.8249569E9,2.5191406E9,0E0,6.987274E8,0E0,1.7618652E9,3.5093532E9,0E0,0E0,5.588755E8,1.1892173E8,0E0,0E0,0E0,4.6042365E8,2.6800794E8,0E0,0E0,0E0,2.0743146E8,1.3732749E8,0E0,0E0,0E0,0E0],"parents":[2147483647,0,0,1,1,2,2,3,3,5,5,7,7,8,8,11,11,12,12,16,16,17,17,21,21,22,22],"right_children":[2,4,6,8,-1,10,-1,12,14,-1,-1,16,18,-1,-1,-1,20,22,-1,-1,-1,24,26,-1,-1,-1,-1],"split_conditions":[3.58E1,3.32E1,5E1,2.022E3,-3.7172495E3,2.022E3,-9.2220593E2,2.02E3,3E1,5.2592573E3,2.005161E3,1.34E1,3E1,6.3262017E3,-9.66516E2,2.6670732E3,2.3E1,4E0,-9.255741E2,-1.1740575E3,1.4674666E3,3.2E0,2.15E1,-1.8671124E3,-2.4857504E2,-3.2929512E3,-1.8503162E3],"split_indices":[0,0,0,2,0,2,0,2,0,0,0,0,0,0,0,0,0,0,0,0,0,0,0,0,0,0,0],"split_type":[0,0,0,0,0,0,0,0,0,0,0,0,0,0,0,0,0,0,0,0,0,0,0,0,0,0,0],"sum_hessian":[3.1E1,2.5E1,6E0,2.2E1,3E0,4E0,2E0,1.8E1,4E0,2E0,2E0,6E0,1.2E1,2E0,2E0,2E0,4E0,9E0,3E0,2E0,2E0,5E0,4E0,3E0,2E0,2E0,2E0],"tree_param":{"num_deleted":"0","num_feature":"3","num_nodes":"27","size_leaf_vector":"1"}},{"base_weights":[2.2382961E3,-3.148245E3,2.198894E4,5.3548114E2,-3.2596372E3,3.6267906E4,-8.0867725E2,-4.7029907E3,5.547416E3,4.0042244E3,4.9252974E3,-1.2703809E4,6.7267495E3,-5.345682E3,-2.3740988E4,1.6716555E4,-8.1163116E2,-1.177022E3,-1.3913889E2,-2.50954E3,-3.3357292E3,3.0464739E3,1.0693097E3],"categories":[],"categories_nodes":[],"categories_segments":[],"categories_sizes":[],"default_left":[0,0,0,0,0,0,0,0,0,0,0,0,0,0,0,0,0,0,0,0,0,0,0],"id":27,"left_children":[1,3,5,7,-1,9,-1,11,-1,-1,-1,13,15,17,19,21,-1,-1,-1,-1,-1,-1,-1],"loss_changes":[2.978855E9,1.8907296E9,2.4466685E9,4.4318116E9,0E0,5.597645E7,0E0,1.554604E9,0E0,0E0,0E0,8.1212954E8,9.314321E8,1.0661931E8,4.503936E7,2.5794829E8,0E0,0E0,0E0,0E0,0E0,0E0,0E0],"parents":[2147483647,0,0,1,1,2,2,3,3,5,5,7,7,11,11,12,12,13,13,14,14,15,15],"right_children":[2,4,6,8,-1,10,-1,12,-1,-1,-1,14,16,18,20,22,-1,-1,-1,-1,-1,-1,-1],"split_conditions":[3.58E1,3.35E1,5E1,2.022E3,-3.2596372E3,3.82E1,-8.0867725E2,2.6E1,5.547416E3,4.0042244E3,4.9252974E3,2.05E1,2.021E3,3.2E0,2.18E1,3.1E1,-8.1163116E2,-1.177022E3,-1.3913889E2,-2.50954E3,-3.3357292E3,3.0464739E3,1.0693097E3],"split_indices":[0,0,0,2,0,0,0,0,0,0,0,0,2,0,0,0,0,0,0,0,0,0,0],"split_type":[0,0,0,0,0,0,0,0,0,0,0,0,0,0,0,0,0,0,0,0,0,0,0],"sum_hessian":[2.8E1,2.2E1,6E0,1.9E1,3E0,4E0,2E0,1.7E1,2E0,2E0,2E0,1E1,7E0,6E0,4E0,4E0,3E0,3E0,3E0,2E0,2E0,2E0,2E0],"tree_param":{"num_deleted":"0","num_feature":"3","num_nodes":"23","size_leaf_vector":"1"}},{"base_weights":[-6.8535024E3,-1.3007491E4,2.9442341E3,-5.670197E3,-7.4724585E3,-1.0836864E4,5.954804E3,8.585996E2,-1.9742559E4,2.2475767E3,-7.8144415E2,-1.4557854E4,-3.7069329E3,-2.9654097E3,-6.188797E2],"categories":[],"categories_nodes":[],"categories_segments":[],"categories_sizes":[],"default_left":[0,0,0,0,0,0,0,0,0,0,0,0,0,0,0],"id":28,"left_children":[1,3,-1,5,-1,7,9,-1,11,-1,-1,13,-1,-1,-1],"loss_changes":[3.4084413E9,5.24899E9,0E0,7.8081306E8,0E0,1.4276058E9,6.0541466E8,0E0,3.2257178E8,0E0,0E0,3.633289E8,0E0,0E0,0E0],"parents":[2147483647,0,0,1,1,3,3,5,5,6,6,8,8,11,11],"right_children":[2,4,-1,6,-1,8,10,-1,12,-1,-1,14,-1,-1,-1],"split_conditions":[3.85E1,3.32E1,2.9442341E3,3E1,-7.4724585E3,5.75E0,3.12E1,8.585996E2,2.3E1,2.2475767E3,-7.8144415E2,1.95E1,-3.7069329E3,-2.9654097E3,-6.188797E2],"split_indices":[0,0,0,0,0,0,0,0,0,0,0,0,0,0,0],"split_type":[0,0,0,0,0,0,0,0,0,0,0,0,0,0,0],"sum_hessian":[1.8E1,1.5E1,3E0,1.3E1,2E0,9E0,4E0,3E0,6E0,2E0,2E0,4E0,2E0,2E0,2E0],"tree_param":{"num_deleted":"0","num_feature":"3","num_nodes":"15","size_leaf_vector":"1"}},{"base_weights":[7.268959E3,2.0378597E3,5.1880083E3,-1.374461E3,5.338561E3,1.0572358E4,-1.0362829E4,7.938111E3,2.9229543E3,-4.6815265E2,-2.0832798E3,1.5109959E4,-1.082857E3,6.6906694E3,4.451252E3,2.315825E3,-1.414599E3],"categories":[],"categories_nodes":[],"categories_segments":[],"categories_sizes":[],"default_left":[0,0,0,0,0,0,0,0,0,0,0,0,0,0,0,0,0],"id":29,"left_children":[1,3,-1,-1,5,7,9,11,-1,-1,-1,13,-1,15,-1,-1,-1],"loss_changes":[4.1958702E9,8.715702E8,0E0,0E0,1.3148468E9,4.1635418E8,1.7213178E8,1.20016E9,0E0,0E0,0E0,1.240475E9,0E0,1.1019098E9,0E0,0E0,0E0],"parents":[2147483647,0,0,1,1,4,4,5,5,6,6,7,7,11,11,13,13],"right_children":[2,4,-1,-1,6,8,10,12,-1,-1,-1,14,-1,16,-1,-1,-1],"split_conditions":[3.85E1,3.2E0,5.1880083E3,-1.374461E3,3.35E1,3.15E1,3.375E1,2.5E1,2.9229543E3,-4.6815265E2,-2.0832798E3,2.18E1,-1.082857E3,2.021E3,4.451252E3,2.315825E3,-1.414599E3],"split_indices":[0,0,0,0,0,0,0,0,0,0,0,0,0,2,0,0,0],"split_type":[0,0,0,0,0,0,0,0,0,0,0,0,0,0,0,0,0],"sum_hessian":[2.3E1,2E1,3E0,4E0,1.6E1,1.2E1,4E0,1E1,2E0,2E0,2E0,7E0,3E0,5E0,2E0,3E0,2E0],"tree_param":{"num_deleted":"0","num_feature":"3","num_nodes":"17","size_leaf_vector":"1"}},{"base_weights":[2.5732117E3,-6.292517E3,2.473753E4,-4.00109E3,-1.5458216E4,1.2422153E3,2.96198E4,-7.0144863E3,2.104194E3,-7.81221E2,-3.0247468E3,4.3267197E3,2.9659744E3,3.6856934E1,-1.0931898E4,-6.8687854E2,1.0416605E3,-1.4819655E4,-3.8856613E2,-1.5587401E3,-2.0900085E3],"categories":[],"categories_nodes":[],"categories_segments":[],"categories_sizes":[],"default_left":[0,0,0,0,0,0,0,0,0,0,0,0,0,0,0,0,0,0,0,0,0],"id":30,"left_children":[1,3,5,7,9,-1,11,13,-1,-1,-1,-1,-1,15,17,-1,-1,19,-1,-1,-1],"loss_changes":[5.50208E9,4.2005043E8,5.720781E8,1.0170218E9,3.3213126E8,0E0,1.8326835E8,3.867223E8,0E0,0E0,0E0,0E0,0E0,2.3658544E8,2.7206387E8,0E0,0E0,2.7935616E7,0E0,0E0,0E0],"parents":[2147483647,0,0,1,1,2,2,3,3,4,4,6,6,7,7,13,13,14,14,17,17],"right_children":[2,4,6,8,10,-1,12,14,-1,-1,-1,-1,-1,16,18,-1,-1,20,-1,-1,-1],"split_conditions":[3.225E1,3.12E1,5E0,3E1,4E0,1.2422153E3,9E0,8.8E0,2.104194E3,-7.81221E2,-3.0247468E3,4.3267197E3,2.9659744E3,3.2E0,6E0,-6.8687854E2,1.0416605E3,2.05E1,-3.8856613E2,-1.5587401E3,-2.0900085E3],"split_indices":[0,0,1,0,1,0,1,0,0,0,0,0,0,0,1,0,0,0,0,0,0],"split_type":[0,0,0,0,0,0,0,0,0,0,0,0,0,0,0,0,0,0,0,0,0],"sum_hessian":[2.8E1,2E1,8E0,1.6E1,4E0,2E0,6E0,1.4E1,2E0,2E0,2E0,3E0,3E0,5E0,9E0,3E0,2E0,6E0,3E0,3E0,3E0],"tree_param":{"num_deleted":"0","num_feature":"3","num_nodes":"21","size_leaf_vector":"1"}},{"base_weights":[-7.6374207E2,2.5172205E4,-5.274344E3,1.2734348E3,4.924215E3,-1.9225098E3,-2.1195545E4,-1.2528277E4,1.266042E4,-3.2999924E3,-1.9185635E3,-3.1558572E3,-1.7883943E4,3.2049062E3,4.636321E3,-1.1315142E3,3.5451044E2,-8.198173E3,-5.1825186E3,-1.4972288E3,3.672728E3,-1.9105217E3,-4.0837912E2],"categories":[],"categories_nodes":[],"categories_segments":[],"categories_sizes":[],"default_left":[0,0,0,0,0,0,0,0,0,0,0,0,0,0,0,0,0,0,0,0,0,0,0],"id":31,"left_children":[1,3,5,-1,-1,7,9,11,13,-1,-1,15,17,-1,19,-1,-1,21,-1,-1,-1,-1,-1],"loss_changes":[3.1586424E9,8.794655E8,1.2274002E9,0E0,0E0,2.938601E9,1.2592179E8,5.521509E8,8.5848115E8,0E0,0E0,1.4571371E8,1.6417441E9,0E0,2.1164279E9,0E0,0E0,1.7866992E8,0E0,0E0,0E0,0E0,0E0],"parents":[2147483647,0,0,1,1,2,2,5,5,6,6,7,7,8,8,11,11,12,12,14,14,17,17],"right_children":[2,4,6,-1,-1,8,10,12,14,-1,-1,16,18,-1,20,-1,-1,22,-1,-1,-1,-1,-1],"split_conditions":[4E0,2.021E3,1E1,1.2734348E3,4.924215E3,7E0,2.021E3,5E0,2.02E3,-3.2999924E3,-1.9185635E3,2.021E3,2.022E3,3.2049062E3,2.022E3,-1.1315142E3,3.5451044E2,2.02E3,-5.1825186E3,-1.4972288E3,3.672728E3,-1.9105217E3,-4.0837912E2],"split_indices":[1,2,1,0,0,1,2,1,2,0,0,2,2,0,2,0,0,2,0,0,0,0,0],"split_type":[0,0,0,0,0,0,0,0,0,0,0,0,0,0,0,0,0,0,0,0,0,0,0],"sum_hessian":[2.7E1,4E0,2.3E1,2E0,2E0,1.9E1,4E0,1.1E1,8E0,2E0,2E0,4E0,7E0,3E0,5E0,2E0,2E0,5E0,2E0,3E0,2E0,2E0,3E0],"tree_param":{"num_deleted":"0","num_feature":"3","num_nodes":"23","size_leaf_vector":"1"}},{"base_weights":[-6.0357383E3,-1.1320055E4,-1.7122054E3,1.7393424E3,-7.0204233E3,-1.0588268E4,1.38209E4,2.0156113E3,-9.235975E3,-2.0380901E3,-3.934892E3,6.130549E2,2.7897896E3,-5.3588727E2,-1.7381024E3,2.2126009E2,-5.656721E2],"categories":[],"categories_nodes":[],"categories_segments":[],"categories_sizes":[],"default_left":[0,0,0,0,0,0,0,0,0,0,0,0,0,0,0,0,0],"id":32,"left_children":[1,3,5,7,-1,9,11,-1,13,15,-1,-1,-1,-1,-1,-1,-1],"loss_changes":[4.5693818E8,5.372252E9,1.5166017E9,1.1242712E9,0E0,1.2793452E9,3.1265024E8,0E0,9.536998E7,4.903478E7,0E0,0E0,0E0,0E0,0E0,0E0,0E0],"parents":[2147483647,0,0,1,1,2,2,3,3,5,5,6,6,8,8,9,9],"right_children":[2,4,6,8,-1,10,12,-1,14,16,-1,-1,-1,-1,-1,-1,-1],"split_conditions":[6E0,3.35E1,3.32E1,4E0,-7.0204233E3,1.1E1,3.62E1,2.0156113E3,5E0,7E0,-3.934892E3,6.130549E2,2.7897896E3,-5.3588727E2,-1.7381024E3,2.2126009E2,-5.656721E2],"split_indices":[1,0,0,1,0,1,0,0,1,1,0,0,0,0,0,0,0],"split_type":[0,0,0,0,0,0,0,0,0,0,0,0,0,0,0,0,0],"sum_hessian":[2E1,9E0,1.1E1,7E0,2E0,7E0,4E0,3E0,4E0,5E0,2E0,2E0,2E0,2E0,2E0,2E0,3E0],"tree_param":{"num_deleted":"0","num_feature":"3","num_nodes":"17","size_leaf_vector":"1"}},{"base_weights":[7.902305E3,-4.0038477E2,2.5430201E4,1.1130806E4,-5.722474E3,3.0247988E4,1.0547554E3,-1.7968682E0,2.7423135E3,-1.0117295E4,2.2711687E3,2.3687195E4,4.8005674E3,-3.447899E3,-6.1416274E3,5.074164E3,7.5786084E2,-4.2100576E3,-1.231637E3,-9.816908E2,-5.486778E1],"categories":[],"categories_nodes":[],"categories_segments":[],"categories_sizes":[],"default_left":[0,0,0,0,0,0,0,0,0,0,0,0,0,0,0,0,0,0,0,0,0],"id":33,"left_children":[1,3,5,7,9,11,-1,-1,-1,13,-1,15,-1,-1,17,-1,-1,19,-1,-1,-1],"loss_changes":[4.0748037E9,1.1660307E9,7.311493E8,7.4531955E8,1.3809829E9,4.017403E8,0E0,0E0,0E0,7.823918E8,0E0,1.2293394E9,0E0,0E0,6.715706E7,0E0,0E0,8.50223E7,0E0,0E0,0E0],"parents":[2147483647,0,0,1,1,2,2,3,3,4,4,5,5,9,9,11,11,14,14,17,17],"right_children":[2,4,6,8,10,12,-1,-1,-1,14,-1,16,-1,-1,18,-1,-1,20,-1,-1,-1],"split_conditions":[2.022E3,2.02E3,1E1,7E0,1.1E1,7E0,1.0547554E3,-1.7968682E0,2.7423135E3,4E0,2.2711687E3,3E0,4.8005674E3,-3.447899E3,8E0,5.074164E3,7.5786084E2,6E0,-1.231637E3,-9.816908E2,-5.486778E1],"split_indices":[2,2,1,1,1,1,0,0,0,1,0,1,0,0,1,0,0,1,0,0,0],"split_type":[0,0,0,0,0,0,0,0,0,0,0,0,0,0,0,0,0,0,0,0,0],"sum_hessian":[2.8E1,1.9E1,9E0,6E0,1.3E1,7E0,2E0,3E0,3E0,1.1E1,2E0,4E0,3E0,2E0,9E0,2E0,2E0,6E0,3E0,3E0,3E0],"tree_param":{"num_deleted":"0","num_feature":"3","num_nodes":"21","size_leaf_vector":"1"}},{"base_weights":[5.4737485E3,2.0909082E4,2.2580518E3,1.3236813E3,4.4495103E3,-5.493692E3,1.0009795E4,-1.0529633E4,1.183548E3,1.5256013E4,2.6650852E3,-3.8228098E3,-1.5895086E4,4.1003853E3,3.709177E3,1.70797E3,-1.7417405E3,6.40527E2,-1.5817411E3,-3.4609468E3,-9.539768E2,1.3086058E3,-2.9904974E2],"categories":[],"categories_nodes":[],"categories_segments":[],"categories_sizes":[],"default_left":[0,0,0,0,0,0,0,0,0,0,0,0,0,0,0,0,0,0,0,0,0,0,0],"id":34,"left_children":[1,3,5,-1,-1,7,9,11,-1,13,15,17,19,21,-1,-1,-1,-1,-1,-1,-1,-1,-1],"loss_changes":[1.439425E9,7.736763E8,1.4421487E9,0E0,0E0,9.129855E8,4.623835E8,3.2386618E8,0E0,1.1615135E9,9.423125E8,3.2586768E8,4.9765363E8,1.705432E8,0E0,0E0,0E0,0E0,0E0,0E0,0E0,0E0,0E0],"parents":[2147483647,0,0,1,1,2,2,5,5,6,6,7,7,9,9,10,10,11,11,12,12,13,13],"right_children":[2,4,6,-1,-1,8,10,12,-1,14,16,18,20,22,-1,-1,-1,-1,-1,-1,-1,-1,-1],"split_conditions":[3E0,2.022E3,8E0,1.3236813E3,4.4495103E3,2.022E3,1.1E1,2.02E3,1.183548E3,9E0,2.022E3,5E0,5E0,2.021E3,3.709177E3,1.70797E3,-1.7417405E3,6.40527E2,-1.5817411E3,-3.4609468E3,-9.539768E2,1.3086058E3,-2.9904974E2],"split_indices":[1,2,1,0,0,2,1,2,0,1,2,1,1,2,0,0,0,0,0,0,0,0,0],"split_type":[0,0,0,0,0,0,0,0,0,0,0,0,0,0,0,0,0,0,0,0,0,0,0],"sum_hessian":[2.9E1,5E0,2.4E1,3E0,2E0,1.2E1,1.2E1,9E0,3E0,7E0,5E0,4E0,5E0,4E0,3E0,3E0,2E0,2E0,2E0,2E0,3E0,2E0,2E0],"tree_param":{"num_deleted":"0","num_feature":"3","num_nodes":"23","size_leaf_vector":"1"}},{"base_weights":[-5.7271025E3,1.3526372E3,-9.308839E3,-3.9573453E2,-1.174653E4,-1.5278243E4,-4.3158942E2,-1.3606522E3,-1.844734E4,-2.0937847E3,-2.4481355E3],"categories":[],"categories_nodes":[],"categories_segments":[],"categories_sizes":[],"default_left":[0,0,0,0,0,0,0,0,0,0,0],"id":35,"left_children":[1,-1,3,-1,5,7,-1,-1,9,-1,-1],"loss_changes":[1.01775443E9,0E0,2.0798195E8,0E0,2.9103667E8,9.373594E7,0E0,0E0,8.284416E6,0E0,0E0],"parents":[2147483647,0,0,2,2,4,4,5,5,8,8],"right_children":[2,-1,4,-1,6,8,-1,-1,10,-1,-1],"split_conditions":[2.02E3,1.3526372E3,3E0,-3.9573453E2,2.021E3,7E0,-4.3158942E2,-1.3606522E3,1E1,-2.0937847E3,-2.4481355E3],"split_indices":[2,0,1,0,2,1,0,0,1,0,0],"split_type":[0,0,0,0,0,0,0,0,0,0,0],"sum_hessian":[1.7E1,3E0,1.4E1,4E0,1E1,7E0,3E0,3E0,4E0,2E0,2E0],"tree_param":{"num_deleted":"0","num_feature":"3","num_nodes":"11","size_leaf_vector":"1"}},{"base_weights":[-1.9070231E3,7.4614E3,-1.0338604E4,1.8241859E3,3.347427E3,-2.4752725E4,1.1282582E4,7.586927E3,-1.5489891E3,-1.2065171E4,-6.1709854E3,4.313676E3,-1.5357908E3,-2.860196E2,2.7640007E3,-3.8275063E3,8.569401E2],"categories":[],"categories_nodes":[],"categories_segments":[],"categories_sizes":[],"default_left":[0,0,0,0,0,0,0,0,0,0,0,0,0,0,0,0,0],"id":36,"left_children":[1,3,5,7,-1,9,11,13,-1,15,-1,-1,-1,-1,-1,-1,-1],"loss_changes":[1.500822E9,1.0010112E9,3.1165056E9,5.8116077E8,0E0,1.9316833E9,2.257776E9,7.366056E8,0E0,1.4479878E9,0E0,0E0,0E0,0E0,0E0,0E0,0E0],"parents":[2147483647,0,0,1,1,2,2,3,3,5,5,6,6,7,7,9,9],"right_children":[2,4,6,8,-1,10,12,14,-1,16,-1,-1,-1,-1,-1,-1,-1],"split_conditions":[2.5E1,2.05E1,3.85E1,1.34E1,3.347427E3,3.32E1,5.2E1,3.25E0,-1.5489891E3,2.02E3,-6.1709854E3,4.313676E3,-1.5357908E3,-2.860196E2,2.7640007E3,-3.8275063E3,8.569401E2],"split_indices":[0,0,0,0,0,0,0,0,0,2,0,0,0,0,0,0,0],"split_type":[0,0,0,0,0,0,0,0,0,0,0,0,0,0,0,0,0],"sum_hessian":[1.9E1,9E0,1E1,7E0,2E0,6E0,4E0,5E0,2E0,4E0,2E0,2E0,2E0,3E0,2E0,2E0,2E0],"tree_param":{"num_deleted":"0","num_feature":"3","num_nodes":"17","size_leaf_vector":"1"}},{"base_weights":[-6.957242E3,-5.3291084E3,-2.6603525E3,-2.7128296E3,-2.2664253E3,1.4903712E2,-1.0582957E4,-3.276971E3,1.916261E3,-1.0379381E3,-1.5676923E3,2.5244485E3,-1.0528742E4,7.9472375E2,-1.1862103E1,-1.044385E3,-1.5478969E3],"categories":[],"categories_nodes":[],"categories_segments":[],"categories_sizes":[],"default_left":[0,0,0,0,0,0,0,0,0,0,0,0,0,0,0,0,0],"id":37,"left_children":[1,3,-1,5,-1,7,9,11,-1,-1,-1,13,15,-1,-1,-1,-1],"loss_changes":[4.771461E8,6.160417E8,0E0,3.378489E8,0E0,5.8100736E8,1.8517824E7,3.7863526E8,0E0,0E0,0E0,5.151465E7,1.6728608E7,0E0,0E0,0E0,0E0],"parents":[2147483647,0,0,1,1,3,3,5,5,6,6,7,7,11,11,12,12],"right_children":[2,4,-1,6,-1,8,10,12,-1,-1,-1,14,16,-1,-1,-1,-1],"split_conditions":[3.32E1,1E1,-2.6603525E3,3.1E1,-2.2664253E3,2.325E1,4E0,5.75E0,1.916261E3,-1.0379381E3,-1.5676923E3,2.2E0,2.18E1,7.9472375E2,-1.1862103E1,-1.044385E3,-1.5478969E3],"split_indices":[0,1,0,0,0,0,1,0,0,0,0,0,0,0,0,0,0],"split_type":[0,0,0,0,0,0,0,0,0,0,0,0,0,0,0,0,0],"sum_hessian":[2E1,1.8E1,2E0,1.5E1,3E0,1.1E1,4E0,9E0,2E0,2E0,2E0,5E0,4E0,2E0,3E0,2E0,2E0],"tree_param":{"num_deleted":"0","num_feature":"3","num_nodes":"17","size_leaf_vector":"1"}},{"base_weights":[-1.0862036E3,-6.3891284E3,3.4591606E3,-1.1248558E3,-1.37591045E4,9.418635E3,-1.1439521E4,-6.365158E3,7.216684E2,-2.1103772E3,-1.068972E3,3.6822686E3,4.295389E3,-1.7973011E3,-1.0192237E3,-4.7636868E2,-1.0907971E3,-3.7245464E3,1.5812198E4,9.011654E3,3.6209219E3,3.1485125E3,-9.2975287E2],"categories":[],"categories_nodes":[],"categories_segments":[],"categories_sizes":[],"default_left":[0,0,0,0,0,0,0,0,0,0,0,0,0,0,0,0,0,0,0,0,0,0,0],"id":38,"left_children":[1,3,5,7,9,11,13,15,-1,-1,-1,-1,17,-1,-1,-1,-1,-1,19,21,-1,-1,-1],"loss_changes":[6.2669696E8,4.6557078E8,1.2430368E9,2.563007E8,8.587501E7,1.04990394E9,3.994752E7,2.4910864E7,0E0,0E0,0E0,0E0,3.1832855E9,0E0,0E0,0E0,0E0,0E0,5.5496704E8,1.0974868E9,0E0,0E0,0E0],"parents":[2147483647,0,0,1,1,2,2,3,3,4,4,5,5,6,6,7,7,12,12,18,18,19,19],"right_children":[2,4,6,8,10,12,14,16,-1,-1,-1,-1,18,-1,-1,-1,-1,-1,20,22,-1,-1,-1],"split_conditions":[2.325E1,1.34E1,3.82E1,4E0,6E0,5E0,5E1,2.2E0,7.216684E2,-2.1103772E3,-1.068972E3,3.6822686E3,7E0,-1.7973011E3,-1.0192237E3,-4.7636868E2,-1.0907971E3,-3.7245464E3,3.12E1,2.95E1,3.6209219E3,3.1485125E3,-9.2975287E2],"split_indices":[0,0,0,0,1,1,0,0,0,0,0,0,1,0,0,0,0,0,0,0,0,0,0],"split_type":[0,0,0,0,0,0,0,0,0,0,0,0,0,0,0,0,0,0,0,0,0,0,0],"sum_hessian":[2.6E1,1.2E1,1.4E1,7E0,5E0,1E1,4E0,4E0,3E0,3E0,2E0,2E0,8E0,2E0,2E0,2E0,2E0,2E0,6E0,4E0,2E0,2E0,2E0],"tree_param":{"num_deleted":"0","num_feature":"3","num_nodes":"23","size_leaf_vector":"1"}},{"base_weights":[-2.6521035E3,-5.2543623E3,2.0227542E3,-2.7260422E3,-3.5653933E3,2.4517847E3,-6.174461E3,-1.3508741E4,-3.3535818E3,-4.476318E2,-3.4860364E3,-6.366484E1,-1.075589E4,-7.495441E3,3.194273E3,1.3799507E2,-2.7862031E3,-9.386853E3,-6.122697E2,-9.517646E2,-1.3593727E3],"categories":[],"categories_nodes":[],"categories_segments":[],"categories_sizes":[],"default_left":[0,0,0,0,0,0,0,0,0,0,0,0,0,0,0,0,0,0,0,0,0],"id":39,"left_children":[1,3,-1,-1,5,-1,7,9,11,-1,-1,13,15,17,-1,-1,-1,19,-1,-1,-1],"loss_changes":[1.2414872E9,6.2757434E8,0E0,0E0,1.2253014E9,0E0,3.7240397E8,7.3100525E8,3.165888E8,0E0,0E0,1.7397851E9,5.642374E8,3.3389376E7,0E0,0E0,0E0,1.0962848E7,0E0,0E0,0E0],"parents":[2147483647,0,0,1,1,4,4,6,6,7,7,8,8,11,11,12,12,13,13,17,17],"right_children":[2,4,-1,-1,6,-1,8,10,12,-1,-1,14,16,18,-1,-1,-1,20,-1,-1,-1],"split_conditions":[3.85E1,3E0,2.0227542E3,-2.7260422E3,4E0,2.4517847E3,6E0,2.275E1,1E1,-4.476318E2,-3.4860364E3,3.15E1,1.95E1,8E0,3.194273E3,1.3799507E2,-2.7862031E3,3.25E0,-6.122697E2,-9.517646E2,-1.3593727E3],"split_indices":[0,1,0,0,1,0,1,0,1,0,0,0,0,1,0,0,0,0,0,0,0],"split_type":[0,0,0,0,0,0,0,0,0,0,0,0,0,0,0,0,0,0,0,0,0],"sum_hessian":[2.5E1,2.2E1,3E0,2E0,2E1,2E0,1.8E1,5E0,1.3E1,3E0,2E0,9E0,4E0,7E0,2E0,2E0,2E0,4E0,3E0,2E0,2E0],"tree_param":{"num_deleted":"0","num_feature":"3","num_nodes":"21","size_leaf_vector":"1"}},{"base_weights":[2.2618958E3,4.1618784E3,-1.6813129E3,5.241131E3,-1.0581597E4,-3.4243127E3,4.378866E3,1.2299789E3,-1.8810752E4,-3.1944696E2,-9.311829E2,-1.8809705E3,-2.9677896E3,-1.4994756E2,7.1296486E1],"categories":[],"categories_nodes":[],"categories_segments":[],"categories_sizes":[],"default_left":[0,0,0,0,0,0,0,0,0,0,0,0,0,0,0],"id":40,"left_children":[1,-1,3,5,7,9,-1,-1,11,13,-1,-1,-1,-1,-1],"loss_changes":[2.2390382E9,0E0,9.8578765E8,2.3653304E9,1.1850835E9,8.997505E7,0E0,0E0,9.352755E7,3.229919E6,0E0,0E0,0E0,0E0,0E0],"parents":[2147483647,0,0,2,2,3,3,4,4,5,5,8,8,9,9],"right_children":[2,-1,4,6,8,10,-1,-1,12,14,-1,-1,-1,-1,-1],"split_conditions":[3E0,4.1618784E3,2.5E1,8E0,4E0,5E0,4.378866E3,1.2299789E3,3.12E1,1.1E1,-9.311829E2,-1.8809705E3,-2.9677896E3,-1.4994756E2,7.1296486E1],"split_indices":[1,0,0,1,1,1,0,0,0,0,0,0,0,0,0],"split_type":[0,0,0,0,0,0,0,0,0,0,0,0,0,0,0],"sum_hessian":[1.8E1,2E0,1.6E1,9E0,7E0,7E0,2E0,2E0,5E0,4E0,3E0,3E0,2E0,2E0,2E0],"tree_param":{"num_deleted":"0","num_feature":"3","num_nodes":"15","size_leaf_vector":"1"}},{"base_weights":[3.921121E3,-2.7372993E3,1.5573354E4,-7.892895E3,3.4711013E3,2.1417473E4,-2.411635E2,-1.206901E4,-3.716776E3,1.4385459E4,4.367948E3,-6.747314E2,-2.2967805E3,-8.901724E2,-2.4935247E1,2.2843313E3,1.257513E3],"categories":[],"categories_nodes":[],"categories_segments":[],"categories_sizes":[],"default_left":[0,0,0,0,0,0,0,0,0,0,0,0,0,0,0,0,0],"id":41,"left_children":[1,3,5,7,-1,9,-1,11,13,15,-1,-1,-1,-1,-1,-1,-1],"loss_changes":[1.7068805E9,2.2327327E9,8.196897E8,2.092793E8,0E0,5.933875E8,0E0,2.6041555E8,7.409854E7,6.957158E7,0E0,0E0,0E0,0E0,0E0,0E0,0E0],"parents":[2147483647,0,0,1,1,2,2,3,3,5,5,7,7,8,8,9,9],"right_children":[2,4,6,8,-1,10,-1,12,14,16,-1,-1,-1,-1,-1,-1,-1],"split_conditions":[7E0,2.022E3,1.2E1,4E0,3.4711013E3,1E1,-2.411635E2,2.021E3,2.02E3,8E0,4.367948E3,-6.747314E2,-2.2967805E3,-8.901724E2,-2.4935247E1,2.2843313E3,1.257513E3],"split_indices":[1,2,1,1,0,1,0,2,2,1,0,0,0,0,0,0,0],"split_type":[0,0,0,0,0,0,0,0,0,0,0,0,0,0,0,0,0],"sum_hessian":[2.2E1,1.4E1,8E0,1.2E1,2E0,6E0,2E0,6E0,6E0,4E0,2E0,3E0,3E0,3E0,3E0,2E0,2E0],"tree_param":{"num_deleted":"0","num_feature":"3","num_nodes":"17","size_leaf_vector":"1"}},{"base_weights":[1.4899984E3,-2.3983223E3,1.1210797E4,2.4506648E3,-2.6829841E3,2.3088125E4,-1.5442129E3,5.802109E2,1.4529998E3,3.5451875E3,2.1393406E3,2.1324087E3,-6.929062E2,1.2661716E3,-5.852221E2,-8.021268E2,2.3800632E3,9.456768E2,-3.5968134E2],"categories":[],"categories_nodes":[],"categories_segments":[],"categories_sizes":[],"default_left":[0,0,0,0,0,0,0,0,0,0,0,0,0,0,0,0,0,0,0],"id":42,"left_children":[1,3,5,7,-1,9,-1,11,-1,-1,-1,13,-1,-1,15,-1,17,-1,-1],"loss_changes":[7.937494E8,1.4107598E9,1.6928525E9,2.0991558E8,0E0,1.3041242E8,0E0,9.637267E7,0E0,0E0,0E0,1.7725224E8,0E0,0E0,1.05515E8,0E0,1.1243662E8,0E0,0E0],"parents":[2147483647,0,0,1,1,2,2,3,3,5,5,7,7,11,11,14,14,16,16],"right_children":[2,4,6,8,-1,10,-1,12,-1,-1,-1,14,-1,-1,16,-1,18,-1,-1],"split_conditions":[3.375E1,3E1,5.675E1,2.325E1,-2.6829841E3,3.725E1,-1.5442129E3,2.05E1,1.4529998E3,3.5451875E3,2.1393406E3,2.02E3,-6.929062E2,1.2661716E3,3.2E0,-8.021268E2,8.8E0,9.456768E2,-3.5968134E2],"split_indices":[0,0,0,0,0,0,0,0,0,0,0,2,0,0,0,0,0,0,0],"split_type":[0,0,0,0,0,0,0,0,0,0,0,0,0,0,0,0,0,0,0],"sum_hessian":[2.1E1,1.5E1,6E0,1.2E1,3E0,4E0,2E0,1E1,2E0,2E0,2E0,8E0,2E0,2E0,6E0,2E0,4E0,2E0,2E0],"tree_param":{"num_deleted":"0","num_feature":"3","num_nodes":"19","size_leaf_vector":"1"}},{"base_weights":[4.535348E3,1.5722916E3,1.5646802E4,-3.068062E3,1.0852995E4,1.8014723E3,2.0509272E3,-1.2851211E3,-1.255649E3,4.2395723E3,-5.9961847E2,-4.204179E3,1.633938E3,-5.711459E2,-4.639652E2,6.2851764E2,-2.2622572E2],"categories":[],"categories_nodes":[],"categories_segments":[],"categories_sizes":[],"default_left":[0,0,0,0,0,0,0,0,0,0,0,0,0,0,0,0,0],"id":43,"left_children":[1,3,5,7,9,-1,-1,11,-1,-1,-1,13,15,-1,-1,-1,-1],"loss_changes":[6.255534E8,6.4598637E8,4.105472E6,1.2715489E8,1.8542788E9,0E0,0E0,6.816727E7,0E0,0E0,0E0,7.57968E5,4.8208092E7,0E0,0E0,0E0,0E0],"parents":[2147483647,0,0,1,1,2,2,3,3,4,4,7,7,11,11,12,12],"right_children":[2,4,6,8,10,-1,-1,12,-1,-1,-1,14,16,-1,-1,-1,-1],"split_conditions":[2.022E3,3.15E1,3.62E1,2.275E1,4.575E1,1.8014723E3,2.0509272E3,4E0,-1.255649E3,4.2395723E3,-5.9961847E2,2.2E0,2.021E3,-5.711459E2,-4.639652E2,6.2851764E2,-2.2622572E2],"split_indices":[2,0,0,0,0,0,0,0,0,0,0,0,2,0,0,0,0],"split_type":[0,0,0,0,0,0,0,0,0,0,0,0,0,0,0,0,0],"sum_hessian":[1.9E1,1.5E1,4E0,1E1,5E0,2E0,2E0,8E0,2E0,2E0,3E0,4E0,4E0,2E0,2E0,2E0,2E0],"tree_param":{"num_deleted":"0","num_feature":"3","num_nodes":"17","size_leaf_vector":"1"}},{"base_weights":[2.5384236E2,1.2351156E3,-4.705419E2,-4.3247793E3,2.6128481E3,3.0633748E3,-9.602031E3,4.863461E3,-1.888377E3,8.433868E2,-3.2228772E2,-1.2487743E4,-2.9394354E2,-4.0511863E3,1.8235424E4,1.4920447E3,-2.8192375E3,-1.3543975E3,-1.6592417E3,-1.2491024E3,-1.0034572E3,2.38526E3,2.1044846E3,-1.9837611E2,-4.8685093E1],"categories":[],"categories_nodes":[],"categories_segments":[],"categories_sizes":[],"default_left":[0,0,0,0,0,0,0,0,0,0,0,0,0,0,0,0,0,0,0,0,0,0,0,0,0],"id":44,"left_children":[1,-1,3,5,7,9,11,13,15,-1,-1,17,-1,19,21,-1,-1,-1,-1,-1,23,-1,-1,-1,-1],"loss_changes":[2.0543256E8,0E0,3.2087123E8,4.6786998E8,1.5195774E8,1.0759304E8,1.4572845E8,1.1920639E9,1.4717788E9,0E0,0E0,7.357952E6,0E0,1.1146367E8,5.200896E6,0E0,0E0,0E0,0E0,0E0,1.47856E6,0E0,0E0,0E0,0E0],"parents":[2147483647,0,0,2,2,3,3,4,4,5,5,6,6,7,7,8,8,11,11,13,13,14,14,20,20],"right_children":[2,-1,4,6,8,10,12,14,16,-1,-1,18,-1,20,22,-1,-1,-1,-1,-1,24,-1,-1,-1,-1],"split_conditions":[2E0,1.2351156E3,2.021E3,2.02E3,8E0,9E0,1E1,2.022E3,2.022E3,8.433868E2,-3.2228772E2,4E0,-2.9394354E2,4E0,5E0,1.4920447E3,-2.8192375E3,-1.3543975E3,-1.6592417E3,-1.2491024E3,6E0,2.38526E3,2.1044846E3,-1.9837611E2,-4.8685093E1],"split_indices":[1,0,2,2,1,1,1,2,2,0,0,1,0,1,1,0,0,0,0,0,1,0,0,0,0],"split_type":[0,0,0,0,0,0,0,0,0,0,0,0,0,0,0,0,0,0,0,0,0,0,0,0,0],"sum_hessian":[2.9E1,2E0,2.7E1,1.2E1,1.5E1,5E0,7E0,1E1,5E0,3E0,2E0,5E0,2E0,6E0,4E0,3E0,2E0,2E0,3E0,2E0,4E0,2E0,2E0,2E0,2E0],"tree_param":{"num_deleted":"0","num_feature":"3","num_nodes":"25","size_leaf_vector":"1"}},{"base_weights":[-3.5673352E2,3.2301194E3,-2.669384E3,-7.564431E3,4.945134E3,-4.214888E3,-1.593828E4,-5.373301E2,2.9709856E3,4.1062227E3,-1.2535997E4,-3.1748406E3,-7.4932385E2,6.335047E2,-4.799864E3,-1.7562914E2,1.5271849E3,-2.5160886E3,-8.9468097E2,-9.118632E2,-2.6991138E2],"categories":[],"categories_nodes":[],"categories_segments":[],"categories_sizes":[],"default_left":[0,0,0,0,0,0,0,0,0,0,0,0,0,0,0,0,0,0,0,0,0],"id":45,"left_children":[1,-1,3,5,7,9,11,13,-1,15,17,-1,-1,-1,19,-1,-1,-1,-1,-1,-1],"loss_changes":[1.5376497E9,0E0,8.5728896E8,3.9267987E8,9.4680755E8,6.9240896E8,3.8820064E8,1.6957925E8,0E0,2.295958E8,2.0816755E8,0E0,0E0,0E0,2.7192688E7,0E0,0E0,0E0,0E0,0E0,0E0],"parents":[2147483647,0,0,2,2,3,3,4,4,5,5,6,6,7,7,9,9,10,10,14,14],"right_children":[2,-1,4,6,8,10,12,14,-1,16,18,-1,-1,-1,20,-1,-1,-1,-1,-1,-1],"split_conditions":[3E0,3.2301194E3,2.021E3,1.1E1,1.1E1,2.02E3,2.02E3,5E0,2.9709856E3,6E0,5E0,-3.1748406E3,-7.4932385E2,6.335047E2,8E0,-1.7562914E2,1.5271849E3,-2.5160886E3,-8.9468097E2,-9.118632E2,-2.6991138E2],"split_indices":[1,0,2,1,1,2,2,1,0,1,1,0,0,0,1,0,0,0,0,0,0],"split_type":[0,0,0,0,0,0,0,0,0,0,0,0,0,0,0,0,0,0,0,0,0],"sum_hessian":[2.5E1,2E0,2.3E1,1.4E1,9E0,1E1,4E0,7E0,2E0,5E0,5E0,2E0,2E0,3E0,4E0,3E0,2E0,2E0,3E0,2E0,2E0],"tree_param":{"num_deleted":"0","num_feature":"3","num_nodes":"21","size_leaf_vector":"1"}},{"base_weights":[4.068096E1,4.3597646E3,-2.6804226E3,-6.749968E1,-1.1390161E4,-6.235143E3,6.100144E3,-2.4343867E3,-3.6998578E2,-1.8720067E3,-2.916072E3,2.778452E3,-9.582663E2,-5.9266714E3,1.266995E3,3.6025165E2,-2.5121235E3,2.690843E2,-9.98291E3,-4.4045938E2,-1.1244864E2,-2.5154663E2,-2.206346E3],"categories":[],"categories_nodes":[],"categories_segments":[],"categories_sizes":[],"default_left":[0,0,0,0,0,0,0,0,0,0,0,0,0,0,0,0,0,0,0,0,0,0,0],"id":46,"left_children":[1,-1,3,5,7,9,11,-1,-1,13,-1,-1,15,17,-1,-1,19,-1,21,-1,-1,-1,-1],"loss_changes":[2.6952003E9,0E0,5.917048E8,7.6079674E8,4.2182016E8,7.6147725E8,1.1624929E9,0E0,0E0,3.9456726E8,0E0,0E0,4.2253276E7,1.974371E8,0E0,0E0,8.519314E6,0E0,2.5214618E8,0E0,0E0,0E0,0E0],"parents":[2147483647,0,0,2,2,3,3,4,4,5,5,6,6,9,9,12,12,13,13,16,16,18,18],"right_children":[2,-1,4,6,8,10,12,-1,-1,14,-1,-1,16,18,-1,-1,20,-1,22,-1,-1,-1,-1],"split_conditions":[2E0,4.3597646E3,1.1E1,6E0,1.2E1,5E0,8E0,-2.4343867E3,-3.6998578E2,2.022E3,-2.916072E3,2.778452E3,2.021E3,2.02E3,1.266995E3,3.6025165E2,2.022E3,2.690843E2,3E0,-4.4045938E2,-1.1244864E2,-2.5154663E2,-2.206346E3],"split_indices":[1,0,1,1,1,1,1,0,0,2,0,0,2,2,0,0,2,0,1,0,0,0,0],"split_type":[0,0,0,0,0,0,0,0,0,0,0,0,0,0,0,0,0,0,0,0,0,0,0],"sum_hessian":[2.8E1,2E0,2.6E1,2E1,6E0,1E1,1E1,3E0,3E0,8E0,2E0,3E0,7E0,6E0,2E0,2E0,5E0,2E0,4E0,3E0,2E0,2E0,2E0],"tree_param":{"num_deleted":"0","num_feature":"3","num_nodes":"23","size_leaf_vector":"1"}},{"base_weights":[4.2248676E2,3.8230574E3,-2.0281359E3,-5.0102134E3,4.308778E3,-1.0140595E4,-3.4316323E3,1.1426E4,-2.8084473E3,-1.3148588E3,-1.1818573E3,-2.5691084E3,-1.0064463E3,1.1975696E3,1.6156262E3,-9.8607025E1,-5.9286084E2,3.309984E3,-5.92859E3,5.7802716E2,2.3692407E2,-1.8800645E3,-2.191208E3,-1.7335095E2,-3.3401395E2],"categories":[],"categories_nodes":[],"categories_segments":[],"categories_sizes":[],"default_left":[0,0,0,0,0,0,0,0,0,0,0,0,0,0,0,0,0,0,0,0,0,0,0,0,0],"id":47,"left_children":[1,-1,3,5,7,9,11,13,15,-1,-1,17,-1,-1,-1,-1,-1,19,21,-1,-1,-1,23,-1,-1],"loss_changes":[2.0268713E9,0E0,4.724293E8,1.3767814E8,4.052392E8,1.166944E6,5.3192096E7,1.1532E7,1.611936E7,0E0,0E0,2.1725782E8,0E0,0E0,0E0,0E0,0E0,7.677468E6,2.4443992E8,0E0,0E0,0E0,2.043894E6,0E0,0E0],"parents":[2147483647,0,0,2,2,3,3,4,4,5,5,6,6,7,7,8,8,11,11,17,17,18,18,22,22],"right_children":[2,-1,4,6,8,10,12,14,16,-1,-1,18,-1,-1,-1,-1,-1,20,22,-1,-1,-1,24,-1,-1],"split_conditions":[2E0,3.8230574E3,2.022E3,4E0,8E0,2.021E3,1.1E1,5E0,1.1E1,-1.3148588E3,-1.1818573E3,2.02E3,-1.0064463E3,1.1975696E3,1.6156262E3,-9.8607025E1,-5.9286084E2,9E0,2.021E3,5.7802716E2,2.3692407E2,-1.8800645E3,7E0,-1.7335095E2,-3.3401395E2],"split_indices":[1,0,2,1,1,2,1,1,1,0,0,2,0,0,0,0,0,1,2,0,0,0,1,0,0],"split_type":[0,0,0,0,0,0,0,0,0,0,0,0,0,0,0,0,0,0,0,0,0,0,0,0,0],"sum_hessian":[2.7E1,2E0,2.5E1,1.7E1,8E0,4E0,1.3E1,4E0,4E0,2E0,2E0,1.1E1,2E0,2E0,2E0,2E0,2E0,4E0,7E0,2E0,2E0,2E0,5E0,2E0,3E0],"tree_param":{"num_deleted":"0","num_feature":"3","num_nodes":"25","size_leaf_vector":"1"}},{"base_weights":[-2.4229375E3,-5.6700664E3,5.045458E3,-7.7648267E3,1.02115643E3,1.4685178E4,-9.414122E3,-1.177861E3,-1.1311653E4,3.0144822E3,6.011569E2,-8.320431E2,-1.4858082E3,-4.367475E3,8.366432E2,-2.1709492E3,-9.414668E3,-7.245461E2,-2.573265E2,-5.0125247E2,-1.0750396E4,-1.924297E3,-7.8218267E3,-7.0312335E2,-1.1360948E3],"categories":[],"categories_nodes":[],"categories_segments":[],"categories_sizes":[],"default_left":[0,0,0,0,0,0,0,0,0,0,0,0,0,0,0,0,0,0,0,0,0,0,0,0,0],"id":48,"left_children":[1,3,5,7,-1,9,11,13,15,-1,-1,-1,-1,17,-1,-1,19,-1,-1,-1,21,-1,23,-1,-1],"loss_changes":[8.0027795E8,6.728299E8,1.3938638E9,4.6725658E8,0E0,5.764621E8,2.8202496E7,1.7803872E8,1.5593664E8,0E0,0E0,0E0,0E0,1.7285032E7,0E0,0E0,7.136685E7,0E0,0E0,0E0,1.1435296E8,0E0,1.4843744E7,0E0,0E0],"parents":[2147483647,0,0,1,1,2,2,3,3,5,5,6,6,7,7,8,8,13,13,16,16,20,20,22,22],"right_children":[2,4,6,8,-1,10,12,14,16,-1,-1,-1,-1,18,-1,-1,20,-1,-1,-1,22,-1,24,-1,-1],"split_conditions":[3.32E1,2.022E3,3.725E1,1.1E1,1.02115643E3,2.022E3,5.2E1,4E0,2.15E1,3.0144822E3,6.011569E2,-8.320431E2,-1.4858082E3,3.2E0,8.366432E2,-2.1709492E3,2.275E1,-7.245461E2,-2.573265E2,-5.0125247E2,2.6E1,-1.924297E3,3E1,-7.0312335E2,-1.1360948E3],"split_indices":[0,2,0,0,0,2,0,0,0,0,0,0,0,0,0,0,0,0,0,0,0,0,0,0,0],"split_type":[0,0,0,0,0,0,0,0,0,0,0,0,0,0,0,0,0,0,0,0,0,0,0,0,0],"sum_hessian":[3.3E1,2.3E1,1E1,2E1,3E0,6E0,4E0,7E0,1.3E1,3E0,3E0,2E0,2E0,5E0,2E0,3E0,1E1,3E0,2E0,2E0,8E0,3E0,5E0,2E0,3E0],"tree_param":{"num_deleted":"0","num_feature":"3","num_nodes":"25","size_leaf_vector":"1"}},{"base_weights":[2.09693E3,-2.7295654E3,6.923425E3,1.4510164E3,-1.3181015E4,1.3952045E4,-1.0648121E4,4.6465894E3,-3.3423425E3,-2.4807915E3,-7.645066E2,4.0672432E3,2.0541906E4,-2.450749E3,-1.709254E2,1.3484108E3,1.4932134E3,-1.410345E3,5.8742664E2,-1.701463E3,2.7028591E3,4.5284727E3,1.2420132E4,-7.942679E1,4.4707092E2,4.2828204E2,2.6296792E3],"categories":[],"categories_nodes":[],"categories_segments":[],"categories_sizes":[],"default_left":[0,0,0,0,0,0,0,0,0,0,0,0,0,0,0,0,0,0,0,0,0,0,0,0,0,0,0],"id":49,"left_children":[1,3,5,7,9,11,13,15,17,-1,-1,19,21,-1,-1,-1,23,-1,-1,-1,-1,-1,25,-1,-1,-1,-1],"loss_changes":[6.522617E8,6.1170406E8,1.7290527E9,1.5317534E8,1.9436858E8,6.513947E8,3.4296554E8,1.1932515E8,2.6335413E8,0E0,0E0,1.2799903E9,7.9155584E8,0E0,0E0,0E0,1.8291164E7,0E0,0E0,0E0,0E0,0E0,3.197751E8,0E0,0E0,0E0,0E0],"parents":[2147483647,0,0,1,1,2,2,3,3,4,4,5,5,6,6,7,7,8,8,11,11,12,12,16,16,22,22],"right_children":[2,4,6,8,10,12,14,16,18,-1,-1,20,22,-1,-1,-1,24,-1,-1,-1,-1,-1,26,-1,-1,-1,-1],"split_conditions":[2.3E1,2.05E1,1E1,7E0,2.18E1,7E0,1.2E1,2.2E0,3.2E0,-2.4807915E3,-7.645066E2,3.15E1,8E0,-2.450749E3,-1.709254E2,1.3484108E3,1.1E1,-1.410345E3,5.8742664E2,-1.701463E3,2.7028591E3,4.5284727E3,9E0,-7.942679E1,4.4707092E2,4.2828204E2,2.6296792E3],"split_indices":[0,0,1,1,0,1,1,0,0,0,0,0,1,0,0,0,0,0,0,0,0,0,1,0,0,0,0],"split_type":[0,0,0,0,0,0,0,0,0,0,0,0,0,0,0,0,0,0,0,0,0,0,0,0,0,0,0],"sum_hessian":[2.8E1,1.4E1,1.4E1,1E1,4E0,1E1,4E0,6E0,4E0,2E0,2E0,4E0,6E0,2E0,2E0,2E0,4E0,2E0,2E0,2E0,2E0,2E0,4E0,2E0,2E0,2E0,2E0],"tree_param":{"num_deleted":"0","num_feature":"3","num_nodes":"27","size_leaf_vector":"1"}},{"base_weights":[-8.3596484E2,2.5662217E3,-1.4444705E4,-3.586202E3,1.008585E4,-3.5074924E2,-2.7298606E3,1.01240643E3,-1.1633762E4,-2.0930475E2,1.5978878E4,4.5195806E3,-4.5103564E2,-2.18629E3,-6.780586E2,2.8940547E3,1.0401063E3,1.182415E3,-6.96489E1],"categories":[],"categories_nodes":[],"categories_segments":[],"categories_sizes":[],"default_left":[0,0,0,0,0,0,0,0,0,0,0,0,0,0,0,0,0,0,0],"id":50,"left_children":[1,3,5,7,9,-1,-1,11,13,-1,15,17,-1,-1,-1,-1,-1,-1,-1],"loss_changes":[1.1574871E9,9.252789E8,4.4818637E8,4.0708346E8,6.251007E8,0E0,0E0,1.14802616E8,1.50101E8,0E0,3.4019968E8,1.0344304E8,0E0,0E0,0E0,0E0,0E0,0E0,0E0],"parents":[2147483647,0,0,1,1,2,2,3,3,4,4,7,7,8,8,10,10,11,11],"right_children":[2,4,6,8,10,-1,-1,12,14,-1,16,18,-1,-1,-1,-1,-1,-1,-1],"split_conditions":[1.1E1,2.325E1,1.95E1,1.34E1,4E0,-3.5074924E2,-2.7298606E3,7E0,2.275E1,-2.0930475E2,3.375E1,2.2E0,-4.5103564E2,-2.18629E3,-6.780586E2,2.8940547E3,1.0401063E3,1.182415E3,-6.96489E1],"split_indices":[1,0,0,0,1,0,0,1,0,0,0,0,0,0,0,0,0,0,0],"split_type":[0,0,0,0,0,0,0,0,0,0,0,0,0,0,0,0,0,0,0],"sum_hessian":[2.5E1,2E1,5E0,1.1E1,9E0,2E0,3E0,7E0,4E0,3E0,6E0,4E0,3E0,2E0,2E0,3E0,3E0,2E0,2E0],"tree_param":{"num_deleted":"0","num_feature":"3","num_nodes":"19","size_leaf_vector":"1"}},{"base_weights":[3.155279E3,-7.16342E1,3.0367583E3,-3.1299775E3,5.608145E3,-6.0536665E3,8.144202E2,4.086344E3,-5.4261875E3,-3.4935354E3,-2.0058958E3,-1.4289365E3,-1.6069366E2,3.8261395E2,-5.6940566E3,-8.22331E3,-7.823893E1,-1.1811998E3,-8.434615E2],"categories":[],"categories_nodes":[],"categories_segments":[],"categories_sizes":[],"default_left":[0,0,0,0,0,0,0,0,0,0,0,0,0,0,0,0,0,0,0],"id":51,"left_children":[1,3,-1,5,7,9,-1,-1,11,13,-1,-1,-1,-1,15,17,-1,-1,-1],"loss_changes":[1.5966538E9,3.474144E8,0E0,3.7041165E8,2.1307378E9,2.6217024E8,0E0,0E0,1.2736035E8,1.16215096E8,0E0,0E0,0E0,0E0,7.676555E7,7.526592E6,0E0,0E0,0E0],"parents":[2147483647,0,0,1,1,3,3,4,4,5,5,8,8,9,9,14,14,15,15],"right_children":[2,4,-1,6,8,10,-1,-1,12,14,-1,-1,-1,-1,16,18,-1,-1,-1],"split_conditions":[3.58E1,2.022E3,3.0367583E3,2.95E1,3E1,2.275E1,8.144202E2,4.086344E3,3.32E1,2.02E3,-2.0058958E3,-1.4289365E3,-1.6069366E2,3.8261395E2,2.021E3,3.2E0,-7.823893E1,-1.1811998E3,-8.434615E2],"split_indices":[0,2,0,0,0,0,0,0,0,2,0,0,0,0,2,0,0,0,0],"split_type":[0,0,0,0,0,0,0,0,0,0,0,0,0,0,0,0,0,0,0],"sum_hessian":[2.3E1,2E1,3E0,1.3E1,7E0,1E1,3E0,2E0,5E0,8E0,2E0,2E0,3E0,2E0,6E0,4E0,2E0,2E0,2E0],"tree_param":{"num_deleted":"0","num_feature":"3","num_nodes":"19","size_leaf_vector":"1"}},{"base_weights":[-2.2863333E3,-3.945413E3,1.2843889E3,3.3914614E3,-7.858413E3,-8.9790247E2,1.2975764E3,-3.0483086E3,-5.257881E3,3.0510162E2,-7.339929E2,-4.0674492E3,-1.4532854E3,-5.8059546E3,4.6236093E2,-2.4131589E2,-7.728809E3,-1.1486296E3,-8.5286816E2],"categories":[],"categories_nodes":[],"categories_segments":[],"categories_sizes":[],"default_left":[0,0,0,0,0,0,0,0,0,0,0,0,0,0,0,0,0,0,0],"id":52,"left_children":[1,3,-1,5,7,9,-1,-1,11,-1,-1,13,-1,15,-1,-1,17,-1,-1],"loss_changes":[5.48674E8,6.6031155E8,0E0,2.4531514E8,6.5936806E8,8.5494824E7,0E0,0E0,1.0132432E8,0E0,0E0,1.4960891E8,0E0,6.655267E7,0E0,0E0,7.695904E6,0E0,0E0],"parents":[2147483647,0,0,1,1,3,3,4,4,5,5,8,8,11,11,13,13,16,16],"right_children":[2,4,-1,6,8,10,-1,-1,12,-1,-1,14,-1,16,-1,-1,18,-1,-1],"split_conditions":[3.85E1,1.34E1,1.2843889E3,4E0,2.15E1,2.2E0,1.2975764E3,-3.0483086E3,3.58E1,3.0510162E2,-7.339929E2,3.375E1,-1.4532854E3,2.325E1,4.6236093E2,-2.4131589E2,3.15E1,-1.1486296E3,-8.5286816E2],"split_indices":[0,0,0,0,0,0,0,0,0,0,0,0,0,0,0,0,0,0,0],"split_type":[0,0,0,0,0,0,0,0,0,0,0,0,0,0,0,0,0,0,0],"sum_hessian":[2.6E1,2.3E1,3E0,8E0,1.5E1,5E0,3E0,2E0,1.3E1,3E0,2E0,1.1E1,2E0,9E0,2E0,3E0,6E0,2E0,4E0],"tree_param":{"num_deleted":"0","num_feature":"3","num_nodes":"19","size_leaf_vector":"1"}},{"base_weights":[-6.0105923E1,2.5844333E3,-1.2621661E4,-3.0410984E3,1.4773082E4,-1.4815072E3,-1.6260723E3,-1.402873E3,-1.5220713E3,9.268103E3,3.1740203E3,1.0264194E3,-5.219506E3,2.5202136E3,-2.3831381E2,-1.1043506E3,-2.968728E3,3.4682263E2,-8.403243E2],"categories":[],"categories_nodes":[],"categories_segments":[],"categories_sizes":[],"default_left":[0,0,0,0,0,0,0,0,0,0,0,0,0,0,0,0,0,0,0],"id":53,"left_children":[1,3,5,7,9,-1,-1,-1,11,13,-1,-1,15,-1,-1,-1,17,-1,-1],"loss_changes":[7.640493E8,1.3027853E9,1.37856E6,1.6498192E8,3.6365606E8,0E0,0E0,0E0,4.0101664E8,5.0211472E8,0E0,0E0,6.75465E7,0E0,0E0,0E0,1.1159339E8,0E0,0E0],"parents":[2147483647,0,0,1,1,2,2,3,3,4,4,8,8,9,9,12,12,16,16],"right_children":[2,4,6,8,10,-1,-1,-1,12,14,-1,-1,16,-1,-1,-1,18,-1,-1],"split_conditions":[3.82E1,3.12E1,4.575E1,4E0,3.62E1,-1.4815072E3,-1.6260723E3,-1.402873E3,6E0,3.525E1,3.1740203E3,1.0264194E3,3.2E0,2.5202136E3,-2.3831381E2,-1.1043506E3,1.34E1,3.4682263E2,-8.403243E2],"split_indices":[0,0,0,1,0,0,0,0,1,0,0,0,0,0,0,0,0,0,0],"split_type":[0,0,0,0,0,0,0,0,0,0,0,0,0,0,0,0,0,0,0],"sum_hessian":[2.3E1,1.9E1,4E0,1.3E1,6E0,2E0,2E0,2E0,1.1E1,4E0,2E0,3E0,8E0,2E0,2E0,3E0,5E0,2E0,3E0],"tree_param":{"num_deleted":"0","num_feature":"3","num_nodes":"19","size_leaf_vector":"1"}},{"base_weights":[3.289061E3,-1.4647234E3,8.0428447E3,2.7391304E3,-1.3878511E3,-6.847392E2,2.113421E4,6.3858037E3,-2.613647E2,-1.5419469E3,5.235621E3,3.5942793E3,1.6091757E3,1.1759314E3,3.9631744E2,8.7404407E2,4.1501843E2],"categories":[],"categories_nodes":[],"categories_segments":[],"categories_sizes":[],"default_left":[0,0,0,0,0,0,0,0,0,0,0,0,0,0,0,0,0],"id":54,"left_children":[1,3,5,7,-1,9,11,13,-1,-1,15,-1,-1,-1,-1,-1,-1],"loss_changes":[4.5196934E8,4.1235562E8,1.1425603E9,1.24116904E8,0E0,4.2060803E8,2.6002355E8,4.010573E7,0E0,0E0,1.390336E7,0E0,0E0,0E0,0E0,0E0,0E0],"parents":[2147483647,0,0,1,1,2,2,3,3,5,5,6,6,7,7,10,10],"right_children":[2,4,6,8,-1,10,12,14,-1,-1,16,-1,-1,-1,-1,-1,-1],"split_conditions":[2.6E1,7E0,7E0,2.05E1,-1.3878511E3,3.225E1,8E0,5E0,-2.613647E2,-1.5419469E3,3.82E1,3.5942793E3,1.6091757E3,1.1759314E3,3.9631744E2,8.7404407E2,4.1501843E2],"split_indices":[0,1,1,0,0,0,1,1,0,0,0,0,0,0,0,0,0],"split_type":[0,0,0,0,0,0,0,0,0,0,0,0,0,0,0,0,0],"sum_hessian":[2E1,1E1,1E1,7E0,3E0,6E0,4E0,4E0,3E0,2E0,4E0,2E0,2E0,2E0,2E0,2E0,2E0],"tree_param":{"num_deleted":"0","num_feature":"3","num_nodes":"17","size_leaf_vector":"1"}},{"base_weights":[5.0327957E2,2.2721467E3,-2.0067286E3,-6.3505947E1,1.8132089E3,2.954024E3,-9.116091E3,-2.2555742E3,2.2876382E3,-1.3688441E3,-8.7562897E2,6.90548E2,-1.0030374E3,4.3104153E2,-7.148849E2,-3.5291266E2,1.769008E2],"categories":[],"categories_nodes":[],"categories_segments":[],"categories_sizes":[],"default_left":[0,0,0,0,0,0,0,0,0,0,0,0,0,0,0,0,0],"id":55,"left_children":[1,3,-1,5,-1,7,9,11,-1,-1,-1,13,-1,-1,15,-1,-1],"loss_changes":[6.242132E8,5.5280064E8,0E0,4.3706326E8,0E0,9.770364E8,1.6051456E7,1.5623336E8,0E0,0E0,0E0,2.3702892E7,0E0,0E0,1.852228E7,0E0,0E0],"parents":[2147483647,0,0,1,1,3,3,5,5,6,6,7,7,11,11,14,14],"right_children":[2,4,-1,6,-1,8,10,12,-1,-1,-1,14,-1,-1,16,-1,-1],"split_conditions":[3.58E1,3.32E1,-2.0067286E3,3.1E1,1.8132089E3,2.325E1,3.15E1,8E0,2.2876382E3,-1.3688441E3,-8.7562897E2,3.25E0,-1.0030374E3,4.3104153E2,5E0,-3.5291266E2,1.769008E2],"split_indices":[0,0,0,0,0,0,0,1,0,0,0,0,0,0,1,0,0],"split_type":[0,0,0,0,0,0,0,0,0,0,0,0,0,0,0,0,0],"sum_hessian":[2.1E1,1.9E1,2E0,1.6E1,3E0,1.2E1,4E0,9E0,3E0,2E0,2E0,6E0,3E0,2E0,4E0,2E0,2E0],"tree_param":{"num_deleted":"0","num_feature":"3","num_nodes":"17","size_leaf_vector":"1"}},{"base_weights":[-5.8677875E2,1.3614667E3,-4.916212E3,-1.9146354E3,7.4456543E3,-1.1760996E4,5.5961835E2,4.2807104E3,-9.142537E3,1.465916E4,-1.30345E3,5.098708E2,-3.405546E3,5.241137E2,-6.139406E2,2.389557E2,9.1100543E2,-6.009027E3,-1.8969932E3,2.8477307E3,1.1092067E3,-1.443713E3,-3.5769653E1],"categories":[],"categories_nodes":[],"categories_segments":[],"categories_sizes":[],"default_left":[0,0,0,0,0,0,0,0,0,0,0,0,0,0,0,0,0,0,0,0,0,0,0],"id":56,"left_children":[1,3,5,7,9,11,13,15,17,19,-1,-1,-1,-1,-1,-1,-1,21,-1,-1,-1,-1,-1],"loss_changes":[2.446092E8,3.9864848E8,3.3732803E8,5.8213184E8,9.1060736E8,1.0115894E9,1.0255471E8,5.108975E7,1.1782608E8,2.3932595E8,0E0,0E0,0E0,0E0,0E0,0E0,0E0,1.3080326E8,0E0,0E0,0E0,0E0,0E0],"parents":[2147483647,0,0,1,1,2,2,3,3,4,4,5,5,6,6,7,7,8,8,9,9,17,17],"right_children":[2,4,6,8,10,12,14,16,18,20,-1,-1,-1,-1,-1,-1,-1,22,-1,-1,-1,-1,-1],"split_conditions":[2.022E3,3E1,3.375E1,1.34E1,3.725E1,3.15E1,3.82E1,4E0,2.325E1,2.021E3,-1.30345E3,5.098708E2,-3.405546E3,5.241137E2,-6.139406E2,2.389557E2,9.1100543E2,2.18E1,-1.8969932E3,2.8477307E3,1.1092067E3,-1.443713E3,-3.5769653E1],"split_indices":[2,0,0,0,0,0,0,0,0,2,0,0,0,0,0,0,0,0,0,0,0,0,0],"split_type":[0,0,0,0,0,0,0,0,0,0,0,0,0,0,0,0,0,0,0,0,0,0,0],"sum_hessian":[2.9E1,2E1,9E0,1.3E1,7E0,4E0,5E0,7E0,6E0,5E0,2E0,2E0,2E0,3E0,2E0,4E0,3E0,4E0,2E0,2E0,3E0,2E0,2E0],"tree_param":{"num_deleted":"0","num_feature":"3","num_nodes":"23","size_leaf_vector":"1"}},{"base_weights":[8.2055493E2,1.8235841E3,-1.6276755E3,4.4057565E2,1.6432861E3,3.3811843E3,-2.2738325E3,6.346266E2,2.106815E3,2.402691E3,-7.729775E3,5.375131E3,-6.4761284E3,-8.1601855E3,2.029575E3,-5.486194E2,-1.7574835E3,2.81142E2,1.4228325E3,-1.2659841E3,-3.2850357E2,-9.8085583E2,-1.0282637E3],"categories":[],"categories_nodes":[],"categories_segments":[],"categories_sizes":[],"default_left":[0,0,0,0,0,0,0,0,0,0,0,0,0,0,0,0,0,0,0,0,0,0,0],"id":57,"left_children":[1,3,-1,5,-1,7,9,11,-1,13,15,17,19,21,-1,-1,-1,-1,-1,-1,-1,-1,-1],"loss_changes":[4.2254794E8,4.4629917E8,0E0,1.9955034E8,0E0,4.5261414E8,3.3169306E8,3.3708582E8,0E0,1.041361E9,1.2857053E8,1.1467891E8,5.799253E7,1.48112E5,0E0,0E0,0E0,0E0,0E0,0E0,0E0,0E0,0E0],"parents":[2147483647,0,0,1,1,3,3,5,5,6,6,7,7,9,9,10,10,11,11,12,12,13,13],"right_children":[2,4,-1,6,-1,8,10,12,-1,14,16,18,20,22,-1,-1,-1,-1,-1,-1,-1,-1,-1],"split_conditions":[5.675E1,3.85E1,-1.6276755E3,2.5E1,1.6432861E3,2.3E1,2.022E3,2.05E1,2.106815E3,3.225E1,3.525E1,3.25E0,2.18E1,3.12E1,2.029575E3,-5.486194E2,-1.7574835E3,2.81142E2,1.4228325E3,-1.2659841E3,-3.2850357E2,-9.8085583E2,-1.0282637E3],"split_indices":[0,0,0,0,0,0,2,0,0,0,0,0,0,0,0,0,0,0,0,0,0,0,0],"split_type":[0,0,0,0,0,0,0,0,0,0,0,0,0,0,0,0,0,0,0,0,0,0,0],"sum_hessian":[3E1,2.8E1,2E0,2.5E1,3E0,1.2E1,1.3E1,1E1,2E0,7E0,6E0,6E0,4E0,4E0,3E0,4E0,2E0,4E0,2E0,2E0,2E0,2E0,2E0],"tree_param":{"num_deleted":"0","num_feature":"3","num_nodes":"23","size_leaf_vector":"1"}},{"base_weights":[1.1292026E3,-8.945372E2,3.704871E3,7.280252E2,-2.0292697E3,1.2987435E3,1.1379917E3,-1.0956405E3,2.609895E2,-7.432559E2,5.443331E3,-2.8431543E2,1.546252E3,1.2745027E3,-2.3649994E2,2.8086972E2,1.1786044E3,6.782444E2,-3.8806012E2],"categories":[],"categories_nodes":[],"categories_segments":[],"categories_sizes":[],"default_left":[0,0,0,0,0,0,0,0,0,0,0,0,0,0,0,0,0,0,0],"id":58,"left_children":[1,3,5,-1,7,-1,9,-1,11,-1,13,-1,15,-1,-1,-1,17,-1,-1],"loss_changes":[1.303121E8,1.0815983E8,1.9327331E8,0E0,1.8883022E8,0E0,2.471461E8,0E0,2.9734196E7,0E0,1.8078395E8,0E0,1.621962E6,0E0,0E0,0E0,7.502586E7,0E0,0E0],"parents":[2147483647,0,0,1,1,2,2,4,4,6,6,8,8,10,10,12,12,16,16],"right_children":[2,4,6,-1,8,-1,10,-1,12,-1,14,-1,16,-1,-1,-1,18,-1,-1],"split_conditions":[7E0,3E0,9E0,7.280252E2,4E0,1.2987435E3,1.1E1,-1.0956405E3,2.02E3,-7.432559E2,2.022E3,-2.8431543E2,5E0,1.2745027E3,-2.3649994E2,2.8086972E2,2.021E3,6.782444E2,-3.8806012E2],"split_indices":[1,1,1,0,1,0,1,0,2,0,2,0,1,0,0,0,2,0,0],"split_type":[0,0,0,0,0,0,0,0,0,0,0,0,0,0,0,0,0,0,0],"sum_hessian":[2.5E1,1.4E1,1.1E1,2E0,1.2E1,3E0,8E0,3E0,9E0,3E0,5E0,3E0,6E0,3E0,2E0,2E0,4E0,2E0,2E0],"tree_param":{"num_deleted":"0","num_feature":"3","num_nodes":"19","size_leaf_vector":"1"}},{"base_weights":[-2.2935532E3,-8.064332E3,2.5894138E3,-8.145297E1,-1.2625975E4,-2.4260913E3,1.0614219E4,3.690022E2,-3.8905676E2,-6.95145E2,-1.7860379E4,-1.2022389E3,2.0533293E1,3.6148723E3,-2.3214265E2,-1.9652184E3,-2.432186E3,-5.519828E2,1.1115482E3],"categories":[],"categories_nodes":[],"categories_segments":[],"categories_sizes":[],"default_left":[0,0,0,0,0,0,0,0,0,0,0,0,0,0,0,0,0,0,0],"id":59,"left_children":[1,3,5,7,9,11,13,-1,-1,-1,15,-1,17,-1,-1,-1,-1,-1,-1],"loss_changes":[6.7628474E8,4.0056544E8,5.2323005E8,3.7918788E7,2.5572403E8,1.4366317E8,1.1718642E9,0E0,0E0,0E0,1.4387712E7,0E0,2.434719E8,0E0,0E0,0E0,0E0,0E0,0E0],"parents":[2147483647,0,0,1,1,2,2,3,3,4,4,5,5,6,6,10,10,12,12],"right_children":[2,4,6,8,10,12,14,-1,-1,-1,16,-1,18,-1,-1,-1,-1,-1,-1],"split_conditions":[7E0,2.02E3,2.022E3,5E0,3E0,2.02E3,1E1,3.690022E2,-3.8905676E2,-6.95145E2,2.021E3,-1.2022389E3,1.1E1,3.6148723E3,-2.3214265E2,-1.9652184E3,-2.432186E3,-5.519828E2,1.1115482E3],"split_indices":[1,2,2,1,1,2,1,0,0,0,2,0,1,0,0,0,0,0,0],"split_type":[0,0,0,0,0,0,0,0,0,0,0,0,0,0,0,0,0,0,0],"sum_hessian":[2.4E1,1.1E1,1.3E1,4E0,7E0,8E0,5E0,2E0,2E0,3E0,4E0,2E0,6E0,2E0,3E0,2E0,2E0,4E0,2E0],"tree_param":{"num_deleted":"0","num_feature":"3","num_nodes":"19","size_leaf_vector":"1"}},{"base_weights":[8.7932587E2,1.8157595E3,-9.298508E2,-4.3420063E3,2.1979585E3,-6.1173047E2,-1.7590979E3,5.244238E3,-2.0668333E3,-5.6850396E3,4.4615786E3,-2.8479196E2,2.3472195E3,7.243049E2,-1.7225505E3,3.2357648E2,-1.7232903E3,8.3667725E2,2.6180817E2,6.6849695E2,-1.0903932E3],"categories":[],"categories_nodes":[],"categories_segments":[],"categories_sizes":[],"default_left":[0,0,0,0,0,0,0,0,0,0,0,0,0,0,0,0,0,0,0,0,0],"id":60,"left_children":[1,-1,3,5,7,9,-1,11,13,15,17,19,-1,-1,-1,-1,-1,-1,-1,-1,-1],"loss_changes":[6.5244154E8,0E0,2.454692E8,4.0817178E8,1.5590102E8,2.0590786E8,0E0,5.349774E8,4.740741E8,2.764569E8,2.1806456E7,2.4496672E8,0E0,0E0,0E0,0E0,0E0,0E0,0E0,0E0,0E0],"parents":[2147483647,0,0,2,2,3,3,4,4,5,5,7,7,8,8,9,9,10,10,11,11],"right_children":[2,-1,4,6,8,10,-1,12,14,16,18,20,-1,-1,-1,-1,-1,-1,-1,-1,-1],"split_conditions":[3E0,1.8157595E3,2.021E3,9E0,2.022E3,5E0,-1.7590979E3,1.1E1,8E0,2.02E3,7E0,8E0,2.3472195E3,7.243049E2,-1.7225505E3,3.2357648E2,-1.7232903E3,8.3667725E2,2.6180817E2,6.6849695E2,-1.0903932E3],"split_indices":[1,0,2,1,2,1,0,1,1,2,1,1,0,0,0,0,0,0,0,0,0],"split_type":[0,0,0,0,0,0,0,0,0,0,0,0,0,0,0,0,0,0,0,0,0],"sum_hessian":[2.6E1,3E0,2.3E1,1.1E1,1.2E1,8E0,3E0,7E0,5E0,4E0,4E0,5E0,2E0,3E0,2E0,2E0,2E0,2E0,2E0,3E0,2E0],"tree_param":{"num_deleted":"0","num_feature":"3","num_nodes":"21","size_leaf_vector":"1"}},{"base_weights":[-5.0808798E2,1.4341877E3,-1.666013E3,-2.8910679E3,6.997679E2,-8.1459814E2,-2.4008943E3,-4.477354E3,7.243463E3,5.7110034E2,-3.3478887E3,3.329454E2,1.7298484E3,-1.5242488E3,5.862014E2,9.018722E1,-4.6547266E2],"categories":[],"categories_nodes":[],"categories_segments":[],"categories_sizes":[],"default_left":[0,0,0,0,0,0,0,0,0,0,0,0,0,0,0,0,0],"id":61,"left_children":[1,-1,3,5,-1,7,-1,9,11,13,-1,-1,-1,15,-1,-1,-1],"loss_changes":[3.2380048E8,0E0,1.8909566E8,6.208877E8,0E0,4.7223555E8,0E0,1.2615996E9,1.5451179E8,7.9028776E7,0E0,0E0,0E0,3.0560296E7,0E0,0E0,0E0],"parents":[2147483647,0,0,2,2,3,3,5,5,7,7,8,8,9,9,13,13],"right_children":[2,-1,4,6,-1,8,-1,10,12,14,-1,-1,-1,16,-1,-1,-1],"split_conditions":[3E0,1.4341877E3,1.2E1,1.1E1,6.997679E2,8E0,-2.4008943E3,2.022E3,2.021E3,2.021E3,-3.3478887E3,3.329454E2,1.7298484E3,2.02E3,5.862014E2,9.018722E1,-4.6547266E2],"split_indices":[1,0,1,1,0,1,0,2,2,2,0,0,0,2,0,0,0],"split_type":[0,0,0,0,0,0,0,0,0,0,0,0,0,0,0,0,0],"sum_hessian":[2.3E1,2E0,2.1E1,1.8E1,3E0,1.6E1,2E0,1.1E1,5E0,9E0,2E0,3E0,2E0,6E0,3E0,3E0,3E0],"tree_param":{"num_deleted":"0","num_feature":"3","num_nodes":"17","size_leaf_vector":"1"}},{"base_weights":[-1.3619071E3,1.4248201E3,-1.4598854E4,4.7941616E3,-5.875419E3,-2.1053328E3,-1.4890513E3,3.7446353E2,1.1865675E4,5.450355E2,-1.1026828E4,-6.345354E3,7.094281E3,2.2029397E3,9.6591376E2,-2.9529219E3,2.3800606E2,1.15853485E2,-1.6781434E3,7.909801E2,9.55703E2],"categories":[],"categories_nodes":[],"categories_segments":[],"categories_sizes":[],"default_left":[0,0,0,0,0,0,0,0,0,0,0,0,0,0,0,0,0,0,0,0,0],"id":62,"left_children":[1,3,5,7,9,-1,-1,11,13,-1,15,17,19,-1,-1,-1,-1,-1,-1,-1,-1],"loss_changes":[8.484185E8,4.6734317E8,2.5060928E7,4.063014E8,3.1844448E8,0E0,0E0,3.612478E8,1.2116742E8,0E0,6.718653E8,2.1236922E8,1.790272E6,0E0,0E0,0E0,0E0,0E0,0E0,0E0,0E0],"parents":[2147483647,0,0,1,1,2,2,3,3,4,4,7,7,8,8,10,10,11,11,12,12],"right_children":[2,4,6,8,10,-1,-1,12,14,-1,16,18,20,-1,-1,-1,-1,-1,-1,-1,-1],"split_conditions":[1.1E1,3.35E1,1.2E1,2.275E1,5E0,-2.1053328E3,-1.4890513E3,5E0,8E0,5.450355E2,3.58E1,1.1E1,5.75E0,2.2029397E3,9.6591376E2,-2.9529219E3,2.3800606E2,1.15853485E2,-1.6781434E3,7.909801E2,9.55703E2],"split_indices":[1,0,1,0,1,0,0,1,1,0,0,0,0,0,0,0,0,0,0,0,0],"split_type":[0,0,0,0,0,0,0,0,0,0,0,0,0,0,0,0,0,0,0,0,0],"sum_hessian":[2.3E1,1.9E1,4E0,1.3E1,6E0,2E0,2E0,8E0,5E0,2E0,4E0,4E0,4E0,2E0,3E0,2E0,2E0,2E0,2E0,2E0,2E0],"tree_param":{"num_deleted":"0","num_feature":"3","num_nodes":"21","size_leaf_vector":"1"}},{"base_weights":[9.674735E2,-5.4092267E2,6.4982573E3,4.6565887E2,-1.3057421E3,1.4847654E3,1.1517111E2,-1.1366747E3,1.8326217E3,8.537508E2,-4.2644854E3,9.076755E2,-1.591035E3,-1.8802844E3,1.392522E2,6.6012683E2,-3.842196E3,3.765267E2,-5.2193317E2,-2.194124E2,3.8194226E2,-1.0712422E3,1.25255035E2],"categories":[],"categories_nodes":[],"categories_segments":[],"categories_sizes":[],"default_left":[0,0,0,0,0,0,0,0,0,0,0,0,0,0,0,0,0,0,0,0,0,0,0],"id":63,"left_children":[1,3,5,7,-1,-1,-1,9,-1,11,13,-1,15,-1,17,19,21,-1,-1,-1,-1,-1,-1],"loss_changes":[2.335932E8,2.2290518E8,1.8566203E8,4.6214467E8,0E0,0E0,0E0,1.1206217E8,0E0,1.7532466E8,3.3937552E8,0E0,4.054184E7,0E0,6.391856E7,2.3862166E7,9.446517E7,0E0,0E0,0E0,0E0,0E0,0E0],"parents":[2147483647,0,0,1,1,2,2,3,3,7,7,9,9,10,10,12,12,14,14,15,15,16,16],"right_children":[2,4,6,8,-1,-1,-1,10,-1,12,14,-1,16,-1,18,20,22,-1,-1,-1,-1,-1,-1],"split_conditions":[2.022E3,1.2E1,1E1,9E0,-1.3057421E3,1.4847654E3,1.1517111E2,2.021E3,1.8326217E3,4E0,4E0,9.076755E2,6E0,-1.8802844E3,7E0,2.02E3,8E0,3.765267E2,-5.2193317E2,-2.194124E2,3.8194226E2,-1.0712422E3,1.25255035E2],"split_indices":[2,1,1,1,0,0,0,2,0,1,1,0,1,0,1,2,1,0,0,0,0,0,0],"split_type":[0,0,0,0,0,0,0,0,0,0,0,0,0,0,0,0,0,0,0,0,0,0,0],"sum_hessian":[2.8E1,2.2E1,6E0,2E1,2E0,3E0,3E0,1.8E1,2E0,1.1E1,7E0,3E0,8E0,2E0,5E0,4E0,4E0,3E0,2E0,2E0,2E0,2E0,2E0],"tree_param":{"num_deleted":"0","num_feature":"3","num_nodes":"23","size_leaf_vector":"1"}},{"base_weights":[7.217148E2,-1.1714321E3,7.753401E3,-2.9265486E3,6.200055E3,5.044703E1,1.0690844E4,7.419705E2,-1.0263585E4,-2.9575922E2,2.351783E3,1.9634823E3,3.4501886E2,2.4746646E3,-6.907719E2,-2.2067712E3,-7.198645E3,5.386436E3,4.8187008E1,-6.2396765E2,-1.061004E3,-2.964745E1,1.7022141E3,9.5116736E2,-3.7909548E3,-3.9936436E1,-8.934347E2],"categories":[],"categories_nodes":[],"categories_segments":[],"categories_sizes":[],"default_left":[0,0,0,0,0,0,0,0,0,0,0,0,0,0,0,0,0,0,0,0,0,0,0,0,0,0,0],"id":64,"left_children":[1,3,5,7,9,-1,11,13,15,-1,-1,-1,-1,17,-1,-1,19,21,23,-1,-1,-1,-1,-1,25,-1,-1],"loss_changes":[4.3929658E8,3.363834E8,1.5100016E8,5.6523725E8,5.550287E8,0E0,2.0741235E8,1.5411438E8,1.6439168E8,0E0,0E0,0E0,0E0,7.771885E7,0E0,0E0,1.5123808E7,2.3749574E8,1.7686816E8,0E0,0E0,0E0,0E0,0E0,4.8067692E7,0E0,0E0],"parents":[2147483647,0,0,1,1,2,2,3,3,4,4,6,6,7,7,8,8,13,13,16,16,17,17,18,18,24,24],"right_children":[2,4,6,8,10,-1,12,14,16,-1,-1,-1,-1,18,-1,-1,20,22,24,-1,-1,-1,-1,-1,26,-1,-1],"split_conditions":[2.022E3,1.1E1,7E0,2.021E3,2.021E3,5.044703E1,1E1,9E0,3E0,-2.9575922E2,2.351783E3,1.9634823E3,3.4501886E2,2.02E3,-6.907719E2,-2.2067712E3,6E0,7E0,3E0,-6.2396765E2,-1.061004E3,-2.964745E1,1.7022141E3,9.5116736E2,7E0,-3.9936436E1,-8.934347E2],"split_indices":[2,1,1,2,2,0,1,1,1,0,0,0,0,2,0,0,1,1,1,0,0,0,0,0,1,0,0],"split_type":[0,0,0,0,0,0,0,0,0,0,0,0,0,0,0,0,0,0,0,0,0,0,0,0,0,0,0],"sum_hessian":[3.3E1,2.6E1,7E0,2.1E1,5E0,2E0,5E0,1.4E1,7E0,3E0,2E0,3E0,2E0,1.1E1,3E0,2E0,5E0,5E0,6E0,2E0,3E0,3E0,2E0,2E0,4E0,2E0,2E0],"tree_param":{"num_deleted":"0","num_feature":"3","num_nodes":"27","size_leaf_vector":"1"}},{"base_weights":[2.268157E3,-2.1909167E3,6.72723E3,-1.0456244E3,-9.3034735E2,9.55739E3,1.0669093E3,1.436005E2,-6.4336365E2,2.748808E2,1.1998885E4,5.4824396E2,-2.8556015E2,-2.8594E3,6.338188E2,7.21737E3,2.654379E3,-1.5283596E1,-8.5709064E2,8.088234E2,9.681654E2],"categories":[],"categories_nodes":[],"categories_segments":[],"categories_sizes":[],"default_left":[0,0,0,0,0,0,0,0,0,0,0,0,0,0,0,0,0,0,0,0,0],"id":65,"left_children":[1,3,5,-1,7,9,11,13,-1,-1,15,-1,-1,17,-1,19,-1,-1,-1,-1,-1],"loss_changes":[4.7720016E8,9.534195E7,1.9223533E8,0E0,4.613451E7,1.4306176E8,4.5875044E7,1.20240184E8,0E0,0E0,2.7435354E8,0E0,0E0,5.6111852E7,0E0,1.6752E6,0E0,0E0,0E0,0E0,0E0],"parents":[2147483647,0,0,1,1,2,2,4,4,5,5,6,6,7,7,10,10,13,13,15,15],"right_children":[2,4,6,-1,8,10,12,14,-1,-1,16,-1,-1,18,-1,20,-1,-1,-1,-1,-1],"split_conditions":[2.325E1,4E0,3.525E1,-1.0456244E3,2.275E1,5E0,9E0,1.12E1,-6.4336365E2,2.748808E2,3E1,5.4824396E2,-2.8556015E2,6E0,6.338188E2,2.6E1,2.654379E3,-1.5283596E1,-8.5709064E2,8.088234E2,9.681654E2],"split_indices":[0,1,0,0,0,1,1,0,0,0,0,0,0,1,0,0,0,0,0,0,0],"split_type":[0,0,0,0,0,0,0,0,0,0,0,0,0,0,0,0,0,0,0,0,0],"sum_hessian":[2.4E1,1.2E1,1.2E1,2E0,1E1,8E0,4E0,8E0,2E0,2E0,6E0,2E0,2E0,5E0,3E0,4E0,2E0,3E0,2E0,2E0,2E0],"tree_param":{"num_deleted":"0","num_feature":"3","num_nodes":"21","size_leaf_vector":"1"}},{"base_weights":[1.2773074E3,3.3268306E3,-8.457924E3,1.1158745E3,2.7230762E3,-4.9369308E2,-1.5887327E3,3.2403372E3,-1.0831129E3,-2.4201596E2,2.9710713E3,1.0681359E3,-8.3622437E2,-6.9424927E2,6.377293E2,2.6531423E3,-6.3490674E2,-1.5178775E2,8.0501807E2],"categories":[],"categories_nodes":[],"categories_segments":[],"categories_sizes":[],"default_left":[0,0,0,0,0,0,0,0,0,0,0,0,0,0,0,0,0,0,0],"id":66,"left_children":[1,3,5,7,-1,-1,-1,9,-1,11,-1,13,-1,15,-1,17,-1,-1,-1],"loss_changes":[4.5890957E8,7.894637E8,7.912374E7,3.580583E8,0E0,0E0,0E0,1.0186486E9,0E0,1.02989784E8,0E0,7.2473336E7,0E0,1.0458032E8,0E0,6.0408212E7,0E0,0E0,0E0],"parents":[2147483647,0,0,1,1,2,2,3,3,7,7,9,9,11,11,13,13,15,15],"right_children":[2,4,6,8,-1,-1,-1,10,-1,12,-1,14,-1,16,-1,18,-1,-1,-1],"split_conditions":[3.82E1,3.62E1,5.2E1,3.35E1,2.7230762E3,-4.9369308E2,-1.5887327E3,2.022E3,-1.0831129E3,2.021E3,2.9710713E3,2.3E1,-8.3622437E2,8.8E0,6.377293E2,2.2E0,-6.3490674E2,-1.5178775E2,8.0501807E2],"split_indices":[0,0,0,0,0,0,0,2,0,2,0,0,0,0,0,0,0,0,0],"split_type":[0,0,0,0,0,0,0,0,0,0,0,0,0,0,0,0,0,0,0],"sum_hessian":[2.3E1,1.9E1,4E0,1.7E1,2E0,2E0,2E0,1.4E1,3E0,1.2E1,2E0,1E1,2E0,7E0,3E0,4E0,3E0,2E0,2E0],"tree_param":{"num_deleted":"0","num_feature":"3","num_nodes":"19","size_leaf_vector":"1"}},{"base_weights":[1.0902845E3,-6.665309E2,9.874357E3,2.1749036E3,-6.7045776E3,1.9086562E3,1.7597366E2,1.6024403E1,2.2610068E3,-1.2258612E4,3.1418253E2,1.8274355E3,-1.4474862E3,-1.6745932E2,-3.5215522E3,-1.2052825E3,5.3656055E3,1.6167302E3,-6.115817E2,1.6919812E3,1.5650156E3,8.8645276E2,-4.8839758E2,9.809188E2,-5.6433606E2],"categories":[],"categories_nodes":[],"categories_segments":[],"categories_sizes":[],"default_left":[0,0,0,0,0,0,0,0,0,0,0,0,0,0,0,0,0,0,0,0,0,0,0,0,0],"id":67,"left_children":[1,3,5,7,9,-1,-1,11,-1,13,-1,15,-1,-1,-1,17,19,21,-1,23,-1,-1,-1,-1,-1],"loss_changes":[4.629599E8,4.2891792E8,2.3772074E8,5.94246E8,4.112976E8,0E0,0E0,3.1991776E8,0E0,8.9079885E8,0E0,1.3949358E8,0E0,0E0,0E0,7.43284E7,1.619459E8,1.24726664E8,0E0,1.5756098E8,0E0,0E0,0E0,0E0,0E0],"parents":[2147483647,0,0,1,1,2,2,3,3,4,4,7,7,9,9,11,11,15,15,16,16,17,17,19,19],"right_children":[2,4,6,8,10,-1,-1,12,-1,14,-1,16,-1,-1,-1,18,20,22,-1,24,-1,-1,-1,-1,-1],"split_conditions":[3.62E1,3.1E1,5.2E1,2.6E1,7E0,1.9086562E3,1.7597366E2,1E1,2.2610068E3,5E0,3.1418253E2,1.12E1,-1.4474862E3,-1.6745932E2,-3.5215522E3,6E0,7E0,2.2E0,-6.115817E2,2.275E1,1.5650156E3,8.8645276E2,-4.8839758E2,9.809188E2,-5.6433606E2],"split_indices":[0,0,0,0,1,0,0,1,0,1,0,0,0,0,0,1,1,0,0,0,0,0,0,0,0],"split_type":[0,0,0,0,0,0,0,0,0,0,0,0,0,0,0,0,0,0,0,0,0,0,0,0,0],"sum_hessian":[3E1,2.5E1,5E0,1.7E1,8E0,3E0,2E0,1.5E1,2E0,5E0,3E0,1.3E1,2E0,3E0,2E0,7E0,6E0,4E0,3E0,4E0,2E0,2E0,2E0,2E0,2E0],"tree_param":{"num_deleted":"0","num_feature":"3","num_nodes":"25","size_leaf_vector":"1"}},{"base_weights":[-1.269478E3,-3.2691182E3,7.395627E3,2.3812947E3,-7.412754E3,1.8679586E3,3.5065874E3,4.0542861E3,-5.464409E2,-1.0338712E4,-4.0687986E3,7.090459E2,1.5431104E2,1.4984724E3,1.2856862E3,-6.891956E2,5.546564E2,-8.1378203E3,-1.2539597E4,4.9221783E1,-9.134733E2,2.4240295E2,9.756932E1,-7.028652E2,-1.3007478E3,-1.9573452E3,-1.1300292E3],"categories":[],"categories_nodes":[],"categories_segments":[],"categories_sizes":[],"default_left":[0,0,0,0,0,0,0,0,0,0,0,0,0,0,0,0,0,0,0,0,0,0,0,0,0,0,0],"id":68,"left_children":[1,3,5,7,9,-1,11,13,15,17,19,-1,-1,21,-1,-1,-1,23,25,-1,-1,-1,-1,-1,-1,-1,-1],"loss_changes":[5.54467E8,6.087447E8,1.8149507E8,5.3878856E7,1.467639E8,0E0,2.0305724E7,1.1431299E8,1.0209062E8,3.8750976E7,1.0483561E8,0E0,0E0,1.660988E6,0E0,0E0,0E0,2.3587248E7,4.5163456E7,0E0,0E0,0E0,0E0,0E0,0E0,0E0,0E0],"parents":[2147483647,0,0,1,1,2,2,3,3,4,4,6,6,7,7,8,8,9,9,10,10,13,13,17,17,18,18],"right_children":[2,4,6,8,10,-1,12,14,16,18,20,-1,-1,22,-1,-1,-1,24,26,-1,-1,-1,-1,-1,-1,-1,-1],"split_conditions":[3.62E1,2.05E1,4.575E1,8.8E0,3.175E1,1.8679586E3,5.2E1,3.25E0,2.021E3,2.02E3,2.022E3,7.090459E2,1.5431104E2,2.2E0,1.2856862E3,-6.891956E2,5.546564E2,2.6E1,3E1,4.9221783E1,-9.134733E2,2.4240295E2,9.756932E1,-7.028652E2,-1.3007478E3,-1.9573452E3,-1.1300292E3],"split_indices":[0,0,0,0,0,0,0,0,2,2,2,0,0,0,0,0,0,0,0,0,0,0,0,0,0,0,0],"split_type":[0,0,0,0,0,0,0,0,0,0,0,0,0,0,0,0,0,0,0,0,0,0,0,0,0,0,0],"sum_hessian":[3.2E1,2.6E1,6E0,1.1E1,1.5E1,2E0,4E0,7E0,4E0,8E0,7E0,2E0,2E0,5E0,2E0,2E0,2E0,4E0,4E0,3E0,4E0,3E0,2E0,2E0,2E0,2E0,2E0],"tree_param":{"num_deleted":"0","num_feature":"3","num_nodes":"27","size_leaf_vector":"1"}},{"base_weights":[9.966078E2,-1.241682E3,5.7529727E3,3.388595E3,-4.482876E3,6.013877E2,2.6107766E3,8.0884445E1,5.437262E3,-6.026655E3,-2.1672053E3,5.7959688E3,-1.2049241E3,6.952453E2,6.434632E2,-4.7243774E3,-1.0625447E3,6.3711586E1,-5.972993E2,4.7232666E2,9.546989E2,-4.2627582E2,-7.3691327E2],"categories":[],"categories_nodes":[],"categories_segments":[],"categories_sizes":[],"default_left":[0,0,0,0,0,0,0,0,0,0,0,0,0,0,0,0,0,0,0,0,0,0,0],"id":69,"left_children":[1,3,5,7,9,11,-1,-1,13,15,17,19,-1,-1,-1,21,-1,-1,-1,-1,-1,-1,-1],"loss_changes":[2.6615312E8,2.5512973E8,6.369311E8,3.917239E7,3.5748816E7,3.2380413E8,0E0,0E0,1.7684E5,2.0350912E7,2.883139E7,1.53536E7,0E0,0E0,0E0,6.367248E6,0E0,0E0,0E0,0E0,0E0,0E0,0E0],"parents":[2147483647,0,0,1,1,2,2,3,3,4,4,5,5,8,8,9,9,10,10,11,11,15,15],"right_children":[2,4,6,8,10,12,-1,-1,14,16,18,20,-1,-1,-1,22,-1,-1,-1,-1,-1,-1,-1],"split_conditions":[2.022E3,7E0,9E0,2.02E3,1E1,5E0,2.6107766E3,8.0884445E1,5E0,2.021E3,1.2E1,3E0,-1.2049241E3,6.952453E2,6.434632E2,2.02E3,-1.0625447E3,6.3711586E1,-5.972993E2,4.7232666E2,9.546989E2,-4.2627582E2,-7.3691327E2],"split_indices":[2,1,1,2,1,1,0,0,1,2,1,1,0,0,0,2,0,0,0,0,0,0,0],"split_type":[0,0,0,0,0,0,0,0,0,0,0,0,0,0,0,0,0,0,0,0,0,0,0],"sum_hessian":[2.5E1,1.7E1,8E0,7E0,1E1,6E0,2E0,3E0,4E0,6E0,4E0,4E0,2E0,2E0,2E0,4E0,2E0,2E0,2E0,2E0,2E0,2E0,2E0],"tree_param":{"num_deleted":"0","num_feature":"3","num_nodes":"23","size_leaf_vector":"1"}},{"base_weights":[-1.3152057E3,-4.824296E3,2.4863088E3,5.387005E2,-7.584367E3,-5.122842E2,4.7021978E3,-3.8376943E3,-2.0098867E3,1.6644999E3,2.928097E2,-4.8043344E2,-1.5056781E3,1.6265488E3,-6.1671323E3,-1.3054011E3,7.716948E2,-1.1829951E3,-3.3541476E2],"categories":[],"categories_nodes":[],"categories_segments":[],"categories_sizes":[],"default_left":[0,0,0,0,0,0,0,0,0,0,0,0,0,0,0,0,0,0,0],"id":70,"left_children":[1,3,5,-1,7,-1,9,11,-1,-1,13,15,-1,-1,17,-1,-1,-1,-1],"loss_changes":[3.334965E8,3.3011315E8,1.7676595E8,0E0,3.2754246E8,0E0,3.4996845E8,1.972458E8,0E0,0E0,5.007703E8,3.416196E8,0E0,0E0,4.7403344E7,0E0,0E0,0E0,0E0],"parents":[2147483647,0,0,1,1,2,2,4,4,6,6,7,7,10,10,11,11,14,14],"right_children":[2,4,6,-1,8,-1,10,12,-1,-1,14,16,-1,-1,18,-1,-1,-1,-1],"split_conditions":[7E0,5.75E0,4E0,5.387005E2,5E0,-5.122842E2,2.5E1,5.2E1,-2.0098867E3,1.6644999E3,9E0,2.15E1,-1.5056781E3,1.6265488E3,2.95E1,-1.3054011E3,7.716948E2,-1.1829951E3,-3.3541476E2],"split_indices":[1,0,0,0,1,0,0,0,0,0,1,0,0,0,0,0,0,0,0],"split_type":[0,0,0,0,0,0,0,0,0,0,0,0,0,0,0,0,0,0,0],"sum_hessian":[2.5E1,1.3E1,1.2E1,3E0,1E1,3E0,9E0,7E0,3E0,3E0,6E0,5E0,2E0,2E0,4E0,2E0,3E0,2E0,2E0],"tree_param":{"num_deleted":"0","num_feature":"3","num_nodes":"19","size_leaf_vector":"1"}},{"base_weights":[-1.7290443E3,8.395177E2,-4.8113184E3,3.965919E3,-7.236838E2,-1.2384683E3,-2.5617725E3,2.266429E2,7.4980615E2,1.9403341E3,-6.356792E2,2.0812248E2,-1.0133531E3,-5.3149115E2,7.524358E2],"categories":[],"categories_nodes":[],"categories_segments":[],"categories_sizes":[],"default_left":[0,0,0,0,0,0,0,0,0,0,0,0,0,0,0],"id":71,"left_children":[1,3,5,7,9,-1,11,-1,-1,13,-1,-1,-1,-1,-1],"loss_changes":[1.7417429E8,5.864637E7,1.180771E8,1.8060164E7,9.462656E7,0E0,1.6877222E8,0E0,0E0,1.3052997E8,0E0,0E0,0E0,0E0,0E0],"parents":[2147483647,0,0,1,1,2,2,3,3,4,4,6,6,9,9],"right_children":[2,4,6,8,10,-1,12,-1,-1,14,-1,-1,-1,-1,-1],"split_conditions":[3.1E1,2.02E3,3.32E1,2.275E1,8.8E0,-1.2384683E3,3.525E1,2.266429E2,7.4980615E2,2.2E0,-6.356792E2,2.0812248E2,-1.0133531E3,-5.3149115E2,7.524358E2],"split_indices":[0,2,0,0,0,0,0,0,0,0,0,0,0,0,0],"split_type":[0,0,0,0,0,0,0,0,0,0,0,0,0,0,0],"sum_hessian":[2.2E1,1.2E1,1E1,4E0,8E0,3E0,7E0,2E0,2E0,5E0,3E0,4E0,3E0,2E0,3E0],"tree_param":{"num_deleted":"0","num_feature":"3","num_nodes":"15","size_leaf_vector":"1"}},{"base_weights":[-3.3499924E2,-2.280018E3,3.378218E3,-4.8270523E2,-4.676434E3,4.3944516E2,6.904743E3,8.3804926E2,-1.9407662E3,-1.1136613E3,-7.52665E3,5.870652E2,-1.01183594E3,1.342313E3,5.218055E2,-9.98254E2,-3.9871606E2,-1.1941895E3,9.199948E2,-2.1397043E3,-1.178109E2,2.8788562E2,-2.0410673E3,-5.711201E1,-3.8070145E2],"categories":[],"categories_nodes":[],"categories_segments":[],"categories_sizes":[],"default_left":[0,0,0,0,0,0,0,0,0,0,0,0,0,0,0,0,0,0,0,0,0,0,0,0,0],"id":72,"left_children":[1,3,5,7,9,11,13,-1,15,17,19,-1,-1,-1,-1,-1,21,-1,-1,-1,-1,-1,23,-1,-1],"loss_changes":[2.3111291E8,9.04493E7,1.1400024E8,1.27556424E8,9.139202E7,2.249212E8,5.3308144E7,0E0,9.511661E7,2.9494035E8,3.2370237E8,0E0,0E0,0E0,0E0,0E0,3.5964244E7,0E0,0E0,0E0,0E0,0E0,8.291204E6,0E0,0E0],"parents":[2147483647,0,0,1,1,2,2,3,3,4,4,5,5,6,6,8,8,9,9,10,10,16,16,22,22],"right_children":[2,4,6,8,10,12,14,-1,16,18,20,-1,-1,-1,-1,-1,22,-1,-1,-1,-1,-1,24,-1,-1],"split_conditions":[9E0,2.021E3,2.021E3,3E0,4E0,1.2E1,2.022E3,8.3804926E2,4E0,2.022E3,6E0,5.870652E2,-1.01183594E3,1.342313E3,5.218055E2,-9.98254E2,6E0,-1.1941895E3,9.199948E2,-2.1397043E3,-1.178109E2,2.8788562E2,2.02E3,-5.711201E1,-3.8070145E2],"split_indices":[1,2,2,1,1,1,2,0,1,2,1,0,0,0,0,0,1,0,0,0,0,0,2,0,0],"split_type":[0,0,0,0,0,0,0,0,0,0,0,0,0,0,0,0,0,0,0,0,0,0,0,0,0],"sum_hessian":[3.2E1,2.1E1,1.1E1,1.2E1,9E0,6E0,5E0,2E0,1E1,4E0,5E0,4E0,2E0,2E0,3E0,2E0,8E0,2E0,2E0,2E0,3E0,3E0,5E0,2E0,3E0],"tree_param":{"num_deleted":"0","num_feature":"3","num_nodes":"25","size_leaf_vector":"1"}},{"base_weights":[-2.0697927E3,2.5381902E3,-7.599371E3,7.125713E2,9.8669244E2,6.6038617E2,-1.3105874E4,2.4351782E3,-1.4406876E3,-5.878066E1,2.2137437E2,-1.0320974E3,-2.194701E3,6.7598404E1,6.4805896E2,-7.636193E2,4.0890756E2],"categories":[],"categories_nodes":[],"categories_segments":[],"categories_sizes":[],"default_left":[0,0,0,0,0,0,0,0,0,0,0,0,0,0,0,0,0],"id":73,"left_children":[1,3,5,7,-1,9,11,13,15,-1,-1,-1,-1,-1,-1,-1,-1],"loss_changes":[5.6056454E8,1.1998373E8,4.5482394E8,3.3382986E7,0E0,5.178992E6,1.3378304E8,2.6679322E7,9.071813E7,0E0,0E0,0E0,0E0,0E0,0E0,0E0,0E0],"parents":[2147483647,0,0,1,1,2,2,3,3,5,5,6,6,7,7,8,8],"right_children":[2,4,6,8,-1,10,12,14,16,-1,-1,-1,-1,-1,-1,-1,-1],"split_conditions":[3.1E1,1.1E1,4E0,8E0,9.8669244E2,3.35E1,3.32E1,6E0,1E1,-5.878066E1,2.2137437E2,-1.0320974E3,-2.194701E3,6.7598404E1,6.4805896E2,-7.636193E2,4.0890756E2],"split_indices":[0,1,1,1,0,0,0,1,1,0,0,0,0,0,0,0,0],"split_type":[0,0,0,0,0,0,0,0,0,0,0,0,0,0,0,0,0],"sum_hessian":[2.2E1,1.2E1,1E1,9E0,3E0,4E0,6E0,5E0,4E0,2E0,2E0,3E0,3E0,3E0,2E0,2E0,2E0],"tree_param":{"num_deleted":"0","num_feature":"3","num_nodes":"17","size_leaf_vector":"1"}},{"base_weights":[1.0497059E3,-7.6082367E2,5.0731045E3,-6.215567E3,1.0574248E3,-7.2684705E2,9.713063E3,-3.181658E2,-1.4356698E3,3.7077495E3,-1.9715181E3,7.79486E2,-9.5844305E2,1.6382157E3,5.319941E2,2.239258E3,9.987782E2,1.9513409E1,-3.5690383E3,-1.4387936E2,6.952073E2,